97 100
CTG -0.095716365 0.06461633 0.06262799 0.099993356 -0.03149612 -0.15698761 0.19189112 0.18462391 -0.26958668 -0.06578173 0.14693893 -0.06285957 -0.029010875 0.10471641 -0.05307086 0.01467648 0.21070366 -0.043104287 -0.1252529 -0.37004378 0.1916744 -0.093945585 0.22005698 -0.077234864 0.06889217 0.057586417 -0.03671977 0.12041745 -0.12867455 0.1609593 0.046365164 -0.1317608 0.13874999 -0.4318458 -0.09168318 -0.047802966 0.035619933 -0.0027053049 0.12551531 -0.15191847 -0.0844321 -0.11471699 -0.102782845 0.08460545 0.1606175 -0.099134624 -0.10146585 0.16409053 0.04366018 0.17488378 0.04624604 0.16785425 -0.017084004 -0.08466146 0.12847315 -0.22446692 0.30742747 -0.0024781078 -0.1237339 0.011234599 -0.08273433 -0.16115594 0.013300588 -0.01028393 -0.06594206 0.16841486 0.1753733 0.20513427 -0.20181814 -0.02542018 0.012672929 0.061682887 0.08541333 -0.0004519495 0.115245394 -0.03681894 0.108802 0.10007252 -0.0149303 0.088399984 -0.02089745 -0.06599585 0.21480793 -0.056364175 0.09741603 -0.06177834 0.18374452 -0.051421475 0.054724835 0.19357054 0.18175967 0.11742158 0.099429525 -0.15863208 0.3928739 0.2292886 -0.08664855 -0.011571194 0.09775274 0.08703099
CAG -0.07928757 -0.018804895 0.1275828 0.30851287 0.0336677 0.025122322 0.05483352 0.14826834 -0.06866758 -0.06497652 -0.032600034 -0.354778 0.101784326 0.15959962 0.09118558 -0.012298664 0.102028266 0.015479808 -0.032618 -0.21617448 0.23714393 0.060815874 0.035665974 -0.14046863 0.13382652 0.012957317 -0.07080497 0.014017326 -0.12588167 0.15721262 0.19907598 -0.014452773 0.1354729 -0.23628265 -0.08382827 0.24609819 0.13141721 0.26067933 0.032838922 0.119734176 0.19031866 -0.18386696 0.043768045 0.16088174 0.02740486 0.11846866 0.026369054 -0.17454943 0.1775746 0.066341884 0.11396934 -0.10774892 -0.059024543 -0.108282305 -0.02483421 0.016174685 0.09145073 0.22602996 -0.015544227 0.16643035 -0.14341614 0.09138485 0.08828709 -0.0900936 -0.066646144 0.15818708 0.07694659 0.008851466 0.047503855 0.060621444 0.025846567 -0.042480294 0.08653629 0.013669519 0.1109336 -0.09249697 0.036331818 0.058490925 0.1992067 -0.021381063 -0.2953941 -0.13684578 -0.13927795 -0.052215286 -0.0031116053 -0.2021339 0.022743339 -0.11095734 0.29380697 0.04970108 -0.12775908 0.0481567 0.17674473 0.0037493114 0.11494488 0.047244158 0.08089459 0.0450948 -0.061988443 0.09500055
CCC -0.031021524 0.32047963 -0.15140815 0.17242405 0.08814144 0.10698418 0.08074723 0.13268064 0.017194634 0.11233168 0.053459637 -0.26094022 0.19225799 -0.06999528 0.039469525 0.114646874 0.22592236 0.16259709 -0.121771984 -0.2570543 0.14195503 0.033730704 0.10336719 -0.004261794 -0.029697087 0.23286447 0.053112466 0.024245178 -0.08200461 0.069927506 0.116379514 -0.31781572 0.007156033 -0.28012776 -0.08766268 0.11292 0.28442582 0.11863688 -0.19259128 0.16433358 -0.09060109 -0.11707787 -0.024274869 0.17942676 0.27350244 0.064252876 0.02847034 -0.025292968 -0.027219815 -0.07736209 0.095852345 -0.012861104 -0.13490728 -0.08367429 -0.19512583 -0.060436074 0.16610149 -0.14967181 -0.0904073 -0.09611054 0.036483917 -0.16346435 0.1980449 0.13751478 -0.08163482 0.10429618 0.05088309 0.27643296 0.05226535 -0.00998963 -0.047733 -0.086784534 0.093878165 0.1890502 -0.046002336 0.101393856 0.02126799 0.18025045 0.02296176 0.08639658 -0.16979027 -0.25247753 0.07405629 -0.15357631 -0.01037478 -0.15719083 -0.072324574 -0.20284957 0.026411785 -0.13275748 -0.017932452 0.24556214 0.15319899 -0.17264102 0.35714877 -0.015731027 -0.0019784411 0.10495753 -0.14708084 0.12859778
CCT -0.036118034 0.24852367 -0.090128325 0.17905998 0.14085135 -0.0016370291 0.050507873 0.16022103 -0.070824526 -0.11079534 0.12733993 -0.15257558 0.20823862 0.0160883 0.23106714 -0.07292739 0.12604892 0.021568261 -0.02436496 -0.079437315 0.19327356 -0.08254173 0.26971552 -0.028491553 0.112424836 0.1680575 -0.061652526 0.24854808 -0.010881464 -0.027431026 0.11345042 -0.26691198 -0.051616844 -0.1447799 0.036985118 0.17757656 0.117375344 0.05658406 -0.21600404 -0.040270425 -0.18329796 -0.005482519 0.047484387 0.046642624 0.09091286 -0.0078010918 -0.046037447 -0.037687518 -0.04529872 0.0485661 0.08847018 0.02113501 -0.2259665 -0.10617357 -0.0075807096 -0.14420778 0.020743947 0.0087133115 0.020049024 -0.08465232 -0.07723521 0.0795174 0.29981887 0.049251374 -0.27656266 0.06010528 0.14465661 0.36115348 -0.061618116 0.11740883 0.15191987 0.009432357 0.033092417 0.2688315 0.03642482 -0.09876068 -0.0058274255 0.17338482 -0.04447231 -0.042636055 -0.26102751 0.0027235688 -0.017105263 -0.022274699 -0.024984257 -0.21114624 -0.072072946 -0.14207733 -0.039383113 0.008584529 -0.121360734 0.06472925 0.056574512 -0.16526832 0.42916703 0.012982242 0.034720886 -0.08810869 0.050054558 -0.10399906
AGG -0.17159006 0.064036384 -0.059172597 0.29964018 0.13939579 0.05909803 0.046183556 0.20665821 -0.2696195 0.1333747 -0.017832797 -0.07373718 -0.013376508 0.22042395 -0.20719056 -0.07429361 0.041377317 0.14897618 0.016784811 -0.37467286 0.099950455 -0.045071434 0.16663101 0.11682981 -0.18763772 -0.16059913 -0.13544321 0.14629383 -0.332353 -0.08716383 0.14085963 -0.00022866702 0.14107405 -0.20952055 -0.10101815 -0.08373489 -0.01146052 0.11541773 0.014307059 0.0035107145 0.18570642 -0.15904656 -0.22880647 0.22682182 0.05846304 -0.050359078 0.06883462 -0.11206506 0.24155623 -0.07330862 -0.06852355 -0.015920032 0.08358756 -0.029735416 0.0027781154 -0.07550472 -0.048671443 -0.20584875 -0.07363294 -0.12925912 0.05962952 -0.029973328 0.091944486 -0.032156866 -0.2184315 0.15030223 0.052896243 0.14621353 -0.10080824 0.09473388 0.014716521 0.07647973 0.074725956 -0.06282246 0.1380574 -0.029384397 -0.019181566 0.12377773 0.16569737 -0.3057696 -0.2739942 -0.08640938 -0.09826929 0.15552147 -0.1539355 -0.14441866 0.09449978 0.11482592 0.063160434 0.011092481 0.03025424 -0.14916623 0.18119809 -0.008541724 0.116608955 -0.06944193 0.076816656 0.15633997 -0.07832711 0.10600011
CTC 0.046148207 0.21809463 -0.053711683 0.16977161 -0.01216831 -0.01240701 0.10378901 0.25209963 -0.22451504 -0.114862874 0.142431 -0.14483583 0.19146028 -0.010874742 0.008986637 0.012660575 0.13144061 0.012536571 0.048742004 -0.23218738 0.21788444 -0.065073654 0.18259059 -0.034099758 0.056601975 0.011099201 -0.07785827 0.06849245 0.015725272 0.20225766 0.19857392 -0.23906761 0.09094498 -0.42166173 0.07364866 0.22332694 0.26391122 0.11440525 -0.054300487 -0.058837514 -0.0012031002 -0.10970615 -0.09301817 0.025581062 -0.03508376 -0.010172617 -0.060506146 0.039765183 0.008683169 -0.05908709 0.1750753 -0.10553143 -0.1694262 -0.10506109 -0.06154067 -0.12329892 0.25412068 -0.0448388 -0.18529652 -0.15564433 -0.019533036 -0.13577956 0.14488935 0.029358936 -0.15287448 0.26092073 0.11020317 0.12086819 -0.13369955 -0.062490717 0.0074102613 0.036544565 0.09505368 0.12809813 -0.10779941 -0.0070524462 0.019718062 -0.0030407005 0.03285018 0.3321013 -0.068900205 -0.15206116 0.17550981 -0.2158326 -0.11171809 -0.1309581 0.02013168 8.735918e-05 0.08618456 0.123673275 0.24106462 0.17240848 -0.18438564 0.06467974 0.16101089 0.06274645 -0.03664018 0.032332573 -0.14329833 -0.04223685
TGG 0.20714974 -0.13814856 0.08066186 0.23486559 -0.052403145 0.027026506 0.16513516 0.10861989 -0.17855819 -0.12552787 0.062755376 0.0055359006 0.061718427 0.31146884 0.055106036 0.0065833046 0.11776845 0.16073824 0.094668575 -0.36692762 0.22639173 -0.069152504 0.18387705 0.082691394 -0.030670568 0.016855199 -0.12771781 0.095282465 -0.2385922 -0.033565126 0.13809963 0.07261644 0.18286099 -0.17536011 -0.07763725 -0.040568594 -0.04276689 0.16327009 -0.02884877 0.0011175853 0.20491841 -0.09096911 -0.0018026533 -0.019694488 0.162225 -0.059097584 -0.22092828 -0.038098805 0.10121583 0.053699728 -0.06027596 -0.107006595 -0.11974852 -0.083074674 -0.11243606 -0.17735481 -0.09582832 -0.19265886 -0.0033134262 -0.14087145 -0.062184893 0.0017013474 0.04892172 0.10433558 -0.15443128 0.22808236 -0.08060696 -0.005063285 -0.06327424 -0.04703701 0.031895194 0.13338263 -0.043575037 -0.014310216 0.31729537 0.017194862 0.089296736 0.1254267 -0.034972016 -0.060286973 -0.12138874 -0.24235056 -0.14809263 0.18997224 -0.16564536 -0.12566532 0.31931177 -0.00015439876 -0.09592281 0.040259592 -0.10438044 -0.056282245 0.028306074 0.10847999 0.24572043 0.118925184 0.21416071 -0.08968229 -0.038319714 0.16261761
GGG 0.23228191 -0.074554 0.09918873 0.19290298 0.10249674 0.14779358 0.06927228 0.17397353 -0.17738688 -0.10369628 0.013009299 -0.09560356 -0.0053844005 0.1379188 -0.14666718 0.020908926 0.0018482679 0.1704058 -0.10676771 -0.57232374 0.08796182 0.021590175 0.09913551 -0.020026743 -0.10900708 0.07629792 -0.13506663 0.110847846 -0.23611677 0.06485685 0.010927444 -0.0881961 0.050583724 -0.26993155 0.0010294495 -0.070590734 -0.18652596 0.007850937 -0.0026743035 -0.18269204 0.24001181 -0.25693277 -0.13808826 0.18695618 0.26744077 -0.24377547 -0.14764866 -0.26019162 0.18474169 0.10352429 -0.10373073 -0.16507362 0.08604773 -0.103836074 -0.028143438 -0.099952936 -0.17751567 -0.07833148 -0.01472905 -0.017895212 0.037535693 0.021745356 0.11261332 0.11567576 -0.098341726 0.14755206 -0.005716583 0.25798488 0.0008946145 -0.15654768 0.055099655 0.0940068 0.03274603 -0.052602563 -0.038486302 -0.08663739 0.093363434 -0.02054443 0.03147566 -0.17011645 -0.23063678 -0.18207464 -0.26396418 0.20958544 -0.046897985 -0.06807898 0.14188957 0.0007949682 -0.07208821 0.05153039 -0.1342812 -0.075041756 0.07176203 0.10343013 0.22998226 0.12821983 0.13186967 0.0066186585 -0.079675205 0.10752209
CCA -0.10775797 0.19902961 -0.16476408 0.22020689 0.117168665 0.21352719 0.102658175 0.068245575 0.025520407 0.23056066 0.01383913 -0.24655329 0.26586306 0.0040992615 0.035280406 -0.094329625 0.118112035 -0.03133949 -0.17923304 -0.08607185 0.14693843 0.22035284 0.111592494 0.11619097 0.059423126 0.11276688 0.016398415 -0.05006255 -0.15317242 0.012194908 0.040884703 -0.24046606 0.11037028 -0.14008252 -0.030987082 0.25391805 0.046870083 0.12612379 -0.090828486 0.073611416 -0.13661575 -0.036580864 -0.08230618 0.049747698 0.16666707 0.09102635 -0.051915236 -0.09436372 -0.008298354 -0.07576571 0.04908895 -0.13668017 -0.11721669 -0.1587932 0.080519125 -0.18957312 0.096839175 -0.07214071 0.09326216 -0.071748115 -0.11726127 -0.25789723 0.20125602 0.042298995 -0.18633692 0.037227754 -0.030362668 0.26502362 -0.1323807 0.13206942 0.025686108 0.013132342 0.095002614 0.08855177 -0.07592888 -0.083304785 -0.012825406 0.017770153 -0.066853255 0.027666433 -0.31842792 -0.23003453 0.05427077 -0.0322031 -0.011992598 -0.18332657 -0.0197615 -0.16693819 0.05283817 -0.0028867573 -0.2101081 0.13855031 0.20027956 -0.16423476 0.26780233 0.09931943 0.07358047 0.13717479 -0.11116072 0.083329126
GAG -0.0025644551 -0.10200568 -0.039871436 0.31880996 -0.12822843 0.037923355 0.08876869 0.28816393 -0.008856902 -0.077468865 -0.010400114 -0.18846326 -0.05391418 0.15601146 -0.09325319 0.15624003 0.043542232 0.03590534 -0.004964192 -0.3822067 0.096761174 0.10465371 -0.19642493 0.042241294 0.01872338 -0.003032806 -0.18360654 0.077258386 -0.110550486 -0.013805522 0.10069674 0.024670223 0.20080362 -0.109438196 -0.17484798 0.18552713 0.15954877 0.1319082 -0.0417176 0.048599686 0.16852814 -0.02609096 -0.0818974 0.10358638 0.058927048 -0.11625049 -0.056113064 -0.047988378 0.18423282 0.18599574 -0.11812219 -0.049969323 -0.037135378 -0.04992194 0.17082672 -0.16986549 -0.064657174 -0.17365263 0.15899175 0.12119563 -0.09775489 0.057159066 0.2719658 -0.09675244 -0.25193596 0.062264383 0.08139723 0.042121712 -0.119850956 -0.11845913 0.13369931 -0.04634085 -0.007092653 -0.14935978 0.15642028 -0.09258304 0.0833605 0.0173578 0.095514566 -0.19348629 -0.15646824 -0.046592057 -0.1245906 0.17875896 -0.009725209 -0.2446936 0.051816717 0.036584802 0.08433845 0.1835259 -0.3111983 0.084021956 0.26244074 0.096660346 0.404214 -0.029019468 -0.02230318 0.20012008 0.18153292 0.22057882
TTT 0.04711098 0.18341646 -0.05287346 -0.17897257 -0.026439117 -0.30090198 -0.0011853422 0.33396685 -0.13888574 -0.12116063 0.02408187 -0.3365648 0.119576566 0.05578702 0.17098111 -0.060388535 0.048074093 -0.08771061 0.020136915 -0.15965526 0.017273279 -0.079557836 0.43375906 -0.29090783 0.12535171 0.03754453 -0.12403569 -0.199921 0.053711932 -0.14467719 0.18530416 0.07181069 0.3910473 -0.114837945 -0.008691422 0.17959645 0.023935989 0.022003451 -0.48019665 -0.05327516 -0.18434747 0.06352326 -0.08898656 0.110341 -0.20178169 -0.13865173 0.09697531 -0.20650579 -0.32301548 0.057485856 0.099836156 -0.08402819 -0.3444425 0.13052325 -0.053121217 -0.1084056 -0.09132372 -0.04101461 -0.03481574 -0.04169748 -0.08839985 -0.04885751 0.15417962 0.09704036 -0.12704445 0.1890699 -0.18733825 -0.08235529 -0.16653591 0.17565224 -0.07352829 0.29412588 0.12420736 0.23726432 0.21794711 -0.16885611 -0.013812266 -0.1076579 -0.06827163 0.13057867 -0.18006858 0.10572876 -0.13814989 0.11132962 -0.21694766 -0.06287092 0.21782368 0.025536543 0.099963225 0.020765904 0.13579616 -0.011626771 0.14089008 -0.004772738 0.045496475 0.06956561 0.11771529 0.054614365 -0.12932342 -0.21393153
TCT 0.11599969 0.32315463 -0.2178991 0.10476854 0.12904495 -0.25865045 0.121244594 0.22236036 -0.11324913 -0.18836665 0.041162804 -0.21637413 0.040902495 0.12987727 0.16318393 -0.13622354 0.12460655 -0.004345565 -0.024361901 -0.09540533 0.14084187 -0.060157564 0.32412383 -0.10920105 0.035054453 -0.029776264 -0.2171222 0.065704934 0.11746244 -0.057522096 0.2941251 -0.060526364 0.02967514 -0.19101092 0.042048786 -0.040883776 0.008361545 0.21451984 -0.17762591 -0.18860613 -0.27426347 0.021795342 0.16592696 -0.123353496 -0.13708577 -0.048233908 -0.099226475 -0.10529454 0.015814116 0.07351114 0.16632645 -0.06460075 -0.21359047 -0.11959939 -0.09209943 -0.095404185 0.07694067 0.05407558 -0.1571073 -0.026656207 0.0077766017 0.098408654 0.18331876 0.06481759 -0.15635084 -3.2961798e-05 0.06250995 0.12491234 -0.236264 0.07919578 -0.0028757148 0.08842978 0.037153553 0.2462276 0.19238941 -0.15983856 -0.10548283 0.12246702 -0.1282022 0.040723745 -0.1671101 0.071797036 -0.00836476 0.00949645 0.03545243 -0.17842114 0.034629174 -0.003257419 0.09770038 0.02242374 0.1191358 0.012275579 0.010333197 -0.08571026 0.2467759 0.015296142 0.06651672 -0.11526241 -0.30679867 -0.036160473
GGA 0.06374927 0.106775105 0.15521117 0.11147218 0.04091454 0.10135795 0.028885297 0.31393316 0.15673524 -0.085853815 -0.09813094 -0.2066631 -0.1100496 0.02537803 -0.11129304 -0.2648731 -0.06311724 0.06319883 -0.04721094 -0.4361314 0.027846808 0.1901779 -0.041826203 0.08695311 -0.05131219 0.034116227 -0.1446122 0.13329627 -0.27685666 0.11445278 -0.065296695 -0.21409409 0.10688692 -0.14331041 -0.08978661 -0.04480826 -0.08124162 -0.035118937 -0.028606031 -0.049043033 0.051071968 -0.12038238 -0.25614303 0.15062508 0.13549641 -0.24545361 -0.04935812 -0.2322823 0.15501642 0.22547805 0.045863397 -0.20481016 0.053940505 -0.1466434 -0.04081301 0.048112534 0.06290489 0.0020232266 -0.025320476 0.21502087 -0.049846772 0.07207493 0.1537914 -0.007926552 0.022373712 0.019530078 0.16897196 0.28400287 -0.098105446 -0.02033955 0.23190068 0.07923158 0.134185 -0.12060021 0.1374937 0.08866405 0.20733286 -0.092365354 -0.072022155 -0.09774525 -0.30561292 -0.12629978 -0.24172807 0.19991347 -0.17033996 -0.009756355 0.12054691 -0.20793708 0.030522075 0.2738059 0.03601398 0.07384014 0.1534928 -0.06137889 0.043282263 0.08786824 0.17559989 0.17046367 0.025607359 0.0958668
TCC 0.085854165 0.3596286 -0.19228157 0.0401393 0.07881015 -0.18313687 0.0974678 0.1940226 0.035587434 -0.030584384 -0.050068904 -0.27542084 -0.07248869 -0.03753378 0.04896775 0.10380076 0.14847572 0.04032923 -0.013114719 -0.21259096 0.13277437 0.048231393 0.14052966 0.035200108 0.008312369 0.1268171 -0.16935506 -0.082551956 0.015948946 0.038351554 0.3237024 -0.054685444 0.106420234 -0.23543493 -0.04777896 -0.08765474 0.2145328 0.32950607 -0.2122763 0.03500018 -0.22961253 -0.1252048 0.011798824 0.110348456 0.029662518 -0.026191838 -0.12030884 -0.053483438 0.038227692 0.02673656 0.13487023 -0.019068768 -0.2223022 -0.15030421 -0.21647426 -0.019918416 0.17353155 -0.16138805 -0.2593851 0.038193047 0.047621656 -0.014961183 0.2163071 0.12683734 -0.017173817 0.008783808 0.106787585 0.12121124 -0.03633942 -0.084364824 -0.07202616 -0.03483806 -0.03680434 0.16768496 0.15995078 0.008594151 0.003551833 0.0939612 0.036526013 0.11919289 -0.029283386 -0.1580462 0.06316115 -0.08835641 -0.0087547535 -0.11447378 0.043793697 -0.014026289 0.12872244 -0.106873214 0.2100158 0.26640424 0.18654542 -0.050781053 0.15299095 -0.032073595 0.11741121 0.08598206 -0.37646392 0.153824
GCC 0.12063614 0.09003512 -0.14144753 -0.12737864 0.18812771 0.05260543 0.08334839 0.16614234 0.018967608 -0.03838198 0.019901874 -0.19161008 -0.07119194 -0.09826244 0.047501825 0.118749246 0.17387475 0.08437368 0.12550601 -0.28613797 0.19032635 -0.10968692 -0.11991049 0.033584844 -0.035648465 0.047720075 0.023047047 0.12227791 -0.08743944 -0.021817673 -0.010035983 -0.18193538 0.035318896 -0.18694223 -0.004462384 -0.09778626 0.2889901 0.27708596 0.0030063174 0.29493767 -0.01940352 -0.21850735 -0.0625269 0.35338783 0.24869879 0.03385639 -0.09124804 0.0975601 0.12262658 0.018101372 0.0811731 0.0322049 -0.04774275 -0.094188295 -0.12743753 -0.058388576 0.15023631 -0.2009716 -0.014920053 -0.043505233 -0.04282759 -0.12239776 0.10556614 0.21937111 -0.07336039 0.29232383 0.15468454 0.20576797 0.018060055 -0.08332289 -0.02983196 -0.065189086 0.13201703 -0.019947965 0.07816211 0.019030476 0.26773974 0.10669594 0.049165815 0.07301218 -0.22600399 -0.27788222 -0.12124593 0.009744428 -0.018685315 -0.04720099 -0.013015607 -0.0016590175 0.07910273 -0.1365579 0.11376454 0.24968272 0.27769136 0.13468438 0.3400341 0.043561276 0.13495742 0.1858335 -0.046438936 0.16836397
AGA -0.20586513 0.22297496 0.018817455 0.18758155 -0.0800771 0.024185129 -3.7547663e-05 0.28885075 0.029366566 0.11254649 -0.13389784 -0.17732143 -0.00014970204 0.13031608 -0.11883735 -0.31628665 0.038601045 0.040425897 0.020445473 -0.19370228 0.04085477 0.1074006 0.022054117 0.065483436 -0.11627905 -0.12667021 -0.18747139 0.11356763 -0.27245128 -0.037905835 0.13115506 -0.173231 0.16169219 -0.06485181 -0.16526039 0.11226151 0.14028795 0.05481882 -0.14669074 0.08126797 -0.07113021 0.058504388 -0.30488783 0.18951546 -0.05036487 -0.16044621 0.12228344 -0.20416474 0.12753396 0.0781514 0.11671336 -0.0299502 -0.018111965 -0.046520375 0.018293042 0.081577085 0.12258073 -0.06640871 -0.017942555 0.06222866 -0.10055456 0.0038609796 0.08912193 -0.13359894 -0.071848 0.020437863 0.09203544 0.06865131 -0.10172538 0.16897841 0.1363094 0.08045993 0.1438419 -0.028802048 0.28698453 0.106440105 0.1293422 0.021346198 9.771719e-05 -0.12830837 -0.38318026 -0.012843317 -0.08353577 0.17116466 -0.25688112 -0.11435061 0.07144248 -0.13480943 0.09414153 0.3392147 0.090325564 -0.020737628 0.19743428 -0.22620974 -0.019458264 -0.08821631 0.14662674 0.31667647 0.14078593 0.04620774
GGC 0.089269266 -0.13247252 0.037517354 0.03434242 0.11345867 0.027872778 0.07294767 0.17766878 -0.026363323 -0.123970956 -0.095656484 -0.16698082 -0.013014418 0.0007666012 -0.057456758 0.28162062 0.022103703 0.02232552 0.02515321 -0.44399554 0.29302812 0.11487883 0.03962125 -0.16128494 -0.12263317 0.27388495 -0.08393086 0.042764973 -0.08348521 0.17315884 0.15616713 -0.21224557 -0.0080410745 -0.21615194 0.012813808 0.1512406 -0.032217313 0.038112108 -0.16492711 -0.13038523 0.1870147 -0.19160135 -0.111582674 0.043125477 0.2636539 -0.17356405 -0.25560892 -0.22648272 0.29601476 0.1244324 -0.009418996 -0.15325549 0.049196865 -0.022941234 0.065323085 0.074583 0.041827694 -0.16649543 -0.07762339 0.03393771 0.0104354415 0.012781475 0.17738947 0.100165136 -0.13006853 0.16590893 0.070902914 0.27226734 -0.005370699 -0.086243115 0.09195221 0.0434693 0.016168399 -0.013367063 -0.019528707 -0.22960772 0.37398857 -0.095797 0.017379936 -0.010062887 -0.18731454 -0.100346 -0.16912752 0.044848174 -0.0036819987 -0.17579415 -0.2690109 -0.06294218 -0.08448636 -0.034447156 0.08011554 0.14751422 0.029029053 0.01767352 0.12376268 0.060780272 -0.050711468 0.013069525 -0.032518245 0.15815885
GTG -0.067545034 0.009883796 -0.03178835 0.059033312 0.07862171 -0.09620253 0.21853949 0.13882363 -0.1492859 -0.10375458 -0.119904 -0.15319791 0.06640627 -0.056811724 -0.0027200456 -0.08451636 0.071835205 -0.085097104 0.2727677 -0.4589655 0.032729816 0.06347427 0.05193369 -0.12315912 0.057332586 -0.09150624 -0.16435137 0.080279484 -0.24100399 -0.024512965 -0.070734546 0.061181005 0.07138354 -0.1681411 -0.10236298 0.050970968 -0.34666437 0.04734109 0.1326905 -0.1713338 0.053417977 -0.23794931 -0.11441614 0.091134444 0.2828188 -0.18172869 -0.012436795 -0.19181998 0.15406696 0.2106773 -0.0043904698 0.20381123 0.1330112 0.0571259 0.15034953 -0.20607391 0.032804027 -0.12026198 0.019290123 0.13988854 -0.0071069095 -0.018273149 -0.06898448 0.034305796 -0.012204394 0.093202375 0.054694235 0.19602378 -0.003861935 -0.039836776 0.114342585 0.057785958 0.18641922 0.04472059 0.3443293 0.092505306 0.11682515 0.032124612 -0.007757244 -0.06381094 -0.08869952 -0.09851911 -0.022560684 0.15659556 0.22157927 -0.10741444 0.18949534 0.056628175 0.17888105 0.005780239 -0.025432846 0.15435177 0.112433806 -0.059147425 0.5113721 0.27324164 0.015889449 -0.018183846 0.116809845 0.0018704464
GCT 0.16251604 0.0073297685 -0.09651123 -0.10891418 0.29454502 -0.008766696 0.031481348 0.14148036 -0.14937657 -0.23024634 0.045876246 -0.15589671 0.030748941 0.07592659 0.12929554 -0.08784729 0.18297794 0.07510231 0.1294226 -0.20976664 0.24263893 -0.25393853 0.014382343 -0.17030025 0.04876959 -0.025988877 -0.14486383 0.30848712 0.080032 -0.10584925 -0.091415904 -0.093430325 -0.12399152 -0.17199235 0.08590848 -0.123708785 0.13328132 0.12818328 0.028588904 0.01929731 -0.06544849 -0.04744084 0.10204056 0.1080359 0.012409156 -0.06807576 -0.13655783 0.06597992 0.16480936 0.109981306 0.11127021 -0.013236297 -0.027985929 -0.042404916 -0.024900038 -0.14538728 0.079734236 0.11549465 0.07634126 -0.04634729 -0.10746421 0.05421834 0.16240834 0.19551834 -0.16437177 0.28040242 0.17351231 0.16036221 -0.18788625 0.041685656 0.121352755 0.08996125 0.15618181 0.052319642 0.12148399 -0.20519629 0.25625896 0.13984382 -0.117656894 0.056393877 -0.4504704 -0.002906675 -0.17902063 0.07687358 -0.0576292 -0.095242746 -0.011127256 0.07029277 0.02193245 0.07741803 0.15487511 0.06221948 0.12012764 0.12031235 0.45317888 0.09922249 0.11978812 -0.01584368 0.03777337 0.048391048
AAG -0.077698044 0.13841666 -0.06059465 0.19506443 -0.14389482 0.021617215 0.29083315 0.30971125 -0.11980973 -0.13083707 -0.060828023 -0.20862222 0.0075491876 0.062174324 -0.045848195 -0.046469647 0.1754279 -0.04861431 -0.13939738 -0.27750948 -0.12403377 0.09812047 -0.16821863 0.059664603 -0.13734645 -0.13448434 -0.118862934 -0.21503624 -0.16210201 -0.005377965 0.19399843 -0.114489116 0.1753639 -0.15381035 -0.18434466 0.1485875 0.071364015 0.06308995 0.09076258 0.0660126 0.11488797 0.06387839 -0.01003667 0.17462762 -0.023267431 -0.05830587 0.12404796 -0.20263621 0.18385245 0.15301439 -0.07312588 -0.120432265 -0.11801887 -0.041373026 0.13439909 0.07447216 0.19681662 0.10893845 0.12334827 0.16734536 -0.05423235 -0.085981704 0.112946406 -0.08140784 -0.08300143 0.22655256 -0.16170707 -0.12999637 -0.19530421 0.025505565 0.005200069 0.047776688 0.2359481 -0.18134338 0.20695227 -0.086987436 0.054727305 0.12533422 0.10993316 -0.24445526 -0.30451998 -0.03506213 -0.20966737 0.15645751 0.011703022 -0.22508873 0.092584476 -0.03235225 0.2142031 0.022606295 -0.1287377 -0.056695428 0.14168417 0.12866361 0.15724503 -0.16499978 0.06485049 0.18531176 0.08053203 0.07409037
TGA 0.14443918 0.028172402 0.0838568 0.12285286 -0.2441833 0.034820057 0.14325853 0.1492025 0.12011446 -0.036412034 -0.08285208 -0.124571815 0.03193384 0.20789139 0.13501607 -0.2818883 0.07565252 -0.0010646211 0.06671639 -0.21325313 0.17274171 0.08299845 0.03930871 0.10751756 -0.014697552 0.056343 -0.17771637 -0.015521885 -0.25763705 0.015577233 0.038789324 -0.0698852 0.26095313 -0.028241914 -0.15125756 0.084074 0.0074139168 0.12190604 -0.15477338 0.103452675 -0.082127765 0.07644574 -0.09904576 0.041102175 0.112856254 -0.16124453 -0.16255216 -0.09369555 0.013546766 0.21532087 0.0648738 -0.08178941 -0.103310205 -0.107803226 -0.048646674 -0.06098016 0.062421393 -0.09075358 0.048453465 0.082500346 -0.15711516 -0.023909027 -0.023795603 0.0050041704 0.015476653 0.037755314 -0.032507583 -0.03438608 -0.093711324 0.07174245 0.11065774 0.13540182 0.020978916 -0.044547826 0.49511993 0.17788747 0.23895392 0.09118651 -0.15092012 0.04327676 -0.23990531 -0.17113292 -0.20197548 0.18847358 -0.2828035 -0.087640084 0.2853801 -0.22854474 -0.064454935 0.3311701 -0.010268217 0.065151624 0.07429708 -0.14676626 0.121541746 0.092958055 0.23190333 0.066675834 0.16406956 0.12920605
CTT 0.10466298 0.26451382 -0.01552765 -0.10045212 -0.1101276 -0.061199438 0.09279475 0.252072 -0.19666292 0.011108178 0.13682091 -0.15150934 0.14091717 -0.030650953 -0.07522474 -0.12603588 0.20103392 -0.11642875 -0.19649062 -0.27052748 0.14928782 -0.22139513 0.25783113 -0.1553045 0.16918096 -0.03049019 0.08586958 -0.16061021 0.12701707 0.022506285 0.19476886 -0.055594165 0.34464848 -0.2938248 -0.027781038 0.07927667 0.032873858 0.09482772 -0.16670734 -0.14660159 -0.07168564 -0.012621413 -0.017257087 0.19813657 -0.18434192 -0.1659814 -0.03152974 -0.1375266 -0.31971014 0.13223253 0.13955054 0.023736008 -0.3263372 -0.011052557 -0.13106745 -0.25378972 0.18285404 -0.022852667 -0.15862542 -0.036571696 -0.043923885 -0.10769503 0.092016056 -0.042227156 -0.13627614 0.18820442 0.08791892 0.09243022 -0.1139944 -0.013631947 -0.049624894 0.20281215 0.04176108 0.1917928 0.10477128 -0.22556643 0.083734915 0.04256193 -0.04676512 0.22343285 -0.11345118 -0.03610743 0.004235656 -0.035703357 -0.14429143 -0.08702149 0.21625262 -0.06263439 -0.0489593 0.11025694 0.15740989 0.01691487 0.17029476 0.0034061123 0.057653103 0.061737247 -0.00090349774 0.045240935 -0.02819296 -0.04178939
TTC 0.10536478 0.19163863 -0.065025635 0.032260306 0.017471813 -0.24345833 0.06269159 0.422856 -0.08494956 -0.35710636 0.028060986 -0.31721324 0.04475343 0.0041283756 0.24759349 0.054450195 -0.09719353 0.107234895 0.23600323 -0.19799623 -0.020613201 0.10233455 0.1983525 -0.07074174 0.07376811 0.049374036 -0.22688669 -0.052911326 -0.041440636 0.0839713 0.13909516 -0.18575563 0.20882961 -0.23734167 0.03802275 0.30283797 0.20113549 0.04039165 -0.30613363 0.0696369 -0.08089553 -0.104773454 -0.1817497 0.014803224 -0.010566381 -0.079611994 0.033112563 -0.034353472 -0.0855788 -0.029391821 0.11229781 -0.20483702 -0.21680547 0.06182189 -0.13379522 0.1211555 0.045514602 -0.20963104 -0.011241069 -0.067158535 0.02444333 -0.03835589 0.16833508 0.14698377 -0.1203587 0.23531617 -0.1388506 0.04332265 -0.15610443 0.06976362 0.016715595 0.10193798 0.16132346 0.18337527 0.08631729 0.12778407 -0.12708886 -0.08267455 0.054622814 0.27387562 -0.030552262 -0.048110265 -0.011426793 -0.039438 -0.110237546 -0.01621871 0.054532107 -0.002267437 0.1924022 0.01719053 0.19581057 0.11689873 -0.18298748 0.047739737 0.06668157 0.08377913 0.09236399 0.031454865 -0.2380609 -0.19175957
TGC 0.089220464 -0.08700595 -0.012486755 0.033194307 -0.1266898 -0.0892229 0.21931747 0.03307277 -0.08745371 -0.0158472 -0.105572745 -0.10269416 0.17277296 0.13419577 0.10053796 0.1757398 0.20153208 -0.04796822 0.12114427 -0.24506615 0.38156915 0.08250209 0.13047892 -0.11405506 -0.14709102 0.23113926 -0.11379419 -0.01919574 -0.08066371 0.035875972 0.33872166 -0.0891639 0.076842524 -0.054251067 -0.019371577 0.2370559 0.08191803 0.14509721 -0.25610957 -0.044984017 -0.03446209 0.0067090443 0.027478995 -0.088451475 0.18140876 -0.08877252 -0.32246757 -0.12396117 0.15909988 0.03955311 0.04990632 -0.009028796 -0.10657378 -0.0285967 0.06737158 0.006278684 0.107173644 -0.1911503 -0.057323266 -0.12210404 -0.118635364 -0.13253006 -0.009544698 0.09496569 -0.1285233 0.1771097 -0.11787025 -0.038237985 -0.016792672 -0.044988733 -0.07969442 0.104853824 -0.07102723 0.075103536 0.29725 -0.07804277 0.4006523 0.06347322 -0.1388132 0.16764446 -0.113039695 -0.1132598 0.0051457253 0.0884711 -0.03769538 -0.21579053 -0.105666764 -0.04733112 -0.14741373 -0.0007278032 0.059030972 0.14196415 -0.045094676 -0.09776412 0.20392428 0.07478089 0.0911439 -0.05895115 0.047870032 0.17696698
AAA -0.113347195 0.22727342 0.009152672 -0.03775989 -0.14034922 -0.09011102 0.17240456 0.17537273 -0.104062155 -0.09582567 -0.04782126 0.074557394 0.10991145 0.05664132 -0.05931889 -0.06693824 0.11693881 0.11316984 -0.17868182 -0.025410963 -0.19631091 0.07579158 -0.11046145 -0.03011941 -0.19717182 -0.29462606 -0.015935708 -0.18626948 -0.22009344 -0.10357718 0.35259426 -0.14743626 0.19618313 -0.087877706 -0.008133836 0.17538077 0.041667785 -0.0092644 0.04263735 -0.12416657 -0.14866728 0.031146523 -0.072361104 0.027088722 0.15014954 -0.12549786 0.15336297 -0.36464116 0.1993932 0.053631995 0.16647807 -0.019245105 -0.38010395 -0.1647479 0.27047864 0.13842031 0.22611696 0.0444149 -0.0061753863 -0.01907217 -0.021411708 -0.11839417 0.010325997 0.015352801 -0.043288022 0.24828462 -0.24948366 -0.15361546 -0.36550114 0.20418856 -0.11307444 -0.052684136 0.35893703 0.039840326 0.26617345 -0.019956714 0.1217552 -0.020543111 -0.18516082 -0.047741447 -0.22302231 -0.095791936 -0.2633358 0.358849 -0.08948262 -0.19792946 0.074864976 -0.10032367 0.28375587 0.16760509 -0.050484654 -0.12434055 0.14604539 0.06930955 0.10285318 -0.0231392 0.14079142 0.3575309 -0.0065239905 -0.20641744
GAA -0.0007215398 0.022024898 0.029551689 0.030908728 -0.12664907 -0.028357651 -0.07860706 0.20514974 0.027287032 0.01580466 -0.052150205 0.053208146 0.03176559 0.16837302 -0.21902412 0.069150835 0.06911316 0.18339269 -0.014643363 -0.28390518 0.019484418 0.08662629 -0.21683384 -0.11351021 -0.0499011 -0.23208614 -0.13537882 0.18094218 -0.19506037 -0.07744167 0.18792397 -0.011694053 0.17519683 -0.09778595 -0.08690899 0.12226538 0.14848852 0.066635095 -0.057064123 -0.100062236 -0.08465168 0.031896748 -0.19380918 -0.10970151 0.07634983 -0.21547204 0.123510495 -0.14729945 0.17906018 0.06766016 0.07003238 0.013122909 -0.2209692 -0.10880141 0.22366633 -0.13737816 -0.0883725 -0.20819716 -0.018033411 -0.049971025 -0.021746004 0.01884681 0.14453916 0.019521713 -0.14289734 0.105316274 0.091917284 -0.07890493 -0.3017073 0.06827489 0.05182113 -0.0548091 0.1575024 -0.046540882 0.22060211 0.014731359 0.09913549 -0.20184757 -0.22389606 0.0043504965 -0.061926015 -0.13490373 -0.1721738 0.4138181 -0.16086112 -0.1873954 0.038272414 -0.0032893005 0.19284295 0.36860234 -0.121396594 0.056115407 0.374863 -0.0050439877 0.2641567 0.056125782 -0.01634742 0.48167098 0.10032372 0.015354568
AGC -0.25287908 0.022633333 -0.067882426 0.16883695 0.13166289 -0.027679883 0.059825506 0.15610912 -0.17036813 0.18648453 -0.1085546 -0.22091776 0.098744966 0.05306188 -0.12430306 0.06511774 0.020639967 -0.02209124 0.12517676 -0.28524512 0.24476396 0.081456915 0.15360074 -0.0728868 -0.28432956 0.038253568 -0.10022462 0.1442338 -0.23315327 0.012438096 0.2670882 -0.14423077 0.07895008 -0.0731368 0.01002933 0.1778116 0.12864704 0.042222727 -0.17676897 -0.029683013 0.039089475 -0.11115702 -0.23839949 0.1688039 0.0716993 -0.06279934 -0.04712613 -0.15513238 0.32887408 -0.08685048 0.048576485 -0.0035319082 0.13781258 0.030635364 0.1628842 0.10326499 0.09451178 -0.14067937 -0.11113916 -0.116612814 -0.058477934 -0.08068622 0.020715201 -0.07595274 -0.22481382 0.16245905 0.03363744 0.12692428 -0.091090314 0.07226738 -0.046943188 0.098597705 0.0610931 -0.035028547 0.092032194 -0.11743387 0.31381446 0.020557879 0.12326749 -0.07737758 -0.29404116 0.082844466 -0.02363967 0.058335923 -0.10125749 -0.22109935 -0.32938424 0.10028372 0.034717906 0.009677736 0.14150558 0.02189299 0.047161445 -0.09837189 0.10101742 -0.08934203 0.029903887 0.1482504 0.019545063 0.09351162
TCA 0.05960118 0.27854806 -0.20582741 0.1461549 0.09284251 -0.09174847 0.12807976 0.19504055 -0.0042799152 0.12834765 -0.090659745 -0.32405642 0.1231495 0.13793616 -0.053384565 -0.15669116 0.086116984 -0.04823487 -0.17805783 -0.17064182 0.06388739 0.28921774 0.11712755 0.08110618 0.0128732985 -0.037324227 -0.23368463 -0.13403 -0.061255775 -0.036167532 0.19824137 0.010252162 0.16243692 -0.16138451 -0.038684018 0.04367628 -0.0055569285 0.2043658 -0.09131609 -0.10384853 -0.27030942 -0.0023712593 -0.023518771 -0.1362863 -0.118805826 -0.03224366 -0.10996253 -0.109800026 0.005713555 -0.042815514 0.07948616 -0.20723835 -0.11759681 -0.19166662 0.03876413 -0.18745744 0.114217296 -0.039437193 -0.036960635 -0.013544358 -0.03727705 -0.21111786 0.16701669 0.050111275 -0.110521205 -0.04876554 -0.07644419 0.015402862 -0.3117558 0.021315072 -0.09103305 0.12867923 0.017350247 0.026215665 0.064006075 -0.11363845 -0.16114806 -0.07474452 -0.16827333 0.1510121 -0.17226508 -0.09676165 0.109519534 0.095610194 0.022097064 -0.11825362 0.11287262 0.06459709 0.17432365 0.079394 0.049288325 0.13267966 0.21498002 -0.12666923 0.15805219 0.11611756 0.12984985 0.14482585 -0.43443653 0.12393078
TGT 0.2957807 -0.05463813 -0.29476947 -0.0636234 -0.22314113 -0.11978866 0.11995628 0.030445829 -0.19697417 -0.2056901 0.09307369 -0.13631003 -0.058518782 0.26317066 0.12780297 -0.043101218 0.26173794 -0.17665163 0.25362116 -0.15169923 0.22954653 -0.028892158 0.33831626 -0.070528366 0.03516858 0.03044603 -0.20245564 -0.07278365 0.06601582 0.043879263 0.17408621 0.0038055223 0.3783534 -0.09754031 -0.01843899 0.033685558 -0.1782093 0.18936932 -0.1648142 -0.06419685 -0.19791749 0.04630667 0.09587648 -0.104744 0.05528733 -0.0013953686 -0.07512163 -0.19621952 -0.016580991 0.22321722 -0.050261535 0.059945308 -0.17712528 0.08928966 0.17918147 -0.25514677 -0.029923785 -0.13363394 -0.06796206 0.015818778 -0.09904474 -0.120661736 -0.13059862 0.2236288 -0.074783616 0.082468204 -0.067806944 -0.12407324 -0.24280916 0.24763317 -0.037387803 -0.012105011 0.16007416 0.110540405 0.28165114 -0.02636743 0.0486187 0.16080002 -0.28580552 0.02975197 -0.1264686 -0.24086753 -0.17799829 0.16723688 -0.076568715 -0.14383541 0.27428284 -0.10013986 0.048751455 0.0736077 -0.04877517 0.026503922 -0.09984549 -0.0201034 0.09012027 0.11055292 0.06738472 -0.014026964 0.094760425 0.13511005
GCA 0.04590318 -0.056545038 -0.13188367 -0.094564386 0.22772916 0.12906756 0.08823402 0.13346295 -0.06550605 0.13870065 -0.12181455 -0.31196734 0.053213026 0.06894575 -0.08571122 -0.13081205 0.028837552 -0.022575948 0.012923336 -0.23322047 0.10731762 0.13473217 -0.08545686 0.07315761 0.014889484 -0.031607345 -0.068943344 -0.024441488 -0.17903382 -0.089963794 -0.07853521 -0.05317604 0.13631864 -0.10492277 0.017160973 0.011797686 0.082351565 0.13427198 0.08549395 0.17565489 -0.11915591 -0.109450854 -0.120949484 0.23335159 0.086599045 0.020065516 -0.19543113 0.014649806 0.08429257 -0.031278603 0.035700716 -0.10315612 0.042002153 -0.12279011 0.13090034 -0.18971848 0.15386161 -0.05430788 0.16745685 -0.07280346 -0.20920765 -0.3300563 0.033748988 0.13122651 -0.116567746 0.2729828 -0.09685891 0.01873434 -0.20044169 0.013046738 -0.104503326 0.18345502 0.12207436 -0.2249764 -0.0056987195 -0.16981277 0.20859572 -0.089824766 -0.019133605 0.13283253 -0.4413674 -0.1742568 -0.081928216 0.12744588 -0.01019031 -0.016922874 0.062840894 0.11417378 0.104969166 0.037414953 -0.0022379188 0.11020523 0.24999218 0.072149195 0.23804758 0.21592748 0.19945659 0.16098027 -0.15120028 0.1494689
ACC -0.04127974 0.078608505 -0.1333402 0.049973264 -0.027849754 -0.037775997 -0.032369476 0.19439192 0.100583166 0.123660594 0.08399921 -0.27618247 0.11375401 0.023200827 0.016407905 -0.010464955 0.064719625 0.063915424 -0.038321014 -0.25110245 0.18393749 0.017550554 -0.06912801 0.05809458 0.026537336 0.16527486 0.23766686 -0.054627184 -0.21325187 0.08983646 0.13901548 -0.1257634 0.21081114 -0.27726722 -0.13953058 0.064220674 0.16536027 0.042968653 -0.13800004 0.08945115 -0.055082507 -0.3298001 0.15651539 0.25247616 0.16966611 0.008163717 0.08147276 0.0011723792 0.04259746 -0.061370857 -0.00093219243 0.07349749 -0.12616009 -0.005237767 -0.19829991 0.01674593 0.25007093 -0.249201 -0.108018816 0.061527174 0.27516088 -0.10851823 0.16737302 0.09232579 -0.2197073 0.18355949 -0.052249443 0.25276294 -0.15073636 0.164624 0.0072741713 -0.105607525 0.14312595 0.1219567 0.30919692 0.14736032 0.07117506 0.25055918 0.06840586 0.013609663 0.032866053 -0.14838208 -0.34580314 -0.011298613 -0.07561229 -0.1143669 -0.12555456 -0.010781069 0.14073096 -0.07941818 0.0995499 0.15989506 0.26834688 -0.05929789 0.046729505 -0.003088984 -0.053258955 0.065489136 -0.106571645 -0.018153388
CAC 0.0950554 0.059683632 -0.020821735 0.22529666 -0.014807804 0.08164278 -0.11293261 -0.03976712 -0.043780047 0.17068079 -0.01547316 -0.35843432 0.22034118 0.04941627 0.09398758 -0.072259724 -0.04021309 0.06543766 0.011283801 -0.12271003 0.16162825 0.018462721 0.049866308 -0.13899527 0.12236997 0.20222726 -0.03226449 -0.032693267 -0.21503627 0.24373491 0.13497302 -0.08711929 0.14421801 -0.32750854 0.054155502 0.18453656 0.18855837 0.18433675 -0.02829388 -0.059036553 -0.22963831 -0.21538919 0.13193503 0.25615066 0.24302103 0.03783671 -0.07350587 -0.03292652 0.1488393 -0.063552335 0.17884366 0.074649625 0.06838643 -0.181407 -0.09928245 -0.14197373 0.02880162 0.13864666 -0.13674234 0.016248913 0.023962017 0.05434486 -0.13970464 0.06628552 0.01871559 0.08764415 -0.005608627 0.13242655 -0.055054888 0.06406527 -0.13007587 0.036058392 0.061300695 0.13341576 0.10658632 0.0019338198 0.06757503 0.061473552 0.291384 0.25755864 -0.17941321 -0.19081378 -0.26557457 -0.30303112 -0.2216679 -0.26141572 -0.24019557 -0.14129634 0.25863403 0.20268758 -0.023488645 0.17578982 0.055734396 -0.1188125 0.3340597 0.06124497 0.030501941 0.11431367 -0.21463329 -0.12267131
GGT 0.23961356 -0.0058284095 -0.21402024 0.012011617 0.018713603 0.07381651 0.009961775 0.11945407 -0.1588177 -0.17947216 0.08976634 -0.22663146 -0.16303991 0.023048302 -0.073900536 0.021265399 0.14750409 -0.1957055 0.11149363 -0.40008354 0.09646014 0.10422614 0.25410068 -0.0076186336 -0.046889994 0.1348337 -0.15341528 0.0058039622 -0.0059906878 0.18753605 6.346107e-05 -0.16547863 0.2882042 -0.21932057 -0.006473694 -0.060269307 -0.27788055 0.04786532 -0.0581715 -0.16239373 0.045822773 -0.1299917 -0.08057957 0.10413003 0.100830205 -0.07992368 0.028780054 -0.33878085 0.10528794 0.23239873 -0.16338004 -0.11202963 0.04221412 0.110129416 0.16005044 -0.18300389 -0.0601566 -0.034794178 -0.114738084 0.18355268 0.011108626 -0.03064538 0.020647448 0.19890772 -0.058729723 0.03948453 0.11134792 0.20335758 -0.20660083 0.15046173 0.097635895 -0.018058443 0.24158266 -0.007977831 -0.0591945 -0.1250142 0.046548482 0.057648424 -0.13370791 -0.18521236 -0.20002623 -0.23688152 -0.28044486 0.10086884 -0.066679485 -0.087073885 0.054349788 -0.09688799 0.05873355 -0.03656479 -0.044868547 0.074053176 -0.01688429 0.1127279 0.019174566 0.007072562 0.022050662 0.101842515 0.06466562 0.16188699
ATG -0.095987566 -0.013543052 -0.08241005 -0.028612116 0.113144204 -0.21066003 0.1601556 0.2824694 -0.07222539 -0.15917042 -0.1598812 -0.042281605 -0.21422312 0.34546006 0.05244011 -0.11842601 0.028104281 -0.098683335 0.04914633 -0.10176471 -0.02653216 -0.01938832 0.2142395 -0.106405176 0.09551524 -0.16676769 -0.06607596 0.07361598 -0.37669024 0.035837486 0.22253485 -0.15255357 0.10204588 -0.18959247 -0.20745456 0.11326119 -0.20799285 0.15716398 0.02863758 -0.0295765 -0.18573889 0.046400752 -0.14931065 0.07303684 0.2810565 -0.014493699 -0.098265946 -0.0656287 0.11930605 0.23862004 0.016907426 0.10698084 -0.088220805 -0.18496627 0.19524312 -0.003462774 -0.063566685 -0.06567884 -0.10189428 -0.031589076 -0.17980383 -0.016612768 -0.07333039 0.05210807 0.072959505 0.1314018 -0.057983387 0.11660954 -0.053546093 0.11657244 0.13796765 0.16816375 0.13185094 -0.093957774 0.3814933 -0.25642243 0.05236768 -0.059302714 0.1624604 -0.26655644 -0.19237655 -0.2145851 -0.17919314 0.16382632 0.29760858 -0.14254126 0.19815704 -0.086002275 0.14255983 0.057605345 -0.0042324783 -0.072433755 0.2975075 -0.25039607 0.0531327 0.16823241 -0.096397385 0.026078025 0.123943284 -0.085445285
ACA -0.05766833 -0.007630164 -0.17993739 0.115933284 -0.029438391 0.039859146 0.028277019 0.19064854 0.093505636 0.23856187 -0.008405961 -0.32915652 0.2875727 0.2114538 -0.06892129 -0.24400803 -0.013201136 -0.005748234 -0.17332453 -0.14467078 0.11923688 0.248359 -0.12709314 0.063998625 0.06992755 -0.020815399 0.18265978 -0.17656736 -0.24550694 0.038164515 0.08839449 -0.09670578 0.23289551 -0.20069884 -0.13259964 0.24721791 -0.045247838 -0.047895618 -0.010667643 -0.052173756 -0.10134475 -0.15288949 0.14068277 -0.057250112 0.04215233 0.0061295605 -0.032138266 -0.07448581 0.031102654 -0.08892882 0.014671038 -0.12904425 -0.0947224 -0.06127325 0.019273385 -0.08153569 0.25611785 -0.14094351 0.07565734 -0.026226867 0.15303573 -0.28059593 0.105197646 -0.0130916145 -0.2679735 0.15283993 -0.25702518 0.09796462 -0.40233913 0.25840855 0.019035423 0.082480624 0.16538507 0.0027554797 0.24780966 -0.03807089 0.0024557367 0.05831707 -0.101102434 0.116649814 -0.1447295 -0.0980405 -0.2908803 0.100221574 -0.01756272 -0.17865062 -0.089296356 0.035719972 0.13242623 0.12788364 -0.024188295 0.032223437 0.20587309 -0.13808954 0.0016652686 0.16289969 -0.05849787 0.06984938 -0.21059014 -0.018268378
CAA -0.11892025 0.09321424 0.13892369 0.067266956 -0.013400635 0.002242499 -0.10767493 -0.013831874 -0.072693266 0.023135165 -0.046264015 -0.061027415 0.22123943 0.13941309 0.0022325562 -0.06309657 0.118683115 0.19544362 -0.08231788 -0.01794358 0.155724 0.086199604 0.029347913 -0.13833639 0.060671937 -0.12884215 0.014149234 0.065369114 -0.20006327 0.05384334 0.32943797 -0.055203274 0.1508326 -0.17985445 0.033357304 0.19688228 0.12882005 0.17595062 0.015515954 -0.02236937 -0.09352708 -0.15564856 0.0050561875 0.037749227 0.13962886 0.081585094 0.15521647 -0.34059218 0.18042544 -0.08663803 0.27767417 0.010618246 -0.3129338 -0.21391608 0.06836425 0.012868978 0.14349222 0.111782 -0.12845315 -0.017183298 -0.042899977 0.04124623 0.016705368 0.032494534 -0.05394971 0.19368455 0.024352005 -0.063158944 -0.17865026 0.2953931 -0.11389449 -0.15707342 0.23968625 0.14887519 0.13104731 0.05665373 0.038561076 -0.025504917 -0.15737803 0.116537765 -0.19957016 -0.22782996 -0.2205496 0.18955158 -0.17676455 -0.16472618 0.004640497 -0.18284081 0.34484366 0.149583 -0.0684512 0.0028400251 0.23901843 -0.058409266 0.038733114 0.069147654 0.16497876 0.29272938 -0.13311814 -0.10988149
GAC 0.22604263 0.082243256 -0.23612222 0.17176826 -0.11674384 0.080605105 -0.05315969 0.09552696 0.009101311 0.15072446 0.015549086 -0.21158418 0.03654516 0.013780218 -0.04109606 0.115421966 -0.07364003 0.040131267 0.08805079 -0.2671605 -0.028626429 0.021249745 -0.078239806 -0.061288975 -0.03854492 0.10716012 -0.15061231 0.015051962 -0.21379201 0.08258917 0.041993078 -0.094692476 0.19703431 -0.17932549 0.0027373899 0.1561152 0.17968124 0.082798764 -0.169651 -0.11844548 -0.26169556 0.032709863 -0.081602946 0.105895 0.2390753 -0.19769925 -0.022413347 0.09025729 0.12771778 0.047836807 -0.057213522 0.048607443 0.076482356 -0.07877117 0.1045763 -0.26179853 -0.26979044 -0.1837272 -0.04301095 -0.08228469 0.042974766 0.008134226 -0.0531207 0.11770229 -0.03194294 0.00793133 -0.030054813 0.13220493 -0.16738044 -0.112662315 -0.015564552 0.0842735 0.058657467 0.023528114 0.13673681 -0.0121665085 0.07421433 -0.07331738 0.22402783 0.100198105 -0.040201697 -0.16750053 -0.285996 -0.09213414 -0.18927959 -0.32136303 -0.19056143 0.011939123 0.11104424 0.2619432 -0.16343355 0.18789081 0.12975982 -0.013371153 0.52650553 -0.030028 -0.06285154 0.3599483 0.035284176 -0.09071781
TTG -0.096402705 -0.051129077 0.12497867 0.010344906 0.03048122 -0.38544765 0.13700153 0.28418854 -0.11596313 -0.24378197 -0.011545452 -0.2440401 -0.09333994 0.16794989 0.22846943 0.05113252 -0.01566213 0.046564993 -0.055636846 -0.24922234 -0.0072651086 0.04565639 0.39463365 -0.23283923 0.10410747 0.15228732 -0.26366302 -0.08089049 -0.20727171 -0.045164894 -0.0029970147 0.045155413 0.30756462 -0.23233029 -0.11068797 0.091471046 -0.08384237 -0.07082041 -0.2554324 -0.01374326 -0.18440942 -0.045931485 -0.14680125 0.02725189 0.17289403 -0.10685729 0.029568257 0.01852896 -0.09554749 0.14122593 0.008904133 0.016979527 -0.09044381 0.082432695 0.061008632 -0.072574824 -0.030717447 -0.025331369 0.07503133 0.09602663 -0.11763604 -0.07212525 0.116324976 0.123280674 -0.008926845 0.11824997 -0.1829258 0.041256435 -0.24284323 0.14054158 -0.052978247 0.20951286 0.13056716 0.028502248 0.27456933 -0.01487042 -0.09616518 -0.01877126 -0.046786774 -0.029723898 -0.089414045 0.06722272 0.030215668 0.14901197 0.020459445 0.045229364 0.30485138 -0.056887317 0.1776897 0.02184728 0.03795624 0.030694123 0.16668479 -0.17693947 0.37785432 0.25981817 0.016199872 -0.06197561 -0.050890673 -0.09581507
CAT -0.11885822 -0.053172182 -0.14287715 0.14264688 -0.04503728 -0.059477113 -0.0451462 0.13495359 0.148438 -0.045910086 0.04991849 -0.31920564 -0.04842384 0.20029286 -0.060595557 -0.18557088 -0.12299143 0.15150641 -0.0018234259 0.06197695 0.18887217 -0.06375883 0.26235047 -0.2521146 0.19918662 -0.16654664 0.05300173 -0.19953418 0.0978611 -0.04322337 0.11347596 0.04899157 0.30087474 -0.21633227 0.054518845 0.18779439 0.00059165136 0.077541895 -0.16581592 -0.019899433 0.024639921 -0.17596292 0.029679807 0.046315137 0.1802336 0.10147086 -0.06063417 -0.2954523 0.09590019 0.13413735 0.36916852 -0.028782645 -0.11579338 -0.08055833 -0.06470496 0.031873655 0.18304902 -0.07078975 -0.08124635 0.041968238 -0.03230951 -0.012381175 0.13898845 -0.11575234 -0.009415826 0.1056414 -0.04303065 0.1724511 -0.104415394 0.1680625 0.015577659 -0.23017302 0.22856629 0.24625432 0.023131527 -0.031197766 0.163315 -0.063522905 0.035148703 0.12918788 -0.40899834 -0.12503353 -0.18501507 -0.123626456 0.0025590952 -0.23706603 0.26252136 -0.20533216 0.21534257 0.23325501 -0.090132356 -0.019395443 -0.15012227 0.0075831795 0.12136031 0.2880793 -0.06779865 0.054959986 -0.3439727 -0.024870478
AGT -0.07104133 0.07660026 -0.29738483 -0.0005321234 0.040692233 -0.06014977 -0.092396654 0.12753333 -0.28554547 0.020131344 0.05879757 -0.250094 -0.10862334 0.2002196 -0.051296104 -0.07846884 0.1076122 -0.16838719 0.25782943 -0.2261087 0.12805027 -0.018857285 0.31573877 -0.06506871 -0.06131772 -0.13838677 -0.1386673 0.09706521 -0.098423176 -0.036536347 0.11762191 -0.041929156 0.34571427 -0.09087972 -0.07034277 0.03653553 -0.09733805 0.17904581 -0.14816518 0.034878146 -0.059940882 -0.053654466 -0.19326678 0.20378906 -0.068263665 0.033962898 0.21161145 -0.22260462 0.06279511 0.1050651 -0.10334231 0.10744241 0.0007074587 0.16140068 0.27460963 -0.17103545 -0.11342001 -0.18290468 -0.093143 -0.05223166 -0.06716502 -0.08032848 -0.07837314 0.07873601 -0.18534444 0.14050537 0.10121151 0.0057915114 -0.18808347 0.3503872 -0.012771615 -0.008920932 0.23262179 0.0034553737 0.07967944 -0.08036219 -0.009870168 0.070575014 0.040500462 -0.22852245 -0.25693122 -0.09231379 -0.1857982 0.17792182 -0.040426426 -0.13314585 0.039264236 0.09099836 0.20065455 -0.0041207597 -0.028599968 -0.0978991 0.106331415 -0.03930366 -0.05903381 -0.033070896 0.006344123 0.22754759 0.114367105 0.06109959
ATT 0.07666483 0.16156608 -0.1397111 -0.25116533 -0.0012550896 -0.14448933 0.024753414 0.3193523 -0.056993455 -0.051522307 -0.14053 -0.12312991 0.069241144 0.19586392 0.06863588 -0.21485686 0.034628056 -0.1643324 0.02106131 -0.017558211 0.014683999 -0.13995032 0.21935588 -0.22243106 0.18440188 -0.17650224 0.058181323 -0.1368496 -0.13459498 -0.11474861 0.3161915 -0.10680826 0.23375586 -0.11321063 -0.13134827 0.24724895 -0.10442336 0.1965439 -0.2642901 -0.07193456 -0.21498124 0.1666761 -0.023861561 0.10294375 -0.061384894 -0.09754457 -0.054765977 -0.22945547 -0.21467747 0.14509152 0.08478744 -0.0033894768 -0.3968442 -0.10899726 0.023982957 -0.092990994 -0.13643594 -0.106498465 -0.119782634 -0.16112685 -0.10887312 -0.015049635 0.02566618 0.0677878 -0.059070725 0.24164781 -0.15526852 -0.0052561415 -0.032849405 0.16187513 0.05788646 0.31405693 0.11363779 0.11165044 0.36580217 -0.37663352 0.07064813 -0.1639604 0.077530704 -0.04283375 -0.19530796 -0.12159471 -0.34141356 0.15943718 0.02269092 -0.18654345 0.13447149 -0.028305635 0.023860618 0.03341728 0.023770908 -0.116611816 0.29292023 -0.10194001 -0.14548711 0.051814366 -0.045598898 0.09830869 0.013639102 -0.2785138
ACT -0.038866922 0.032026704 -0.110611975 0.035887685 0.0924387 -0.1200266 -0.09163016 0.23729874 -0.04502205 -0.07611039 0.100103535 -0.22367375 0.252067 0.21975702 0.13721691 -0.20817377 0.04889564 0.03246605 -0.035806447 -0.10617511 0.17346327 -0.049097374 -0.025093347 -0.07730415 0.09511367 -0.0012820188 0.1343059 0.13580899 -0.10339927 -0.026232192 0.14897534 -0.10731602 0.041842874 -0.20713882 -0.097970545 0.13535763 0.043484487 -0.039826624 -0.08202021 -0.103396624 -0.077745035 -0.15976971 0.30606005 -0.0030120006 -0.08334365 -0.03708786 0.02772652 -0.06427515 0.05796927 -0.016444074 0.035045046 0.0007315198 -0.19719064 0.0129846055 -0.06480589 -0.049911305 0.20810682 -0.034217216 0.01593978 -0.029242866 0.20171122 0.06773168 0.23796628 0.02037609 -0.41025642 0.21127172 -0.0269724 0.15191548 -0.38524684 0.31616986 0.13579479 0.046807937 0.1370472 0.14400809 0.3341899 -0.11497493 0.017845538 0.27331308 -0.109690145 -0.03099802 -0.14855647 0.110548005 -0.4253897 0.1692904 -0.060792994 -0.18316859 -0.19755504 0.1235831 0.09670515 0.079460196 0.10213653 -0.0449257 0.17772032 -0.058741607 0.0927925 0.028895771 -0.055219002 -0.09778342 -0.036891572 -0.12409945
AAT -0.17033097 0.09070474 -0.23833282 -0.12598157 -0.20607083 -0.15757333 0.23694739 0.24507716 0.08231981 -0.09774693 0.0036957776 -0.108586974 -0.041566633 0.040732875 -0.044555154 -0.18369983 0.04675687 0.03709362 -0.073201574 0.06076195 -0.08220355 -0.089051686 0.12373528 -0.15857223 -0.14065048 -0.2037717 0.03473327 -0.3817805 -0.01459842 -0.24517694 0.21075624 -0.10949225 0.30531624 -0.08545 -0.026482603 0.109719194 -0.05101484 -0.106057286 -0.19911285 -0.058576766 -0.12176471 0.157512 0.014374861 -0.02238549 0.15405738 -0.080177285 0.0236371 -0.2958064 0.109177545 0.19447236 0.18636861 0.014456582 -0.2463097 0.042254746 0.095205046 0.124319986 0.29189858 -0.1315884 0.06978908 0.00043914915 0.009558776 -0.15122785 0.110838 -0.061499435 -0.041464806 0.2445877 -0.30717662 -0.021111261 -0.34034437 0.2134366 -0.034315754 -0.015170805 0.35250926 0.08514227 0.2759647 -0.09688233 0.29580724 0.038537443 -0.12938848 -0.10544468 -0.42709318 0.060785014 -0.28188 0.15295383 -0.06491609 -0.30992562 0.17342201 -0.15384093 0.06587411 0.09584724 -0.026487432 -0.13690755 -0.1166311 0.032179635 0.19529629 0.023952648 -0.029076682 0.12588352 -0.1075877 -0.12725009
GAT -0.031842962 -0.028254513 -0.26411954 0.05563781 -0.12253604 -0.058246948 -0.029477078 0.27937058 0.18376628 -0.03658727 0.013339231 -0.15011734 -0.15064022 0.12833172 -0.19031776 -0.0016745719 -0.15901257 0.08081039 0.09656479 -0.11961136 0.055271104 -0.08964452 0.015319467 -0.15217586 0.016225368 -0.18649077 -0.123201914 -0.09644763 0.08593619 -0.22514063 0.043096818 0.077669606 0.28314337 -0.07387213 -0.039747924 0.10586143 0.04157309 0.01347312 -0.28759593 -0.08571369 -0.00072329596 0.093018495 -0.11877542 -0.06487489 0.05466219 -0.17723586 -0.05645379 -0.14207312 0.10069845 0.25508368 0.08826753 -0.011178695 -0.11888341 0.006491501 0.19019814 -0.15579161 -0.07297995 -0.36315405 0.021632854 -0.045768175 -0.016654292 0.025690764 0.29814708 -0.08763462 -0.1836157 0.06199528 0.043855537 0.12478959 -0.21660136 -0.0046306285 0.15139331 -0.123294204 0.14509761 0.055579223 0.09429435 -0.14918672 0.21704748 -0.16654843 0.027836692 -0.067900576 -0.31455502 0.023689685 -0.22381985 0.12224317 -0.062974714 -0.35654038 0.17019793 0.03783894 0.041593578 0.31986517 -0.16919789 -0.011648293 -0.008677529 0.089945234 0.3833729 0.1220021 -0.19950376 0.2820622 -0.07056622 0.01025524
GTC 0.018810578 0.16609806 -0.13335925 0.08589584 0.06500669 0.050113827 0.24283808 0.17882301 -0.084718324 -0.1948779 -0.13266465 -0.14695676 0.33317482 -0.21446303 0.13935025 -0.122233175 0.053281516 -0.054024704 0.5142099 -0.23229425 0.13372207 0.067083254 0.011910706 -0.013803211 0.06168899 -0.12940699 -0.1985544 0.051221367 -0.09935891 -0.016863875 -0.012113409 -0.08543958 0.0043820324 -0.17085795 0.008737665 0.3094541 -0.14059964 0.15101725 -0.025861157 -0.09249078 0.1500941 -0.13302161 -0.07198611 -0.10972726 0.12211901 -0.07110852 -0.041063927 -0.2081538 0.11334138 0.0038451448 0.10823324 -0.07812325 -0.04973661 0.02076088 -0.033582404 -0.13841875 0.048403703 -0.2538779 -0.046615638 -0.06777194 0.08704499 -0.013609062 0.05478785 0.101781994 -0.09439078 0.1908832 0.044167053 0.1851874 0.026507504 0.0044141705 0.19089262 0.03762344 0.24430153 0.21107063 0.2596726 0.19170216 0.08677749 -0.030833848 -0.08146563 0.18239401 -0.06805884 -0.19946596 0.001997322 -0.049195245 -0.036131084 -0.22285417 0.08003128 0.05436493 0.08052056 -0.090889014 0.1582806 0.22892243 -0.26418146 0.12842996 0.37853074 0.13085803 0.015450675 0.006080319 -0.038370565 -0.123565614
ATC 0.14261347 0.21460982 -0.25826696 0.050143808 0.060570773 -0.0073827063 0.043927334 0.42452505 -0.019548258 -0.23882663 -0.036635123 -0.09155854 0.061749406 0.25539577 0.119219914 -0.1484663 -0.02269437 -0.010856741 0.26388958 0.03660945 0.016854042 0.0051827403 -0.003983808 0.10526636 0.071887195 -0.24484546 -0.033028904 0.1491055 -0.16016659 0.10507434 0.24394089 -0.39768028 -0.020139776 -0.22651745 -0.085745335 0.35905594 0.2111887 0.21936522 -0.081601545 0.11616917 -0.09165423 0.087521404 -0.08584357 0.030396191 -0.0028419232 0.087161854 -0.077918775 0.024341332 0.015827354 -0.014891762 0.074701875 -0.22945195 -0.26987624 -0.2696186 0.034612272 0.08241024 -0.03461884 -0.23091751 -0.114320226 -0.30989507 -0.039407358 -0.082775146 0.0958501 0.14706188 -0.15263139 0.3179514 -0.065056406 0.113958746 -0.06547725 0.09205524 0.19281119 0.06890129 0.21167512 0.033699885 0.14462711 -0.10316881 -0.035274066 -0.12871249 0.17387104 0.05691274 -0.14258575 -0.30037603 -0.24649018 -0.032090396 0.08484075 -0.20088957 0.030686341 -0.00059568265 0.09560263 0.08506128 0.15699986 -0.003001385 -0.08364259 0.030829785 -0.117474705 -0.0046867793 -0.07864493 0.13857132 -0.04736438 -0.2322553
AAC 0.05717578 0.26975092 -0.28055766 0.15738735 -0.1601751 0.02736376 0.16621675 0.16924423 -0.036776565 0.0846865 -0.076306745 -0.1906518 0.13111657 -0.03137258 -0.042736772 -0.197097 0.043143094 -0.048996814 -0.036969226 -0.05990385 -0.23797108 0.06771192 -0.089737594 0.061399 -0.17324442 -0.041646153 -0.14341596 -0.2566641 -0.23191515 0.008057822 0.21184647 -0.15213245 0.14138485 -0.21330847 -0.02268229 0.08205974 0.067803144 -0.0010317266 0.0037589828 -0.19837247 -0.31458136 0.1428992 0.08507 0.11452242 0.10199002 -0.12821966 0.039216302 -0.116920546 0.21743245 0.019291347 0.02165766 -0.021224532 -0.0020278199 -0.10902996 0.09048857 -0.066569135 0.08723069 0.10934358 -0.032535605 0.036885604 0.069326214 -0.06837355 -0.07613566 0.04651832 0.02208206 0.083220296 -0.29000592 -0.048831973 -0.30458263 0.02124066 -0.048761003 0.14400019 0.25840712 0.0010569766 0.2725065 -0.06360689 0.06191571 0.078453586 0.16325058 -0.040686466 -0.27457237 -0.05982983 -0.33719975 -0.10112283 -0.19295077 -0.36195174 -0.110831045 -0.021815408 0.19407277 0.19378142 -0.013110836 0.05000395 -0.023450205 0.035088263 0.3439651 -0.17851053 0.05841193 0.24536182 -0.09886739 -0.20533252
GTT 0.051581368 0.24730574 -0.0623546 -0.12924193 0.009226379 0.0022999998 0.1525938 0.17024249 -0.118404254 0.023332588 -0.23634014 -0.22481939 0.34725183 -0.17585967 -0.0045603937 -0.18765634 0.104807265 -0.17082867 0.24301046 -0.32140496 0.07769858 -0.049815204 0.092674874 -0.24911778 0.14511418 -0.21491277 -0.08614718 -0.18274873 0.017361416 -0.19331972 0.09390107 0.15931559 0.21097115 -0.018400967 -0.07572874 0.28114098 -0.2767786 0.19090141 -0.1973112 -0.16572407 0.1037543 -0.07353515 -0.06661437 0.13217305 -0.10499026 -0.24596222 0.051867068 -0.46792817 -0.21402544 0.10752192 0.13044159 0.028427316 -0.19277956 0.09871611 -0.06968264 -0.20772915 -0.10430066 -0.13929416 -0.07688593 0.008349296 0.018285101 -0.0045333114 -0.006777897 0.0056404183 -0.04592708 0.11022742 -0.018049523 0.030656291 0.172161 -0.010143432 0.051184557 0.22485821 0.1471074 0.28697458 0.39149514 -0.07256097 0.13108362 -0.10841786 -0.06305836 0.14202015 -0.16077979 -0.10226821 -0.11997566 0.12421386 -0.029100012 -0.16895224 0.22056545 0.06542471 0.055701554 -0.056049522 0.05896067 0.09121965 0.15023333 0.051511124 0.17862277 0.11931548 0.05515497 0.10708343 0.022926612 -0.13717139
TAA -0.11974959 0.16959517 0.18990906 -0.16028936 -0.043378294 -0.15493168 0.006849537 0.04869653 -0.16282316 -0.059419066 -0.24875 -0.02968333 0.16996564 0.11124993 0.22921537 -0.11788415 -0.04736514 0.027946707 -0.17674217 -0.09096641 0.21912122 0.042297807 0.091072015 -0.13886574 -0.14321126 -0.12044029 -0.17844598 -0.17017297 -0.30829516 -0.19691996 0.07899797 0.10242497 0.2451933 -0.115762636 -0.11944944 0.119810395 -0.0985385 0.21139066 -0.19018203 -0.0582424 0.027561137 0.105996296 -0.073290564 -0.017938584 0.042750467 -0.026997633 0.13534842 -0.27853754 0.027682286 0.10772993 0.08078638 -0.13574067 -0.38336262 -0.305086 0.36731526 -0.17952521 0.09004183 0.0231506 -0.15002984 -0.069286644 0.064566925 -0.04068225 0.11780228 0.086922005 0.112174526 0.20950343 -0.03216094 -0.12650672 -0.35208732 0.3418151 -0.19252731 0.04556581 0.26110023 -0.05412284 0.28370708 0.12899178 0.087345846 -0.1554218 -0.2827962 -0.01565494 -0.054002486 -0.04517174 -0.34409064 0.3307726 -0.30119568 -0.07599093 0.24419716 -0.015677972 0.17004393 0.06612065 0.17420842 -0.04674817 0.11588467 -0.0037765242 0.05671851 0.14498301 -0.038118824 0.33263797 -0.030072555 -0.27507713
TAT -0.10060413 0.080011 -0.09761997 -0.15997028 -0.029452084 -0.15855147 0.08937653 0.17138317 -0.0011864495 -0.088772655 -0.14114732 -0.09876561 -0.02065106 0.10212497 0.17180447 -0.18522911 -0.1714526 -0.048173524 -0.098196775 0.018257601 0.2220831 -0.16897902 0.30505252 -0.21651548 -0.071629204 -0.1602764 -0.08342988 -0.33801654 -0.060719028 -0.3384276 -0.05392112 0.10599442 0.31575885 -0.11135067 -0.08676643 0.09671648 -0.2044606 0.14894752 -0.39415145 -0.04054733 0.072372705 0.14348824 -0.048681203 0.018458936 0.07557915 -0.040174183 -0.025405282 -0.2248565 -0.0745643 0.245484 0.117810324 -0.13802832 -0.30209625 -0.17410831 0.23046681 -0.1702513 0.04113315 -0.20419443 -0.11512342 -0.12018914 0.07422901 -0.11158951 0.25100124 0.0364189 0.06122432 0.20787172 -0.113707416 0.13129303 -0.25765407 0.24365875 -0.058184836 0.048533153 0.2585377 0.050897814 0.22571248 -0.061710715 0.20921266 -0.16077183 -0.11193303 -0.09475416 -0.2538919 0.0018958123 -0.35579175 0.121554986 -0.15037389 -0.16751498 0.3936941 -0.013425504 -0.010601847 0.033388134 0.14157557 -0.1051116 -0.11960776 0.06379637 0.13565384 0.2373613 -0.23799168 0.15069756 -0.13701022 -0.25578436
CTA 0.014282711 -0.014524182 -0.23741795 0.073735945 -0.04368312 -0.053182233 0.20233695 0.30550307 -0.2682174 0.047361027 0.084422626 0.09444775 -0.03632768 0.112033784 0.053389307 -0.1209779 0.1106885 -0.0018585265 -0.380324 -0.007449063 0.28573552 -0.18432191 0.21557015 -0.12632802 0.044853907 -0.25230157 0.06180371 -0.13072483 0.04475977 0.07102161 0.14408782 -0.12487031 0.39324114 -0.2809013 0.09760759 0.26329818 0.020743517 0.27724305 -0.031523786 -0.09012361 0.114277415 0.07197724 -0.052995164 0.12927607 0.089738056 0.033185735 -0.052433684 0.029132018 0.10451172 -0.12626024 0.253376 -0.118692614 -0.0458634 -0.17884259 -0.14751592 -0.1572746 0.044929124 -0.070741914 0.07528281 -0.036157005 0.1016073 -0.040042542 0.0051168893 -0.11066842 -0.032013416 -0.009410339 0.044968363 0.27087545 -0.42914757 0.10839205 -0.14429228 0.1432291 0.09086146 0.12699851 0.12152976 -0.21327136 0.049303163 0.015046629 -0.24003556 0.10666823 -0.06594675 -0.023116428 -0.034597695 -0.09227925 -0.32919252 -0.047006484 0.0715826 -0.24590729 -0.024474123 0.14020088 0.22541507 -0.0140566975 0.22278972 0.07308252 0.16398756 -0.04558642 -0.07100564 0.21765335 0.013632579 -0.0059360326
CGG 0.24402112 0.12555334 -0.033909943 0.04720428 0.15548858 0.112862624 0.11687595 0.1907397 -0.2877582 -0.06690352 -0.039789233 -0.040945392 0.015075276 0.06892674 0.08921475 0.04199423 -0.22002022 0.284409 -0.16697112 -0.5290723 0.21388541 -0.11375075 -0.0843392 0.046220284 -0.14014202 -0.06214891 -0.046139322 0.0076304097 -0.19468558 0.07442872 0.029945513 -0.21867672 0.019021593 -0.14372914 0.12826933 0.09237088 -0.1325924 0.2784687 0.11730411 0.0867368 0.1455959 -0.3752987 -0.16192318 0.34819207 0.37911224 -0.1701533 -0.14451486 -0.15864304 0.07994007 0.1022612 0.04058639 0.10585168 0.013717384 -0.21085902 0.06762099 -0.15309967 0.051344845 -0.31860724 0.15707377 -0.19071189 0.08128312 0.024404155 -0.011839019 -0.057258554 -0.25983986 0.19168359 0.23103237 0.2515123 -0.0072648013 -0.11854784 -0.23644367 -0.07007055 -0.16008946 -0.045655593 -0.17049825 -0.008102507 -0.032404955 0.20299107 0.1067528 0.074735664 -0.18865384 -0.0528804 -0.11869891 0.30063343 0.085297376 -0.051972147 -0.07773353 -0.064742535 0.02731092 0.0012588315 -0.24407423 -0.16482916 0.07860233 -0.14098258 0.38800013 0.15481444 0.036072 -0.08593617 -0.17591596 0.09754925
CCG 0.08214274 0.22861606 -0.061648894 0.26015985 -0.038682256 0.06304045 0.18656671 0.16458663 -0.25564456 -0.013387532 0.06379087 -0.3832195 0.14280827 -0.068634436 0.05517044 0.1518509 0.08776772 0.061031267 -0.06548909 -0.37177563 0.19497873 0.1642239 0.1377647 0.16136418 -0.0499977 0.19346069 0.16156846 0.27619046 0.036336474 0.07307979 0.13927168 -0.32107744 0.10190215 -0.006327762 0.035715044 0.10480764 0.22761452 0.084178135 0.0036571189 0.038283113 0.019775609 -0.23116168 -0.021866335 0.521837 0.31583962 0.1057312 -0.1828805 -0.18546279 -0.08120397 0.05456501 0.050869297 -0.01626826 -0.11422815 -0.3236181 0.16944438 -0.03993849 0.02318275 -0.16488917 -0.03428148 -0.09714465 -0.13511455 -0.030914014 -0.078663506 0.011890869 -0.26126233 0.10744931 0.16655499 0.44456473 0.15568624 -0.0029998492 -0.23648758 -0.15508412 0.117145255 0.11450468 -0.106916875 0.17522784 0.16480471 0.0010049442 -0.016516434 -0.068188466 0.019207168 -0.04815226 -0.011464044 -0.041211814 0.12854192 -0.11097594 -0.15085289 -0.31536308 -0.1188238 -0.17156433 -0.28179967 0.037384134 -0.016428214 0.0046575456 0.43549854 -0.009858173 0.21410882 0.07403579 0.05774288 0.058264595
TTA 0.018609615 -0.06927417 -0.15299414 -0.054795846 -0.0021574087 -0.31334466 0.10514212 0.37697443 -0.10296362 -0.14875352 -0.03220286 -0.14550559 -0.13907817 0.111648284 0.27015883 -0.051705386 -0.058962163 0.034406886 -0.1524992 0.042093717 0.004612182 0.046955094 0.3343894 -0.2264354 0.055470888 -0.15277258 -0.16249403 -0.20772006 -0.07663702 -0.10860383 0.12663801 0.03915397 0.5715016 -0.066602334 0.06295635 0.29093105 -0.01629864 0.16130447 -0.3355398 0.021043446 -0.085745275 0.068615526 -0.15031585 0.10305687 0.076603055 -0.020017939 0.10196482 -0.11433223 0.017649217 -0.105780676 0.19244717 -0.21250449 -0.13810131 0.010644277 -0.10848388 0.031062176 -0.20360644 -0.08752626 0.16725409 0.094884306 0.011825179 0.020252703 0.037311107 0.07751636 0.007836965 0.015278308 -0.25961477 0.06546121 -0.47811127 0.28632724 -0.17306842 0.24500278 0.22389007 0.12841354 0.33599904 -0.08129773 -0.059546426 -0.14025894 -0.25256565 0.02520976 -0.08124134 0.042721048 -0.22661214 0.147748 -0.37151086 0.078745976 0.1416628 -0.18409027 0.19288614 0.03239689 0.10884329 -0.0066714576 0.3008453 0.09374801 0.099405125 0.014787288 0.14087898 0.26577622 -0.07346655 -0.18447672
GTA 0.014808764 -0.08850429 -0.26032972 0.023810774 0.06957939 -0.01935268 0.3088365 0.24666306 -0.10703272 -0.06843049 -0.18907619 0.04696227 0.05241596 -0.11961494 0.023493951 -0.12911254 0.11935351 -0.057945456 0.104482956 -0.11493394 0.075958796 0.01996608 0.0413759 -0.19897225 0.089173675 -0.39968857 -0.12980235 -0.09634932 -0.03382947 -0.08231928 0.06247495 0.06434702 0.31426457 -0.07931253 0.055104963 0.31698012 -0.32238576 0.29591823 0.031176133 -0.14075798 0.20493956 -0.030706067 -0.07376421 -0.04100479 0.18561481 -0.084236585 0.029274821 -0.309618 0.26276934 -0.09345197 0.22727336 -0.10254085 0.075400054 0.03889259 -0.1841758 -0.12135171 -0.19955267 -0.17590246 0.15270343 0.14066674 0.10968565 0.098802336 -0.077139445 -0.0024530203 0.03401314 -0.067851715 -0.036942396 0.19715351 -0.2538222 0.07159069 0.032842245 0.15904763 0.25799933 0.1493097 0.41727808 -0.12083248 0.062333778 -0.09320305 -0.32016107 -0.011710075 -0.10420294 -0.13304764 -0.12221197 0.12557343 -0.1770674 -0.1296729 0.097466834 -0.13422455 0.14933668 -0.059148178 0.05826081 0.10313744 0.2926476 0.18842307 0.3702865 -0.0032949625 0.049363587 0.24917945 0.026431948 0.012935724
TAC 0.031515695 0.21996792 -0.028837442 -0.035311732 0.011432349 -0.030931074 0.08232477 -0.0041814526 -0.1505147 0.028981458 -0.1968536 -0.17846695 0.13205892 -0.029319042 0.32181585 -0.123013444 -0.1444 -0.08112408 -0.1415999 -0.039589785 0.22337694 -0.033287615 0.14039274 -0.0019100221 -0.14276473 0.12608218 -0.14811018 -0.22093758 -0.2970744 -0.025237903 -0.013416528 -0.044841215 0.16469239 -0.2376709 -0.029052844 0.07573096 -0.024949903 0.262285 -0.17282243 -0.08804243 -0.11684197 0.11795022 0.08001341 0.16433631 0.16871113 0.057318725 -0.031187741 -0.018096726 0.072294936 0.07006319 -0.010609256 -0.13776791 -0.15552293 -0.42581174 0.2663183 -0.28106695 0.011048543 0.07059685 -0.21555838 -0.105144694 0.1303745 -0.04150079 0.03389814 0.14477327 0.17090882 0.16671142 -0.0410713 0.121898904 -0.29877898 0.16164963 -0.22690651 0.12133715 0.18986376 -0.07677877 0.16177388 0.060455654 0.06768051 -0.049928416 0.0677663 0.004385643 -0.02040186 -0.06508781 -0.40567932 -0.12579359 -0.27140808 -0.18539865 0.027894381 -0.023515446 0.07650128 -0.051403865 0.1739223 0.057910174 -0.10037532 0.024016416 0.2592008 0.012110918 -0.1389324 0.19547203 -0.11944001 -0.3380233
CGC 0.16967034 0.10942238 -0.1444187 -0.011888257 0.1688391 0.0316129 0.15962972 0.19343336 -0.18358764 -0.04665946 -0.061004765 -0.19729276 0.028723538 -0.051612288 0.1521378 0.21925262 -0.10297889 0.101841025 -0.0738543 -0.38439673 0.41026467 0.036294807 -0.093042895 -0.053310335 -0.21890138 0.15374967 -0.01610392 0.05703134 -0.045485433 0.25404245 0.2121747 -0.45909676 -0.03979705 -0.11004838 0.18521343 0.32251096 0.11299333 0.2783849 -0.037259 0.11717647 0.024876755 -0.3229101 -0.124832615 0.28345782 0.3382964 -0.05846491 -0.266905 -0.118025415 0.21507998 0.029854432 0.12384942 0.037220486 0.072189294 -0.16401784 0.13796882 0.056925807 0.24905054 -0.26337224 0.05859394 -0.13464156 -0.0056360317 -0.06326121 -0.024313854 -0.05375711 -0.2651511 0.1765818 0.2570312 0.27528208 -0.041371673 -0.11158299 -0.24573825 -0.09658617 -0.1337266 -0.01184895 -0.20700225 -0.10151726 0.25152728 0.16847765 0.04043451 0.23887402 -0.17458794 0.014302335 0.004960211 0.1068468 0.12716153 -0.120540656 -0.4918449 -0.110776186 -0.006100736 -0.07454633 -0.008266392 0.0701947 -0.012314188 -0.1880482 0.25155497 0.03988719 -0.04925465 -0.0503198 -0.06921219 0.18135539
GCG 0.16689068 -0.04339923 0.0015681194 0.04594205 0.1190739 0.02055993 0.17082338 0.23891686 -0.27234375 -0.1094648 -0.014209128 -0.41586527 -0.011667593 -0.025662215 -0.049137075 0.124959715 0.002009661 0.058068804 0.07227323 -0.54074 0.22657858 0.085249856 -0.09482845 0.04004937 -0.07342328 0.014255892 0.110730425 0.36177143 -0.0050540757 -0.0010732587 -0.023227926 -0.1673968 0.064369194 -0.023993954 0.078898 -0.073851444 0.1924392 0.06560762 0.23536773 0.017601762 0.15605934 -0.26311517 -0.0475743 0.53257626 0.23026091 0.0007292746 -0.30369416 -0.046145145 0.117251344 0.13318892 0.05897749 -0.058860157 0.102819905 -0.29179218 0.24796923 -0.05868002 0.061895706 -0.07677612 0.044752076 -0.05733979 -0.18931569 -0.020644551 -0.17082489 0.024869284 -0.20693973 0.2978284 0.18736403 0.31352174 0.034051962 -0.11468995 -0.20733747 0.0018260241 0.1844863 -0.16077076 -0.044491485 0.036649093 0.43053398 -0.15807223 0.01878479 -0.005974865 -0.10016202 0.031451177 -0.15932336 0.05455317 0.13050674 -0.03999727 -0.17023407 -0.06574504 -0.0720488 -0.041843507 -0.11308017 0.036487784 0.05607724 0.24290624 0.49377462 0.11793473 0.24302144 0.15013646 0.09983478 0.100839734
ATA 0.07157256 0.009826464 -0.26073462 -0.07502194 -0.036006287 -0.1723574 0.16557069 0.41060856 -0.070518725 -0.15020233 -0.16625687 0.049752798 -0.14301077 0.24064045 0.16970512 -0.19941345 0.00023916154 -0.075028956 -0.1393081 0.14466038 0.003695277 -0.03207732 0.0917682 -0.1466322 0.015246253 -0.34730598 -0.029571773 -0.1296532 -0.12810354 -0.0060062595 0.21762802 -0.20257095 0.3487495 -0.09011889 -0.07512879 0.36038783 -0.08856963 0.28311864 -0.14129439 -0.023495091 -0.08769255 0.204303 -0.038123537 0.10708204 0.12746261 0.0103293015 -0.00020030225 -0.15545948 0.10591502 0.012179746 0.18788089 -0.17136073 -0.18243884 -0.22620946 -0.00099048 0.08111858 -0.16817763 -0.117401876 0.035876572 -0.016151166 0.039149214 0.035889503 -0.08760462 0.058627974 0.067395665 0.030840756 -0.18169917 0.13116772 -0.38761455 0.2776566 -0.0355628 0.21369398 0.26884434 0.032458834 0.46764466 -0.24865928 0.03148182 -0.13080373 -0.17379785 -0.12890485 -0.08679435 -0.10941969 -0.40137956 0.14642443 -0.16386658 -0.07666789 0.054766603 -0.2527375 0.10708615 0.09838817 0.18815961 -0.107346214 0.29560217 0.012061883 -0.06666098 -0.08092112 -0.11048604 0.31035876 0.101218075 -0.21307978
TAG -0.09207999 0.22553824 0.16137132 0.16428657 -0.048204705 -0.07374223 0.18159582 0.20102675 -0.111701965 -0.19810078 -0.1564754 -0.22654887 0.06889574 0.061049283 0.2775984 -0.11334327 -0.01167057 -0.155146 -0.21275064 -0.19682781 0.16681539 0.033559993 0.08056419 0.0045991386 -0.06345692 -0.041812208 -0.21971558 -0.19002502 -0.15108427 -0.19019689 -0.0011621176 0.0698453 0.19453032 -0.1780212 -0.30537453 0.09831521 -0.029249499 0.29453805 -0.2110814 0.043032784 0.25320786 0.16671436 0.04124908 0.08428613 -0.17338112 0.029942118 0.020262068 -0.1429274 -0.08434983 0.2953044 -0.11423201 -0.31856015 -0.3669765 -0.30155826 0.23199832 -0.19860148 0.075550824 0.06103898 -0.1118503 0.062603675 0.015992247 0.006997923 0.38472217 -0.039693754 -0.013924583 0.1962503 0.022451838 0.02584309 -0.21053346 0.13059606 0.018979514 0.13918307 0.15277229 -0.15840727 0.2741153 -0.023054466 -0.0058617913 -0.059180114 0.012437832 -0.27133402 -0.0806589 0.041337088 -0.2549498 0.10118175 -0.08438688 -0.14682694 0.31738085 0.049299214 0.053077463 -0.092665695 0.056835283 -0.041636296 0.008907682 0.14225079 0.1093556 0.027438024 -0.14850748 0.083333164 -0.019184869 -0.1089335
ACG 0.05084887 -0.084199294 -0.04320292 0.24621716 -0.15718977 -0.0573784 0.049414776 0.1838225 -0.087834165 0.06585995 0.09856794 -0.4328503 0.15180752 0.114088655 -0.07886229 -0.035014305 -0.06741767 -0.05076019 0.09985807 -0.35692257 0.17353053 0.20640028 -0.10177671 0.17458002 0.013494817 0.09013311 0.34949335 0.2801652 -0.14548169 0.10009997 0.11153965 -0.105837286 0.23846337 -0.057412066 -0.10227635 0.055210482 0.10965836 -0.1018299 0.1458471 -0.1551955 0.03482118 -0.3381255 0.23754822 0.3902455 0.21287355 0.057646032 -0.2386914 -0.06525744 0.031508412 0.09208063 -0.02376756 0.04123201 -0.0031811898 -0.26590195 0.20911466 -0.07572234 0.13820423 -0.20881504 -0.10741434 -0.024876254 0.058802996 -0.015387391 -0.18804176 -0.05110546 -0.3460463 0.20954318 -0.0024977229 0.34993386 -0.14055133 0.08628537 -0.11500156 -0.078827925 0.20487209 -0.050287463 0.30897692 0.20080239 0.28143495 0.016420683 0.044199977 -0.06846767 0.21155702 0.019466057 -0.41436905 0.028726643 0.12791847 -0.18218133 -0.20441167 -0.019743709 -0.024274971 0.026183015 -0.1411641 0.009927328 -0.0038880222 0.12586302 0.2881302 0.106373616 0.056727532 0.05845623 0.07945367 -0.052878585
CGA 0.2294873 0.28343946 -0.07931777 0.013923702 -0.01202118 0.06874059 0.06960612 0.25833973 -0.005006704 -0.002157919 -0.210533 -0.34383634 -0.013103242 0.02500104 0.23823702 -0.3177775 -0.28346318 0.1081748 -0.06910237 -0.39623827 0.26168707 0.053214017 -0.29583538 0.04041386 -0.06391418 -0.05836188 -0.1506736 -0.011044166 -0.16287872 0.14565682 -0.08404507 -0.28732505 0.08350913 0.02069516 0.012412521 0.23899901 0.044346884 0.32996914 0.0117335655 0.23730648 -0.084533684 -0.18496834 -0.15955424 0.3771186 0.18431509 -0.17517531 -0.12730287 -0.08354928 0.02974114 0.2545846 0.16344002 0.07836911 0.12669799 -0.23080291 0.037476297 -0.047280557 0.21840973 -0.18698797 0.20421103 0.059312053 0.00015239592 0.07582393 -0.11217206 -0.20221579 -0.061010122 0.0027213476 0.3357439 0.17788078 -0.07983482 -0.023846388 -0.1314241 -0.015069587 -0.12629256 -0.09888705 0.09801008 0.21266672 0.117066875 0.17955874 0.04700507 0.27239993 -0.2502388 0.0960069 -0.1577489 0.165906 -0.027498985 -0.021116277 -0.15505008 -0.20726562 0.0827424 0.30554482 -0.052996688 0.010584125 0.046944212 -0.34579557 0.22571242 0.09813411 0.06267089 0.044284597 0.0126279695 0.1011508
TCG 0.1576385 0.218845 -0.18739572 0.21836406 -0.032384027 -0.29721785 0.22618888 0.31455293 -0.16939263 -0.0850201 -0.14306054 -0.46712482 -0.08965371 0.17023928 -0.10623481 0.02485347 -0.071912065 0.05450149 0.011143486 -0.34911934 0.1888905 0.2656828 0.21487018 0.14328937 -0.04945507 -0.08544436 -0.015890902 0.21976078 0.13025431 -0.0574754 0.33940002 -0.00011061063 0.16358408 0.04342436 0.011204937 -0.07691864 0.10421214 0.1757034 -0.017199887 -0.20104787 -0.034632288 -0.14670321 0.014062174 0.2665402 0.1118806 0.06045421 -0.41069254 -0.21946143 -0.014309578 0.11106706 0.15784153 -0.13340832 -0.07665155 -0.46493864 0.11920188 0.021975022 -0.0055747135 -0.26623935 -0.2539192 -0.112250514 -0.05567084 0.04876284 -0.13124184 -0.064350225 -0.078681625 -0.05154099 0.07448543 0.29561234 0.030466273 -0.1500873 -0.2732991 -0.06707362 0.05124971 0.077641256 0.12784205 0.15091555 0.14435743 -0.22985698 -0.09598048 0.011399543 0.1883007 0.052482925 -0.005107443 -0.0020489343 0.282747 -0.1013345 0.08545325 -0.08686328 -0.11540603 -0.07924421 -0.0042145727 0.001553016 -0.09965873 0.072969034 0.23987083 0.08336662 0.22107005 0.08228714 -0.31596506 0.06618317
CGT 0.41283986 0.20651378 -0.36766547 -0.15952237 0.021526322 -0.02897626 0.003886991 0.11649207 -0.24124077 -0.25064194 0.10678077 -0.23647627 -0.126085 0.012451881 0.22895342 -0.020531623 -0.12262253 -0.033605706 0.18552312 -0.406525 0.15220381 -0.019245386 0.03554483 -0.018851025 0.03470534 -0.023866804 -0.080385946 -0.054857038 -0.006977988 0.27942854 0.08222294 -0.31287152 0.22958592 -0.14014752 0.14110789 0.1265569 -0.26661965 0.3389475 0.090074174 0.034322616 -0.17197067 -0.36078712 -0.06923186 0.1854273 0.27208388 -0.08261773 -0.04489252 -0.23945042 -0.001330829 0.3106221 -0.006006128 0.2525333 -0.017188963 0.043032873 0.18947218 -0.22684652 0.13238038 -0.3313024 0.07574163 0.01527843 0.061713316 0.037225947 -0.21304712 0.032353226 -0.20716389 0.07596964 0.31681123 0.13440801 -0.1721728 0.10925129 -0.1502514 -0.2000639 -0.037675355 0.091294765 -0.13687968 0.03379309 -0.12572579 0.29592034 -0.0004985398 0.22108485 -0.06411782 -0.12680632 -0.16210616 0.21373107 0.19340365 -0.08468626 -0.17783105 -0.107336156 0.21930301 0.026877375 -0.22731891 -0.005345527 -0.09098468 -0.1917242 0.16698548 0.17117351 0.02321823 -0.120142676 -0.097870946 0.11734908
NNN 0.10338079 0.23827913 -0.23388524 0.24811915 0.045116115 -0.11465557 0.26547 0.5429716 -0.33518896 -0.13745597 -0.04335601 -0.5382528 0.141917 0.23547895 0.08802165 -0.080548994 0.16067566 0.05437196 -0.016250605 -0.6724396 0.4246293 0.024383565 0.2569587 -0.113055825 -0.059677646 -0.0050552688 -0.24679258 0.03038683 -0.30352446 0.061807156 0.37709847 -0.2861488 0.4125585 -0.5216315 -0.08599226 0.29525468 0.10572837 0.34965095 -0.25230715 -0.09627959 -0.07360179 -0.20736398 -0.122292586 0.3212715 0.2517318 -0.15336074 -0.1769874 -0.33165547 0.2212436 0.20649366 0.1814854 -0.13831541 -0.23838966 -0.29363775 0.12022217 -0.25231266 0.1969478 -0.25455734 -0.12478665 -0.08422518 -0.057235923 -0.12781143 0.19021891 0.07924565 -0.33220324 0.43425715 0.050675545 0.3373116 -0.38025156 0.1210005 -0.07815728 0.12774244 0.26848164 0.08528928 0.3781677 -0.16445427 0.2877883 0.08877344 -0.021658966 0.032644995 -0.5008702 -0.22109276 -0.33120105 0.1670614 -0.15792881 -0.41451558 0.06965784 -0.113451414 0.19282705 0.14568202 0.07195253 0.0929576 0.19667973 -0.017672362 0.57225657 0.15714471 0.121603176 0.22985086 -0.15109947 0.0452938
TNG 0.03079993 0.071868554 -0.06507962 0.08223568 -0.025916822 -0.04337767 0.09775518 0.19902739 -0.10935722 -0.055250783 -0.010301942 -0.1821273 0.036712766 0.090980805 0.002159998 -0.053905606 0.06432651 0.0036514553 -0.021981195 -0.25641993 0.11547044 0.008159964 0.081497826 -0.04093198 -0.014837592 -0.015757244 -0.07751677 0.017797977 -0.11083453 0.008106014 0.11902885 -0.08993688 0.17877704 -0.14918867 -0.035559308 0.09883078 0.01087359 0.09297388 -0.063101515 -0.050174598 -0.03303456 -0.069841385 -0.047471765 0.121160194 0.100478485 -0.08874923 -0.050941028 -0.1378552 0.08293505 0.09996179 0.054987334 -0.011687595 -0.08015634 -0.07763242 0.045339737 -0.09095173 0.066645205 -0.08957431 -0.020026714 0.0013700585 -0.017729193 -0.029007107 0.04407998 0.019948138 -0.11520636 0.118315876 0.024914047 0.11160691 -0.14367679 0.065793134 -0.011125042 0.04809822 0.10711058 0.035197847 0.17416447 -0.031259503 0.09812035 0.032434206 -0.036034442 -0.0007063986 -0.1678381 -0.05633159 -0.12660235 0.09499402 -0.060550448 -0.14079198 0.051581424 -0.061134316 0.06600208 0.08661887 -0.0010969563 0.030046804 0.11320414 -0.017760742 0.20847507 0.060330696 0.056265578 0.09443381 -0.017496357 0.029040553
CTN 0.04697001 0.06492986 -0.06675382 0.0949948 -0.008836983 -0.0389154 0.09439071 0.17451465 -0.11792821 -0.058479846 0.0024042407 -0.18445212 0.057579305 0.06841017 0.039881963 -0.020559167 0.06858774 0.009769429 -0.0005366046 -0.26087457 0.15286668 0.013077867 0.088722885 -0.05829793 -0.010816213 0.02539529 -0.07592852 0.020664193 -0.09728915 0.056692865 0.123416275 -0.09583844 0.14588706 -0.19672349 -0.012163047 0.117992565 0.027730431 0.10864088 -0.05644008 -0.05033725 -0.018531943 -0.08789355 -0.031003596 0.1089554 0.14153981 -0.05143269 -0.080253795 -0.09985371 0.080557555 0.06740145 0.06597222 -0.021848205 -0.057020128 -0.085418046 0.0359456 -0.08980598 0.06232443 -0.06433967 -0.042729467 0.005918009 -0.017135082 -0.029875271 0.035559885 0.024530152 -0.09641331 0.12576456 0.03650909 0.13402694 -0.12697332 0.037266247 -0.035458267 0.046653405 0.08516853 0.039764024 0.13524468 -0.017068826 0.10582228 0.04068364 -0.0075403927 0.03409532 -0.14172295 -0.08283196 -0.11850314 0.042710625 -0.052992597 -0.14203884 0.019121436 -0.06526782 0.070255555 0.07611594 0.0034204437 0.056401808 0.0753028 -0.013664017 0.23809265 0.062695175 0.04763555 0.06873253 -0.02329846 0.026811644
CCN 0.055651512 0.10691783 -0.099467136 0.03821564 0.02378297 -0.0560447 0.08611284 0.18345915 -0.12185458 -0.057167076 -0.019704262 -0.19164349 0.062121205 0.058853317 0.060414977 -0.043512505 0.04929496 -0.010262558 0.025163792 -0.20219263 0.116802916 0.008846823 0.11792856 -0.07117641 -0.0007097031 -0.013613857 -0.08709779 -0.00688591 -0.06617591 -0.0050847144 0.14126906 -0.09292449 0.16285528 -0.15117711 -0.0047386717 0.13836741 0.021481147 0.13339862 -0.12063015 -0.0396403 -0.036297493 -0.05690831 -0.054684315 0.104137175 0.04807138 -0.045107424 -0.04573345 -0.13118958 0.02760836 0.056059517 0.07703938 -0.051635172 -0.11045273 -0.064511925 0.026759643 -0.0819023 0.03697855 -0.0743478 -0.04480427 -0.041915577 -0.03958942 -0.024622949 0.05877941 0.04614878 -0.10138042 0.14311297 0.011759904 0.09114546 -0.11949092 0.07411306 -0.029747967 0.06251212 0.10282958 0.07427349 0.13189118 -0.07091472 0.06749038 0.012730787 -0.019265005 0.037456516 -0.17180134 -0.06937703 -0.11569359 0.057234284 -0.06954776 -0.12983975 0.04242791 -0.034422178 0.07727156 0.04862706 0.019329011 0.03830783 0.057782322 -0.009450464 0.16237596 0.046209555 0.043453686 0.069128126 -0.045264445 -0.020045675
NGG 0.047037084 0.067062974 -0.069889635 0.07814499 0.0082050245 -0.029743884 0.09082796 0.18481264 -0.11574643 -0.032894276 -0.013457129 -0.19858572 0.035266113 0.076964654 0.033266902 -0.036627825 0.04599406 0.021723365 -0.013717667 -0.24220395 0.13994634 0.027319072 0.06297247 -0.02523252 -0.024114875 -0.00305463 -0.04570457 0.034240168 -0.10832825 0.031982824 0.12531593 -0.11272862 0.15193436 -0.15174206 -0.034705985 0.099384435 0.0475488 0.11556151 -0.056062456 -0.016606653 -0.019718423 -0.095656514 -0.036538307 0.15486395 0.11559124 -0.041421637 -0.055076372 -0.105040155 0.065495886 0.06813861 0.06517607 -0.04173902 -0.055598635 -0.105527185 0.032919705 -0.06315395 0.043114077 -0.095271535 -0.026796404 -0.023561452 -0.028086986 -0.019776845 0.034297097 0.017209297 -0.10039242 0.13071914 0.026127802 0.1353275 -0.12843779 0.045505222 -0.034207724 0.03929803 0.09926891 0.016842004 0.13740933 -0.018679762 0.087941386 0.03970517 -0.008935543 -0.0014437252 -0.14512905 -0.08172488 -0.14100188 0.06977154 -0.049974713 -0.10810165 0.002028611 -0.06924237 0.066675305 0.056629308 -0.0018137085 0.037841454 0.09871385 -0.014119514 0.19939603 0.03606926 0.05535005 0.07990302 -0.021103209 0.019777542
CNN 0.052709438 0.09002931 -0.089428246 0.051746916 -0.0027214002 -0.04440702 0.095156536 0.19714876 -0.11612268 -0.05525121 -0.025908116 -0.1695915 0.047191452 0.06285775 0.037315734 -0.029232629 0.04694084 0.0011979977 -0.0020335084 -0.24215032 0.12269697 0.02193232 0.087147206 -0.038549986 -0.0238234 -0.011193528 -0.08605151 0.00087034144 -0.10832542 0.014317515 0.10649897 -0.09310035 0.16259351 -0.16835204 -0.031368352 0.10270651 0.012724684 0.11855992 -0.08594157 -0.034549393 -0.023363642 -0.071894005 -0.04124204 0.119868495 0.10299973 -0.052756228 -0.04686908 -0.119785324 0.052401207 0.07486532 0.045531508 -0.050279774 -0.09229937 -0.0882139 0.046728183 -0.09086223 0.04591258 -0.094981864 -0.041988324 -0.021019973 -0.010395498 -0.051837288 0.04968578 0.047744054 -0.09291756 0.15090536 0.012669369 0.118283786 -0.14931518 0.06330578 -0.018189192 0.059196625 0.1274036 0.042812098 0.146968 -0.03300893 0.07885145 0.024697274 -0.018298894 -0.0003404021 -0.1492441 -0.07394714 -0.14134134 0.08246075 -0.06074031 -0.13359818 0.0504856 -0.037562475 0.06696684 0.042917788 0.03228367 0.037924334 0.064239144 0.0013782026 0.18549815 0.053564712 0.03850362 0.09185174 -0.0379515 0.0034606406
DGA 0.10049669 0.09545546 -0.0992082 0.071511194 0.025662981 -0.012084361 0.08465987 0.16958965 -0.1045644 -0.03176982 -0.0032243999 -0.18769482 0.053972457 0.042330924 0.06908759 -0.027852077 0.02532127 0.03537632 -0.0024509244 -0.24086162 0.16288257 0.021515427 0.07220001 -0.027611211 -0.018790053 0.032266896 -0.061239682 -0.0032424126 -0.06849919 0.043443587 0.09308404 -0.13115028 0.15172914 -0.16377191 0.02037621 0.10542013 0.0368976 0.12099511 -0.07970984 -0.027386105 -0.027323902 -0.10682463 -0.0130476225 0.13695396 0.12906657 -0.048182905 -0.1021653 -0.09394538 0.058878288 0.051311795 0.07470857 -0.03403492 -0.07438046 -0.10268123 0.021076428 -0.095783204 0.06805619 -0.09994908 -0.013581452 -0.04374194 0.0012623903 -0.028206294 0.048216693 0.03739433 -0.12215295 0.11734828 0.034639146 0.15882243 -0.13888218 0.03077087 -0.046135306 0.03439671 0.07882383 0.06098616 0.09962311 -0.029463721 0.1108457 0.047734983 -0.038241126 0.059785444 -0.1502698 -0.064006016 -0.12973133 0.028512392 -0.06874959 -0.1334577 -0.026453841 -0.059102986 0.04225136 0.041723788 0.010337994 0.055560853 0.026558403 -0.008839173 0.24119079 0.062159877 0.052201733 0.054508302 -0.0757768 0.012618363
GTN 0.047207132 0.06972051 -0.06774437 0.07055646 0.0056130635 -0.024648288 0.08406009 0.17982513 -0.09886959 -0.037260883 -0.03366672 -0.18320826 0.039538957 0.064510964 0.023009904 -0.020943116 0.049318634 0.004884401 0.017572634 -0.24546883 0.13738878 0.032482464 0.08268977 -0.04981444 -0.03615685 -0.0036987292 -0.072655335 0.020129714 -0.101797566 0.020759797 0.13231999 -0.09055317 0.16269973 -0.14270452 -0.027199693 0.10413037 0.026815984 0.11130119 -0.070339814 -0.042191647 -0.013303588 -0.07047884 -0.051632095 0.11906283 0.09905654 -0.053657863 -0.047576066 -0.14818135 0.092716694 0.06083284 0.052736096 -0.028806977 -0.07295581 -0.07158859 0.04528218 -0.084095776 0.051136997 -0.07959574 -0.024414904 -0.0068449536 -0.017603092 -0.019164015 0.03674546 0.034964863 -0.1056501 0.13077392 0.014566241 0.09988105 -0.11997801 0.048113152 -0.03089316 0.03871658 0.08938355 0.03860035 0.13464627 -0.04095686 0.104538456 0.012929317 -0.025520984 0.01018365 -0.15674613 -0.06753313 -0.12918036 0.081240065 -0.060132567 -0.12870383 0.014409241 -0.038159654 0.058382478 0.054143146 0.013180352 0.02769781 0.07967049 -0.006356337 0.19499567 0.041394472 0.050952185 0.09427396 -0.024118375 0.013140676
CNT 0.022070784 0.12484807 -0.08940286 0.06254612 0.013136859 -0.03540243 0.07570045 0.19603913 -0.08720113 -0.049168736 -0.019318929 -0.18680778 0.053407904 0.065919034 0.03306008 -0.051892057 0.047248483 -0.0043244553 0.0067208395 -0.20898563 0.13066696 0.011723491 0.10084256 -0.048975993 0.0067155818 -0.024107521 -0.07741432 -0.021299807 -0.091174856 0.0024728118 0.124445654 -0.0821792 0.16183113 -0.1678521 -0.02903146 0.124042764 0.04255065 0.12375859 -0.11260811 -0.025887275 -0.036145084 -0.055232685 -0.039631367 0.1045072 0.060217578 -0.044960108 -0.0292156 -0.12687032 0.04593971 0.06621642 0.064631425 -0.04681968 -0.117846996 -0.081409745 0.04233936 -0.09071028 0.057158552 -0.08482299 -0.05084841 -0.032160614 -0.013377243 -0.029872576 0.084581375 0.020109402 -0.10645662 0.13722257 0.019481882 0.09811614 -0.1326492 0.066815674 -0.029126378 0.04819498 0.10170851 0.052837294 0.1229633 -0.048385505 0.05836583 0.0051709316 -0.0083709285 0.017903367 -0.16070402 -0.06587066 -0.13142848 0.05198317 -0.055219684 -0.13071032 0.043786157 -0.044100717 0.08897593 0.06031256 0.026226716 0.037589613 0.06567933 -0.0069680987 0.15894474 0.05182711 0.022562701 0.091942064 -0.062414896 -0.020787062
NTT 0.033863086 0.12305188 -0.08027239 0.048767935 0.005873633 -0.052594695 0.09508129 0.18229635 -0.11162995 -0.052104075 -0.025848234 -0.18332651 0.06565354 0.04405025 0.051017337 -0.058517084 0.053355623 -0.009840917 0.016294932 -0.21334499 0.13100386 0.008607988 0.122257926 -0.043772172 -0.0043798154 -0.018484924 -0.08468358 -0.024569675 -0.064551465 0.0012857434 0.13034043 -0.0837139 0.15223466 -0.15647323 -0.036345497 0.12086664 0.018730566 0.12867995 -0.11117841 -0.046753757 -0.017830288 -0.04112943 -0.05134143 0.08918257 0.04317111 -0.057426173 -0.05447448 -0.13569506 0.032310825 0.07181837 0.06061018 -0.053510852 -0.11511819 -0.07749097 0.03324669 -0.096459776 0.051340476 -0.0847373 -0.048206046 -0.022605829 -0.016332977 -0.029073047 0.065689735 0.019206863 -0.08791628 0.13889995 0.026267737 0.09291168 -0.11982519 0.049758956 -0.019353077 0.068977214 0.09991525 0.063361116 0.12523076 -0.04109775 0.07784834 0.018828737 -0.02289699 0.016181078 -0.15473865 -0.075331025 -0.112872094 0.056168873 -0.06345101 -0.13103722 0.057917707 -0.0419906 0.06253543 0.045408256 0.040761705 0.04021341 0.043025684 -0.010775463 0.1768791 0.042455696 0.041901663 0.0744976 -0.052097254 -0.014269793
NGA 0.03732203 0.07973369 -0.07353382 0.04113253 0.0037393116 -0.046467505 0.080321535 0.17454623 -0.08735769 -0.0540004 -0.028187038 -0.15083952 0.030742478 0.07220601 0.028225916 -0.043253284 0.052941363 -0.01067622 -0.011538145 -0.18823 0.11150242 0.01360224 0.06782257 -0.042689506 -0.015410869 -0.031679925 -0.08283872 -0.0094989035 -0.08693721 0.0013802208 0.1180913 -0.08191808 0.15128598 -0.1452307 -0.043083575 0.101610474 0.019192208 0.12086857 -0.07431665 -0.019205641 -0.032244112 -0.033297837 -0.029428791 0.09269947 0.07205224 -0.059675585 -0.03141502 -0.12855479 0.07570112 0.08882987 0.04660896 -0.03388021 -0.11218207 -0.07637872 0.07868142 -0.07671123 0.067615 -0.0649547 -0.024813488 -0.018418387 -0.035213575 -0.03640435 0.053585 0.02339324 -0.092992 0.132823 0.007561123 0.05903448 -0.13681549 0.06673976 -0.02947936 0.040449876 0.104653575 0.030856578 0.14361937 -0.04796325 0.09333903 0.017547742 -0.035946015 -0.008222937 -0.15396783 -0.06822164 -0.13712591 0.08557272 -0.057854082 -0.13368146 0.03248798 -0.0275425 0.07186968 0.06682914 0.005161461 0.018643267 0.07855678 0.0009349483 0.17555098 0.039247334 0.031118393 0.10768087 -0.029425053 -0.010015386
NCG 0.039619118 0.072663665 -0.072442494 0.050892714 0.026158888 -0.04108888 0.07906641 0.15017979 -0.07550573 -0.04921699 -0.0053485534 -0.13999426 0.04368541 0.048540287 0.034229342 -0.013761339 0.034763727 0.012773448 0.014849365 -0.18162622 0.123523444 0.0062794248 0.074274264 -0.038432393 -0.0010889275 0.010457026 -0.046233505 0.039223917 -0.04856891 0.008963032 0.09194709 -0.09340218 0.089552425 -0.10604458 -0.00049277203 0.08048557 0.027846603 0.09100586 -0.052162223 -0.025607904 -0.019224212 -0.07594475 -0.026372727 0.0850964 0.0888652 -0.03658514 -0.06459329 -0.09172448 0.041701734 0.050163716 0.044998948 -0.022214234 -0.062738806 -0.0762952 0.033109043 -0.050798565 0.040962532 -0.07239478 -0.03045803 -0.024076967 -0.014260066 -0.029782677 0.03699889 0.018767057 -0.09180113 0.10514644 0.02546038 0.10837535 -0.07135357 0.03127919 -0.017303413 0.017609935 0.07228765 0.051698487 0.08035452 -0.033119876 0.0791949 0.010038659 -0.016268823 0.030676814 -0.11071559 -0.063800655 -0.08174887 0.025266385 -0.011043327 -0.09393351 0.003076659 -0.04654085 0.040619772 0.009017378 0.0035471846 0.024520895 0.050367944 -0.010988833 0.156075 0.03632894 0.04408396 0.041225795 -0.045628753 0.020812407
TNC 0.03408955 0.06843683 -0.053226 0.064813875 0.0039580553 -0.012673713 0.063671 0.15150447 -0.082123876 -0.027864655 -0.023030128 -0.15598401 0.02810549 0.060380504 0.025351329 -0.015427074 0.025889616 0.011402211 0.006895506 -0.20279865 0.11026289 0.020859204 0.056223843 -0.018865786 -0.027679369 0.00066342676 -0.05325578 0.019393109 -0.07188645 0.028045733 0.09158298 -0.098643236 0.106443755 -0.12285213 -0.019063646 0.076570645 0.035718348 0.10276337 -0.045460023 -0.02404385 -0.0028891303 -0.062599935 -0.04715411 0.10474467 0.077522874 -0.037920047 -0.06693533 -0.09332224 0.07188847 0.06273405 0.028502062 -0.024699137 -0.04262206 -0.086552985 0.052738737 -0.054774884 0.047451336 -0.07943291 -0.020914128 -0.021675466 -0.028743543 -0.023883842 0.030036926 0.018602408 -0.09650176 0.100335956 0.02745717 0.10643846 -0.087242715 0.035061 -0.01590989 0.0197649 0.06740355 0.015623756 0.08676165 -0.038537182 0.1009363 0.017517641 -0.005785611 0.014106787 -0.12513928 -0.069164254 -0.10153592 0.0510538 -0.036825348 -0.114240356 -0.0009065823 -0.035002653 0.048314337 0.03343867 -0.010149969 0.031621587 0.05504643 -5.8479956e-05 0.16282639 0.03845496 0.031060828 0.074730225 -0.021501409 0.02661786
AAS 0.038835164 0.083719224 -0.06977538 0.064421736 0.01262 -0.027229642 0.08099394 0.15783557 -0.07996633 -0.044250075 -0.00880626 -0.14754818 0.042571444 0.05450265 0.025219116 -0.025810435 0.039305516 0.0039464743 0.011007521 -0.2052659 0.08866607 0.023878153 0.05486722 -0.021794269 -0.016359651 -0.007544543 -0.059070818 0.008455838 -0.08094286 0.026329994 0.09793871 -0.08486359 0.11703585 -0.13249865 -0.03248133 0.07757211 0.015529793 0.09081721 -0.04763501 -0.037433814 -0.011341915 -0.067021385 -0.030674206 0.08923224 0.06967345 -0.046364438 -0.0407717 -0.10495113 0.057640444 0.06794915 0.027783064 -0.032754093 -0.06591698 -0.06334043 0.050920244 -0.06797048 0.04205813 -0.07143394 -0.03691995 -0.01477079 -0.0024762573 -0.03839784 0.048605707 0.035242774 -0.08061041 0.10559735 0.022852007 0.0874227 -0.10982063 0.051029593 -0.0038609253 0.03269092 0.091582246 0.014380276 0.10740527 -0.020902652 0.063486114 0.019956285 -0.01670889 0.010873726 -0.11743243 -0.064630836 -0.111839004 0.045490086 -0.044714876 -0.110284835 0.0047235135 -0.020466836 0.06319872 0.041714605 0.020318003 0.032065395 0.055291664 0.000630612 0.16487482 0.042622626 0.027917389 0.07221323 -0.03740884 0.008370872
NGC 0.037162118 0.06697983 -0.052332055 0.047699172 0.021718157 -0.023173954 0.073448546 0.12649149 -0.07746439 -0.04467138 -0.00054746633 -0.12684809 0.043265384 0.057686 0.022440657 -0.016716715 0.0331991 0.008305002 -0.0045634164 -0.1665132 0.0877667 0.011693516 0.07008057 -0.019467775 -0.020801399 0.008892036 -0.042080835 0.007201618 -0.0752627 0.02202726 0.08497081 -0.089005895 0.10308173 -0.12107749 -0.014074833 0.08407242 0.011650262 0.08376876 -0.042209778 -0.024353636 -0.0050192904 -0.04654048 -0.0360229 0.07825962 0.079216525 -0.027286375 -0.034075785 -0.078208596 0.053669352 0.035548624 0.037646137 -0.038363602 -0.05467298 -0.05320531 0.027316371 -0.054419443 0.02749822 -0.058917243 -0.014726226 -0.02983691 -0.008116161 -0.03762018 0.03569682 0.036157165 -0.07225759 0.10034608 0.019069646 0.079216786 -0.08825164 0.039921235 -0.014032542 0.042361807 0.07827976 0.023817146 0.08447226 -0.023394674 0.055245113 0.018045617 -0.008270541 -0.0049358974 -0.11114217 -0.05732979 -0.09144085 0.036811467 -0.037677616 -0.09698445 0.02054415 -0.029789656 0.033529725 0.03147978 0.0039103427 0.029208558 0.04444286 0.0010440319 0.14934577 0.030192526 0.030497031 0.04117571 -0.017080486 -0.0016285242
GDG 0.03903977 0.09193581 -0.07135109 0.043351203 0.005598486 -0.0231361 0.07074589 0.1314705 -0.060524873 -0.02041549 -0.03319989 -0.1439642 0.0407876 0.04975552 0.03174033 -0.0188681 0.020560382 0.0029002707 -0.0068893754 -0.17884484 0.11020816 0.016431075 0.057603776 -0.035189502 -0.024828462 0.0021300712 -0.047032245 -0.015285886 -0.07713314 0.019769765 0.10154853 -0.09122308 0.11738865 -0.12511899 -0.03076499 0.09262131 0.016288832 0.10149818 -0.060945153 -0.017291073 -0.027654424 -0.062438283 -0.020917853 0.078616165 0.075118095 -0.045895062 -0.05821287 -0.078582205 0.046575658 0.055588692 0.052438367 -0.025496684 -0.066003256 -0.08830769 0.038049463 -0.06892184 0.06771716 -0.07999934 -0.0436631 -0.0251321 0.003155781 -0.02828536 0.042877723 0.02851721 -0.06505595 0.09465845 0.024625294 0.09303766 -0.112971306 0.026602423 -0.018137468 0.028411169 0.060972992 0.02698523 0.11057608 -0.02848325 0.07215348 0.021446865 0.0027682735 0.029944442 -0.12161246 -0.07200137 -0.10608834 0.049550135 -0.034421224 -0.11764473 0.0140211675 -0.037572216 0.04858916 0.040868 0.023289667 0.04004547 0.06198504 -0.02941918 0.15020339 0.0423097 0.007539294 0.06740208 -0.0321038 0.008451892
SAG 0.03481605 0.058697842 -0.050338004 0.05527254 0.025099818 -0.015159405 0.055195827 0.13932657 -0.08343996 -0.04174011 -0.02827 -0.14366251 0.03325419 0.051235024 0.02272112 -0.033208933 0.027204761 0.007003335 0.02580387 -0.17472067 0.09539612 0.010531996 0.07189389 -0.032586806 -0.010994836 -2.0138803e-05 -0.052453246 0.0143824825 -0.0832975 0.014973178 0.07864375 -0.06808763 0.10420664 -0.10787393 -0.016378678 0.06801824 0.0060148453 0.073570974 -0.05305183 -0.027816728 -0.009238349 -0.05759176 -0.040642627 0.0732791 0.061299473 -0.043439146 -0.027437655 -0.094016105 0.06510403 0.0591231 0.0332449 -0.038185105 -0.035118606 -0.06155574 0.04354022 -0.06200134 0.03231852 -0.059623864 -0.016942007 -0.009066914 -0.0051606987 -0.016893003 0.041724257 0.021014234 -0.084277466 0.08373378 0.014765916 0.09264525 -0.10088273 0.052307617 0.00031369284 0.02743144 0.07902031 0.020325903 0.09310608 -0.025361827 0.06691279 0.026814139 -0.0111210495 -0.003039232 -0.11005484 -0.0616187 -0.11134904 0.05358679 -0.045854136 -0.099606276 0.01870718 -0.036489226 0.05094466 0.03744957 0.013043379 0.027792167 0.048106868 0.0072156596 0.14521967 0.03674837 0.025733769 0.053063378 -0.023981081 0.0022306573
ASA 0.01760397 0.056138303 -0.06962347 0.049584456 0.0033153456 -0.015226247 0.07599514 0.13896957 -0.0628388 -0.026099205 -0.014118577 -0.12539442 0.035003513 0.05034869 0.015467602 -0.034648187 0.044171084 0.007881956 0.023730198 -0.18162557 0.091860145 0.02287397 0.040584005 -0.014758938 -0.027586328 -0.0089780055 -0.07105135 0.0028381404 -0.0754924 0.007391931 0.07769264 -0.07296064 0.100952186 -0.106963724 -0.014883586 0.07087007 0.019810569 0.07854411 -0.042518944 -0.018746464 -0.020989256 -0.048257995 -0.04584675 0.08949376 0.063766345 -0.037904624 -0.031193312 -0.08738594 0.073446356 0.063614056 0.031667367 -0.026655117 -0.0477601 -0.054930314 0.040650215 -0.053117298 0.045262825 -0.0570911 -0.013618126 -0.004576131 -0.017546251 -0.0287028 0.03477201 0.019389175 -0.08535092 0.10339904 0.0016306431 0.0827856 -0.10475519 0.03654582 -0.012033729 0.039971028 0.09174276 0.016905587 0.10128287 -0.037751872 0.06807048 0.028064575 -0.019026041 -0.0011810444 -0.12790166 -0.05282655 -0.09765117 0.06203279 -0.034700222 -0.10089443 0.0083276015 -0.030584475 0.055601064 0.042361006 0.005983381 0.025019996 0.05886281 0.0054697264 0.14905958 0.037434272 0.04275628 0.07942228 -0.016166471 0.005348511
NCT 0.041971143 0.06963988 -0.057428595 0.04452085 0.01338432 -0.027529072 0.07692429 0.14450203 -0.08372022 -0.044507705 -0.026584897 -0.14205153 0.046974216 0.062090922 0.0269321 -0.031323776 0.028842656 0.009105597 0.004364539 -0.17515771 0.11474749 0.0027807131 0.06774361 -0.031294554 -0.008185827 -0.01654376 -0.055765167 -0.010746543 -0.06501056 0.0064478037 0.088192396 -0.061473846 0.12074055 -0.12357462 -0.011463189 0.08843354 0.021640917 0.10029049 -0.07445777 -0.036162682 -0.02196035 -0.048315987 -0.02991984 0.09071413 0.06642602 -0.047075056 -0.046615902 -0.09740476 0.052022614 0.05423969 0.05008016 -0.028988251 -0.07708469 -0.062410466 0.03174833 -0.076472044 0.03334821 -0.072723545 -0.037521724 -0.010945498 -0.021904252 -0.01913275 0.05010899 0.023154879 -0.08941433 0.09657989 0.014692324 0.08955558 -0.10853186 0.052433822 -0.024327474 0.050694358 0.078690946 0.02715584 0.108864866 -0.038452804 0.08104746 0.003506446 -0.019159554 0.017411595 -0.11932623 -0.054614812 -0.106181644 0.04915081 -0.043558367 -0.11234801 0.033428743 -0.025860926 0.057051837 0.047986407 0.006452578 0.03433517 0.048373476 0.0029200707 0.1397933 0.04100632 0.031224033 0.07081021 -0.031246118 0.0047859973
RTC 0.018863393 0.066852875 -0.065010436 0.045286648 0.0140383085 -0.026136475 0.07918351 0.13278125 -0.07537351 -0.021916742 -0.027142772 -0.14608732 0.03544166 0.052068707 0.015164097 -0.039207455 0.037650168 -0.0029084096 0.0022369425 -0.18018422 0.1121902 0.025732936 0.047111288 -0.03562687 -0.018674307 -0.019835677 -0.055519056 -0.0031681154 -0.08203659 0.0019769561 0.09134805 -0.06103093 0.10781446 -0.11951956 -0.028955774 0.08133074 -0.0017432891 0.09890438 -0.042359598 -0.03375336 -0.011533664 -0.046247926 -0.020954497 0.09070284 0.0643956 -0.04709715 -0.0442196 -0.094558984 0.06795909 0.05041927 0.0473195 -0.034293067 -0.045995243 -0.060256455 0.037054144 -0.05807412 0.033701867 -0.064623326 -0.032546666 -0.011143411 -0.0085036475 -0.019521017 0.03715805 0.010557596 -0.08028944 0.08756813 0.008471316 0.088220514 -0.09400033 0.035959747 -0.010882889 0.03694427 0.07371081 0.022116045 0.1145363 -0.023475237 0.07440549 0.030466987 -0.020195719 -0.0073352023 -0.12315728 -0.04801245 -0.1070492 0.04299582 -0.042208537 -0.102754 0.022687977 -0.029909616 0.055499103 0.030191226 0.021609498 0.033331793 0.052836016 -0.012031642 0.14396502 0.035768624 0.032170214 0.078695714 -0.020046467 0.018159056
