97 100
CTG -0.108092956 0.051536184 0.023230506 0.07217016 -0.016400646 -0.25210685 0.2463405 0.26335046 -0.3451312 -0.10384742 0.06668008 -0.20122035 0.045513242 0.2408109 0.04347623 -0.09485503 0.24402477 -0.0543906 -0.14692473 -0.4619843 0.16989048 -0.025124881 0.15007932 -0.06875601 0.009193849 -0.014550162 -0.06558431 0.12353337 -0.11698507 0.08157702 0.043822464 -0.07502698 0.06997792 -0.36877647 -0.07674639 -0.0801843 0.045996357 0.10892428 0.113541506 -0.16633204 -0.09043553 -0.07388709 -0.046658713 0.02718012 0.15353803 -0.07707322 -0.18446133 0.15680821 0.12969504 0.16661876 0.052590214 0.10566433 0.028132735 -0.1422317 0.16958615 -0.21450795 0.3029753 0.032540154 -0.05736031 0.0138029475 -0.10621467 -0.14585418 0.013403907 0.015937813 -0.032662574 0.11562649 0.13757025 0.13701878 -0.12797327 -0.06476887 0.0045339665 0.029398022 0.03725215 -0.06614555 0.11056632 -0.016262094 0.116615415 0.07933354 -0.1400448 0.018032622 -0.0623871 -0.013905748 0.19244874 0.002703681 0.09459012 -0.017740969 0.1520392 0.004856266 0.03177592 0.15358108 0.17940584 0.107332885 0.066838756 -0.09361411 0.3353508 0.21596153 -0.017706633 -0.06565965 0.11528632 0.11642709
CAG -0.05422402 -0.036391627 0.12915851 0.32983232 0.018344823 0.027390964 0.052665807 0.1581162 -0.104150124 -0.0998123 -0.036503714 -0.35235888 0.077081956 0.17154685 0.03116113 0.041648485 0.10019214 0.040660307 -0.02538861 -0.23665316 0.2694413 0.066692196 0.08495493 -0.1732666 0.10928217 0.0017471694 -0.06830995 0.040266316 -0.13912052 0.1591427 0.21390918 0.009964914 0.14169453 -0.20327717 -0.09226856 0.24003762 0.06685732 0.2135213 0.033945423 0.08216421 0.21638156 -0.17142344 0.008317079 0.16871038 0.053543463 0.08480874 0.020500956 -0.24055542 0.18087767 0.07254595 0.09810565 -0.0671543 -0.0930511 -0.10535794 -0.013707378 0.032847535 0.024413934 0.21834604 -0.030519808 0.14928171 -0.15835379 0.1153511 0.074401684 -0.10655075 -0.03438002 0.11274774 0.029256258 -0.047183543 0.053540174 0.07330965 0.025389556 -0.031239443 0.08263397 0.030533519 0.12007215 -0.12735535 0.06174387 0.005901312 0.20025165 -0.05193027 -0.29118434 -0.12725216 -0.14186716 -0.0042574466 0.012192511 -0.16705622 0.013923066 -0.10903263 0.29164442 0.06635961 -0.15431592 0.033397343 0.1988811 0.00040409883 0.11056773 0.04247643 0.074870154 0.078002095 -0.07425917 0.12843907
CCC -0.09397202 0.20860367 -0.05347308 0.1644705 0.039473113 0.11491035 0.09176159 0.097635314 -0.0066064154 0.09256657 0.032701433 -0.27032554 0.17064002 -0.04792691 0.039965194 0.041544393 0.29236984 0.15566546 -0.1641295 -0.30105644 0.17182861 -0.0135431215 0.067661345 -0.0025961332 -0.026521666 0.2521082 -0.020477539 0.03864702 -0.13857938 0.068981394 0.095931396 -0.28806123 -0.02475826 -0.28978455 -0.10516397 0.056214318 0.2462437 0.07531326 -0.14539139 0.16942723 -0.109500565 -0.081598565 0.00953167 0.20504802 0.25854093 -0.013311039 0.0323044 0.013772824 0.034935318 -0.038709607 0.1504291 0.012386953 -0.101001106 -0.12415164 -0.22504938 -0.04748434 0.20245028 -0.11075461 -0.08748859 -0.10255306 0.0046511088 -0.17723596 0.20297246 0.1321507 -0.044001937 0.08851903 0.015794553 0.23411117 0.06191112 -0.0036115863 -0.0051965015 -0.06421803 0.081782416 0.15661304 0.037484046 0.09682874 0.038843956 0.23686129 0.06444903 0.07993282 -0.23793386 -0.21160023 0.07957739 -0.17471714 -0.0549734 -0.16726094 -0.026303183 -0.20762613 0.04791924 -0.052317813 0.014489973 0.20196061 0.22481903 -0.2127812 0.42824915 0.00719136 0.041614357 0.15631087 -0.13258082 0.07120977
CCT -0.013661318 0.26104587 -0.17987773 0.2197086 0.15989333 0.017891495 0.14192061 0.256548 -0.10520103 -0.103158444 0.12527418 -0.24755242 0.18877782 -0.012427292 0.22060084 -0.11720977 0.13356137 0.0037626878 -0.03372253 -0.18527776 0.24490075 -0.10602497 0.27093711 -0.009421654 0.12866437 0.13490161 -0.015599453 0.2070355 -0.05543953 -0.029976366 0.1046794 -0.27170902 -0.011755943 -0.1724389 0.015869029 0.15174614 0.069131725 0.031633396 -0.18321009 -0.013983951 -0.15639763 0.02699621 0.08493188 0.0155760385 0.03959732 0.015919806 0.021109825 0.0010580216 -0.07622827 0.03878939 0.15803115 0.024388073 -0.21339601 -0.08408323 -0.07099283 -0.13453601 0.07586533 0.021040345 0.041520916 -0.024683164 -0.04851945 0.07733031 0.28277957 -0.0013259071 -0.19349487 0.0005249424 0.099849075 0.28013483 -0.05613311 0.095897056 0.15771669 0.013443122 0.038755104 0.1934866 0.071053796 -0.13892426 0.0015777944 0.1726451 -0.031286042 -0.09404337 -0.24532337 0.04728824 -0.041293867 -0.040554713 -0.034342013 -0.15545785 -0.047161195 -0.12995969 -0.042300116 0.00011658418 -0.1222021 0.027985122 0.10045631 -0.13221976 0.43974957 0.009403246 0.052763604 -0.091075435 0.03483844 -0.12760285
AGG -0.20051067 0.039876405 0.015943693 0.24345553 0.08260271 0.027133426 0.025707923 0.19128683 -0.25826192 0.07825432 0.011978771 0.04792814 -0.062582284 0.22248617 -0.19521849 -0.038798228 0.033183556 0.096407786 -0.0068171034 -0.2560047 -0.027975157 -0.07924668 0.16143893 0.12911311 -0.16044521 -0.16052544 -0.13122097 0.110335216 -0.2582916 -0.01276414 0.07442155 0.021110134 0.085184224 -0.1682174 -0.09356617 -0.08083551 -0.034315463 0.06140168 0.042597122 0.013377726 0.19530164 -0.10102271 -0.24071859 0.19126067 0.052789275 -0.07416474 0.10658413 -0.101485826 0.21667784 -0.0027629107 -0.1173949 -0.0142260175 0.051654927 -0.05309683 0.047570452 -0.13239819 -0.0611975 -0.16152084 -0.075794496 -0.11697972 0.041941814 -0.044756353 0.07760443 -0.017479582 -0.2600772 0.23744817 0.08155019 0.19738464 -0.15700859 0.083542906 0.023331435 0.121815525 0.14354552 -0.051108822 0.20811191 -0.09003992 0.0028545856 0.14054824 0.1994219 -0.29652086 -0.3193276 -0.15887332 -0.109794915 0.17539951 -0.12835744 -0.23980473 0.11912911 0.08706676 0.16609353 0.07216843 0.053819895 -0.120696776 0.18715361 -0.03504118 0.24616177 -0.0423045 0.08399874 0.18994394 -0.051185835 0.1292325
CTC -0.05629839 0.20135933 0.011483616 0.07673067 -0.0015374724 -0.06278334 0.10413256 0.22607404 -0.2689495 -0.11635821 0.073285565 -0.18549247 0.21619353 0.08549381 0.08111616 -0.028412757 0.14354655 -0.025081078 -0.014714964 -0.27693966 0.21825749 -0.009352595 0.19189613 -0.0046333238 0.049316928 -0.01705881 -0.08145055 0.061754078 0.0034144777 0.17053473 0.18161248 -0.21881223 0.08073009 -0.4145385 0.022486411 0.24211155 0.2906697 0.22152132 -0.047105882 -0.0348661 0.0044997754 -0.060753655 -0.124967486 0.023442617 -0.02617914 -0.0018039971 -0.12763211 0.06296492 0.03808313 -0.049125154 0.14368157 -0.15138811 -0.16347024 -0.16088644 -0.049052812 -0.111467615 0.26505888 -0.021807581 -0.14843065 -0.17170253 -0.012311874 -0.1243343 0.15985984 0.004422723 -0.09040873 0.18695328 0.12938799 0.07908558 -0.047725465 -0.07789268 0.0059297783 0.044005513 0.06976871 0.12893584 -0.085232176 -0.040057946 0.02117325 -0.008050315 -0.009788372 0.29810303 -0.16035396 -0.22737485 0.15421721 -0.19442773 -0.0941147 -0.17020471 0.008773212 -0.027860034 0.06738487 0.10032588 0.26579142 0.2266055 -0.12892787 0.033985753 0.19917728 0.06820394 -0.04735275 0.011257012 -0.15377666 0.032050993
TGG 0.22488213 -0.07065461 0.07250291 0.21985166 -0.10312058 0.0077935713 0.18338715 0.25843334 -0.20260575 -0.1564879 0.054214224 -0.054305248 0.050867073 0.36928654 0.02678509 -0.00097082055 0.10602597 0.16534236 0.022591036 -0.3579543 0.11104483 -0.06637912 0.17057805 0.06787857 -0.04870382 0.059665702 -0.08234939 0.048260428 -0.18094312 0.0018732904 0.097860865 0.07160911 0.110985905 -0.09300494 -0.054754745 -0.05937393 -0.05460937 0.0905446 -0.045967046 -0.011138617 0.23958611 -0.033154104 -0.034945272 -0.048032347 0.113350496 -0.08622418 -0.16537821 -0.05553153 0.07885943 0.033702154 -0.1318071 -0.13979964 -0.0869069 -0.06368814 -0.10212014 -0.10949548 -0.11935614 -0.18044874 -0.028921409 -0.13073221 -0.038142502 0.0071866713 0.061863866 0.09484025 -0.24716201 0.3243463 -0.04578744 0.08580019 -0.11998996 -0.045029983 0.031429958 0.16979483 0.0071107866 0.022030093 0.33570558 -0.0072694295 0.15669623 0.12370601 -0.028555544 -0.07339263 -0.13428049 -0.254981 -0.21401554 0.2110627 -0.17916307 -0.11836343 0.25450122 -0.049260754 -0.12139748 0.08856092 -0.17065282 -0.06860166 -0.015447634 0.09168911 0.12568244 0.056667093 0.20251189 -0.10708838 0.0018868665 0.17466639
GGG 0.2049211 -0.08548515 0.13247788 0.12951048 0.045525957 0.14020407 0.026265059 0.14562745 -0.2041217 -0.12475419 0.08682609 -0.0023931845 -0.066777684 0.14600524 -0.15949386 0.057228964 0.029247746 0.15272501 -0.14184782 -0.56532 0.0073147276 0.04680707 0.07535869 0.037414387 -0.10260217 0.07225371 -0.11739896 0.13620767 -0.16780095 0.12124754 0.0060777273 -0.14409831 0.0006807392 -0.23271409 0.0060816356 -0.051778525 -0.1139733 -0.06193951 0.052045867 -0.18662569 0.19765514 -0.22350854 -0.14629544 0.17401765 0.20798019 -0.2674805 -0.12196611 -0.25046456 0.15226641 0.13148645 -0.18636404 -0.18096644 0.04354768 -0.08336135 -0.006599254 -0.04741034 -0.15142225 -0.075748965 -0.034620553 -0.027549412 0.045261648 0.035473473 0.09111304 0.07979195 -0.22900708 0.23894164 0.029606093 0.3185015 -0.12411154 -0.08937315 0.06840775 0.16023943 0.062237963 -0.064021565 -0.022997469 -0.12688926 0.08940948 0.027678408 0.059918556 -0.1790971 -0.19930722 -0.18472819 -0.2893181 0.23005104 -0.05539906 -0.10611474 0.06985019 -0.049843937 -0.023298811 0.107043594 -0.116108395 -0.09059087 0.10036155 0.06270264 0.24656004 0.08722456 0.1425014 0.0051839617 -0.049099557 0.08162953
CCA -0.10898333 0.12833264 -0.095820524 0.22797763 0.10237551 0.22429675 0.058078818 0.011902857 0.047353916 0.22284043 0.030416993 -0.2073958 0.24548736 0.022612229 0.040402208 -0.08533254 0.16473632 -0.0049990555 -0.19628304 -0.10988422 0.21459799 0.16957274 0.12788983 0.07982406 0.06094601 0.16541849 0.021581516 -0.025978208 -0.1873188 0.031687558 0.045254778 -0.22410582 0.06965725 -0.16511904 -0.042691015 0.1919837 0.06344872 0.051336627 -0.07528024 0.09279805 -0.17852324 -0.022666167 -0.0156745 0.056985993 0.16487736 0.059501257 -0.04654437 -0.057568915 0.030051416 -0.06260244 0.07630425 -0.106807105 -0.14353624 -0.1844521 0.09214272 -0.16070502 0.1222229 -0.032193538 0.075023994 -0.058332145 -0.15517913 -0.24880809 0.19109705 0.06332629 -0.15842356 0.049912926 -0.0670788 0.19383259 -0.16236737 0.166806 0.052950807 0.039514687 0.08463618 0.050301906 0.002247386 -0.10521943 0.045386482 0.043761373 -0.02617849 0.010828717 -0.3383901 -0.18234012 0.0064115906 -0.023108535 -0.057270903 -0.16102336 -0.0018547267 -0.15870902 0.07709309 0.07360368 -0.19084479 0.11043773 0.30783007 -0.20925474 0.33116627 0.110313505 0.11886403 0.18115546 -0.08078611 0.07267686
GAG 0.049213734 -0.015096437 -0.12676194 0.3515223 -0.11677157 0.05012088 0.11763423 0.41222575 -0.02254388 -0.056029506 -0.020258268 -0.30143413 -0.055654686 0.19186229 -0.11704824 0.13182059 0.035617355 0.068070404 -0.031055182 -0.3976679 0.099592015 0.10866923 -0.17395076 0.041986436 0.010664452 -0.031036176 -0.15909117 0.06269186 -0.14392851 0.0016927366 0.083378516 0.028692294 0.20245753 -0.06309892 -0.15783243 0.121243596 0.11864649 0.089897186 -0.005854037 0.08396771 0.16760066 -0.0029656007 -0.09583415 0.049565192 0.066183835 -0.111762665 -0.01372146 -0.0377855 0.17094988 0.146494 -0.13998975 -0.061941084 -0.03229835 -0.07001071 0.16129997 -0.16268665 -0.08538895 -0.18752089 0.13573614 0.16060974 -0.07446895 0.05162064 0.25592184 -0.07830077 -0.23050493 0.053960714 0.091113776 0.08262389 -0.14680485 -0.12862943 0.12567075 -0.06031782 0.007109054 -0.17917113 0.14779632 -0.09307641 0.06981402 -0.028993757 0.10801391 -0.21705867 -0.09303421 -0.082939506 -0.12699102 0.19016367 -0.00040730476 -0.16665189 0.009495034 0.028933603 0.07031407 0.18635638 -0.37213528 0.05844766 0.2526468 0.07826166 0.22933158 -0.07510333 -0.014681147 0.19899197 0.17275503 0.22523704
TTT 0.042945225 0.14352532 -0.06905273 -0.117224105 -0.040623765 -0.25426072 -0.04223982 0.2702863 -0.05281501 -0.08789488 0.039310344 -0.248308 0.10468073 -0.06305422 0.12586121 -0.0053093713 0.04650763 -0.15447317 0.14550479 -0.2348016 0.048799403 -0.007848732 0.3958481 -0.27066246 0.16064502 0.021960665 -0.17594424 -0.16164614 0.027215064 -0.09527755 0.22215642 0.034565978 0.47373912 -0.15150574 -0.038698755 0.23175925 -0.024709444 0.016394917 -0.44457734 -0.06565845 -0.1643358 -0.0006539966 -0.14181186 0.16458435 -0.16225605 -0.1531932 0.087834306 -0.2956364 -0.31111535 0.09522783 0.14819884 -0.07119388 -0.37222376 0.17347673 -0.02464011 -0.18127416 -0.03071694 -0.14820503 -0.055269077 0.0308166 -0.097452044 -0.06554201 0.12579961 0.08825159 -0.17196108 0.21997483 -0.1513743 0.017761743 -0.2117278 0.18183865 -0.061745364 0.32030508 0.15919337 0.23027566 0.2416727 -0.11165807 -0.01142336 -0.12187025 -0.042868 0.16570887 -0.064148195 0.09925371 -0.047103234 0.055785816 -0.17669308 -0.044703312 0.21518868 0.020318449 0.10377963 -0.03498232 0.1526526 0.05045642 0.083461456 0.040953614 0.008702595 0.06319674 0.07122582 0.07868141 -0.09792643 -0.19912882
TCT 0.122705534 0.25588042 -0.19631016 0.11337979 0.12949863 -0.24592735 0.109355144 0.12548944 -0.07547898 -0.15972956 0.042938095 -0.16756195 0.008542396 0.07684836 0.1408356 -0.097606555 0.10123708 -0.030256407 -0.002537261 -0.06597581 0.14091998 -0.04774304 0.32511094 -0.06941161 0.068859555 -0.025927955 -0.22136465 0.028691657 0.080765925 -0.06721078 0.36944976 -0.07796326 0.14058891 -0.2249832 0.009193546 0.0085583925 0.024857467 0.23490307 -0.22015154 -0.20358822 -0.2670277 -0.016000886 0.16789147 -0.037455544 -0.13897197 -0.018341502 -0.13916972 -0.16176735 -0.0020943936 0.10053333 0.16922842 -0.091296054 -0.23176074 -0.11050226 -0.108087525 -0.117372796 0.07211154 0.02148927 -0.13439229 0.00033668047 0.0051847366 0.08706284 0.22258097 0.056024164 -0.18825859 0.0044772755 0.051940467 0.13448073 -0.21714178 0.038971823 -0.024747018 0.09036157 0.008704077 0.23466744 0.18261549 -0.17579405 -0.088448755 0.14881298 -0.11185905 0.026681384 -0.19744286 0.08407326 -0.03711437 0.0140365595 0.007097144 -0.24199344 0.105980836 0.0037141677 0.0752275 -0.06581446 0.14490683 0.034726046 0.021937223 0.005515736 0.26080436 -0.022013012 0.09407446 -0.09880672 -0.2933406 -0.04110769
GGA 0.057191048 0.042563368 0.17841667 0.08821517 0.022020431 0.13455898 0.0025401318 0.2336044 0.11050897 -0.08713846 -0.085127205 -0.11210679 -0.14204174 0.046088044 -0.16627401 -0.2876913 -0.055839118 0.06848018 -0.06238881 -0.43557313 0.0035253495 0.18984142 -0.08523112 0.08754392 -0.070584565 -0.028000748 -0.15066937 0.18605518 -0.23803571 0.12330756 -0.027954362 -0.27297485 0.10524529 -0.17588463 -0.086982325 0.014987588 -0.040174935 0.019134514 -0.004227223 -0.11673101 -0.00016369022 -0.11482862 -0.2435726 0.17526878 0.0712507 -0.25166208 -0.047281746 -0.26841903 0.17429264 0.2591663 0.06975613 -0.18531117 0.036133885 -0.14846686 -0.005462222 0.11108264 0.08032094 0.01866633 -0.019629728 0.18534388 -0.052018534 0.08408669 0.15363126 -0.044413146 -0.017325828 0.045167953 0.15583205 0.22263886 -0.15439506 0.039072577 0.25169984 0.07644884 0.13784212 -0.14056382 0.12398903 0.0723102 0.15437484 -0.08593791 -0.079568855 -0.15064245 -0.2927437 -0.041906778 -0.2758227 0.24364546 -0.114698745 0.006340034 0.08588263 -0.15604188 0.029487023 0.33151048 0.06549051 -0.021166768 0.16407347 -0.03944931 0.0915057 0.09190156 0.20909578 0.16829255 0.024638081 0.02701495
TCC 0.0724888 0.26320776 -0.07280359 0.055282142 0.052674655 -0.14629883 0.070437334 0.025427433 0.07638118 -0.027615225 -0.05230207 -0.16900088 -0.11576684 -0.044458073 0.023882251 0.12841211 0.14833766 0.056830905 0.02284831 -0.26708075 0.19263141 0.016313244 0.16620229 0.020900272 -0.012157047 0.15945141 -0.18300459 -0.04007304 -0.049930494 0.035595488 0.34581944 -0.07871973 0.16337158 -0.27928084 -0.071641415 -0.09207668 0.24157658 0.3117023 -0.22266278 0.03227375 -0.20942116 -0.07094096 0.015676782 0.087124914 0.022693397 -0.019139782 -0.098862596 -0.024270505 0.049902655 0.08483181 0.15806143 -0.018679166 -0.19336043 -0.14786898 -0.23185636 0.00017977763 0.18439205 -0.14453518 -0.24553466 0.066721305 0.025443656 -0.014028085 0.21290118 0.124129094 0.02599079 0.03967718 0.12140153 0.13703525 0.018549621 -0.12765448 -0.08755066 -0.03460287 0.0025244541 0.15313697 0.23180392 0.025864378 0.054036655 0.093889356 0.042908184 0.10989014 -0.118312545 -0.17773992 0.015136393 -0.0512338 -0.044029173 -0.18771312 0.12110509 -0.06945558 0.10946194 -0.08580112 0.21171848 0.23167372 0.18639761 -0.040918794 0.24480052 -0.012511738 0.15491423 0.14533503 -0.35036027 0.12635766
GCC 0.15590967 0.098784536 -0.08445212 -0.10689073 0.14012624 0.07577193 0.09275975 0.1960825 -0.02600899 -0.078475975 -0.0033612435 -0.26588023 -0.09833218 -0.056039568 0.02364109 0.100398876 0.1792504 0.11613772 0.09612794 -0.3670867 0.17502478 -0.13984591 -0.14269033 -0.010912706 -0.083662234 0.09159243 -0.0045875846 0.14214046 -0.12740178 -0.021695897 -0.057818115 -0.16019851 0.027361652 -0.20156394 -0.018247727 -0.14363705 0.27628952 0.22891153 0.029796755 0.30377424 0.010284302 -0.12939075 -0.036138058 0.2677163 0.21404272 0.0062180515 -0.0014176316 0.16160011 0.10595627 0.05299422 0.06308613 0.0626877 -0.0051937737 -0.07237036 -0.1487262 -0.035055093 0.14902464 -0.091939226 -0.017667057 -0.032624397 -0.044656273 -0.088643245 0.08990002 0.21028873 0.017527364 0.27153814 0.15627404 0.12464349 0.044404585 -0.07969131 -0.04844006 -0.06462851 0.18468824 -0.008731989 0.16882104 0.026652325 0.2856561 0.11363238 0.059902526 0.07798897 -0.28982866 -0.30793864 -0.20794515 0.022332141 -0.07203821 -0.058445673 -0.022194266 -0.06620958 0.084839754 -0.059874713 0.03494985 0.21169616 0.2619135 0.07593934 0.3581925 0.048589874 0.12934063 0.2178729 -0.04034145 0.13446757
AGA -0.19553822 0.22478242 0.0020899395 0.19594923 -0.05915675 0.039261054 0.008754017 0.29842174 0.024272297 0.10706329 -0.1469713 -0.12120768 -0.0075226263 0.11723525 -0.13324888 -0.34251845 0.000748509 -0.005089951 0.070993654 -0.16228868 -0.013837808 0.08748795 0.0018450553 0.039359186 -0.11828078 -0.19939691 -0.20919211 0.09347932 -0.26034114 -0.039529327 0.13468555 -0.14637156 0.16462202 -0.053588387 -0.1658888 0.1169096 0.051119633 0.08908909 -0.12353915 0.046393793 -0.044687945 0.058170177 -0.31315815 0.17408606 -0.055375867 -0.14888646 0.11534338 -0.24565867 0.119645245 0.1323154 0.15118052 -0.0050075557 -0.009515474 -0.036923025 0.04714816 0.06442065 0.099010505 -0.06457555 -0.017708933 0.051599566 -0.12758155 0.007032183 0.067987904 -0.14432316 -0.045074813 0.050347075 0.077445015 0.038445313 -0.13252981 0.1864671 0.12787361 0.092698365 0.14766514 -0.047485787 0.2820864 0.07155093 0.08137923 -0.012373226 0.04489746 -0.15699998 -0.3797546 0.02303294 -0.061575823 0.16951342 -0.18944697 -0.11868509 0.09961925 -0.08238005 0.14760906 0.3788742 0.089056395 -0.08218439 0.1795943 -0.20706093 0.06207942 -0.030312631 0.14203689 0.3625228 0.09867319 -0.0001486539
GGC 0.05378176 -0.12644951 -0.033622727 0.03637403 0.08710596 0.056665007 0.067899615 0.18545085 -0.07100967 -0.14547673 -0.08501458 -0.1497382 -0.072312444 0.039986294 -0.068500765 0.24864198 0.031627808 0.081262246 0.010633407 -0.48445663 0.30983824 0.0794834 0.035223506 -0.14602935 -0.107961126 0.22517146 -0.04999658 0.071655184 -0.074472286 0.14295368 0.15082866 -0.26417708 -0.06726545 -0.17388982 0.02663571 0.13683785 0.045160487 0.034660555 -0.15871567 -0.11111354 0.08640247 -0.20552695 -0.15316555 0.109125525 0.24856186 -0.2002796 -0.19001758 -0.20024173 0.342903 0.16218723 -0.029117323 -0.14448233 0.029849794 -0.00718177 0.080801755 0.13647966 0.027333569 -0.22477105 -0.091501966 0.0023564661 0.060792558 0.018947667 0.1788446 0.10447825 -0.13192138 0.12062542 0.053875923 0.22171347 0.013444526 -0.028633703 0.13722058 -0.008764403 -0.0070101353 -0.053449582 -0.068051025 -0.20581686 0.29070643 -0.047244582 0.009611144 -0.08154187 -0.15122484 -0.09182965 -0.20607433 0.104315504 -0.03644309 -0.18193343 -0.3434055 -0.06472555 -0.07368192 0.032157693 0.087891825 0.10197906 0.096082054 -0.016045878 0.18183747 0.0719422 -0.022715895 0.035668086 0.042104073 0.13797703
GTG 0.043509178 -0.030169558 -0.044524383 0.1062086 0.07683243 -0.07595767 0.24687457 0.12278264 -0.12464621 -0.1597956 -0.096241266 -0.14747332 0.042341992 -0.015720649 0.00075218704 -0.07554069 0.08440702 -0.05784171 0.26262006 -0.3113852 -0.008262934 0.09993017 -0.068892404 -0.052454405 0.011788965 -0.06269886 -0.18178222 0.11729918 -0.2629577 -0.027747713 -0.038320072 0.043004446 0.05441794 -0.22201858 -0.081745505 0.022271376 -0.31835333 0.09485482 0.14234035 -0.21660312 0.03419534 -0.24923019 -0.035569686 0.061422225 0.37184492 -0.21800095 -0.10793632 -0.27080783 0.2637431 0.24229366 -0.0144949965 0.124212064 0.09389111 -0.05348914 0.24198337 -0.25404304 0.057675693 -0.10347942 0.010483333 0.120970614 -0.07072248 -0.013508487 -0.0057266573 0.12240884 -0.061093666 0.17237356 0.047121547 0.20965202 -0.06531343 -0.069722526 0.15868106 0.018781567 0.16743001 -0.03371589 0.3031211 0.11058303 0.11243158 0.05829389 -0.07861552 -0.10987905 -0.089974456 -0.07763043 -0.053146664 0.17549382 0.23156719 -0.094515584 0.2500567 0.09067189 0.10202496 -0.010575529 -0.114657484 0.0834629 0.040338945 0.022050846 0.38831568 0.20564704 0.04072836 -0.09184337 0.17468256 0.031357247
GCT 0.23392071 0.042195186 -0.20053852 -0.096633136 0.27323785 -0.020947505 0.07888828 0.31063905 -0.18717943 -0.25814477 0.035557862 -0.31699237 0.015596 0.10721289 0.12019924 -0.11773347 0.16983543 0.0706382 0.13331363 -0.2899782 0.18929067 -0.22323659 -0.005990985 -0.16216974 0.046279866 -0.033585094 -0.19045877 0.26858088 0.06741969 -0.15182078 -0.07451838 -0.08004398 -0.07223947 -0.1469352 0.073591046 -0.103478715 0.12014515 0.13741429 0.0041576717 0.021671569 -0.049860828 -0.04632675 0.12919867 0.117885455 -0.015886143 -0.06418819 -0.09844109 0.042577498 0.117305495 0.111258775 0.062284414 -0.003946477 -0.008199536 0.019113533 -0.052376978 -0.11561348 0.010284381 0.14421295 0.120681144 -0.03458406 -0.05995162 0.1085805 0.17163935 0.17077817 -0.119389534 0.19961716 0.1362826 0.040273085 -0.1916827 0.065736525 0.09357954 0.057515036 0.13600536 0.062714174 0.065278396 -0.21809036 0.19660525 0.12299373 -0.10875225 0.04108723 -0.46722528 -0.0013731059 -0.28364384 0.08752843 -0.06892147 -0.0694171 -0.00028262555 0.09344337 0.012453326 0.042697366 0.07292548 0.052059997 0.056366995 0.18588369 0.33910176 0.04866349 0.09391356 -0.05744117 0.020665592 0.01733236
AAG -0.056441657 0.16448441 -0.061853006 0.22850531 -0.12879562 0.039479163 0.28186482 0.35725757 -0.0923946 -0.08325201 -0.092461936 -0.21432447 0.007955401 0.062654674 -0.09807165 -0.013705031 0.15182523 -0.050731547 -0.13781673 -0.26516402 -0.084378034 0.13523525 -0.17027307 0.040379684 -0.13856468 -0.14839993 -0.13945399 -0.2503748 -0.16747618 -0.001461124 0.21364306 -0.07247861 0.20779817 -0.108286634 -0.20074336 0.17526995 0.07289531 0.059407126 0.08151436 0.06151745 0.088622354 0.038056772 -0.039075635 0.24258341 0.013754562 -0.08326302 0.07875197 -0.30691263 0.2022173 0.1505913 -0.09638165 -0.12347526 -0.16712587 -0.08269735 0.1559004 0.045218676 0.14612651 0.09714383 0.10891915 0.15173927 -0.05583624 -0.08860525 0.109864354 -0.08456466 -0.0710507 0.20212276 -0.18360126 -0.1610913 -0.2027008 0.041289914 -0.02037357 0.06687401 0.19560167 -0.17431724 0.16133821 -0.099977165 0.015252428 0.07454352 0.1405224 -0.20142032 -0.24857016 -0.025550904 -0.16445434 0.14306547 0.026571466 -0.18712063 0.064079486 -0.0018294721 0.23194428 -0.0065408126 -0.1271839 -0.059873715 0.17389037 0.14377704 0.031421386 -0.1959323 0.04320819 0.23120558 0.04686996 0.083765976
TGA 0.19962694 0.087438405 0.022626992 0.18119897 -0.23614068 0.059813093 0.16100277 0.27974108 0.08820596 -0.019338273 -0.12773046 -0.20939805 0.045786988 0.25661072 0.08747465 -0.34579808 0.027137017 0.03513374 0.048171364 -0.2684548 0.1484177 0.09094803 -0.0058506643 0.05713958 -0.06345976 0.05057963 -0.17324597 -0.014604103 -0.2515514 0.00085480494 0.059716012 -0.0670214 0.24096605 0.0027084835 -0.1356696 0.06845341 -0.05970542 0.13836989 -0.17711085 0.03031432 -0.03954959 0.0977606 -0.09286867 0.029173965 0.042898297 -0.15594544 -0.13754225 -0.15328516 0.016791238 0.19098686 0.08909457 -0.08494627 -0.037348844 -0.07389677 -0.041462537 0.027981114 0.04200571 -0.089135945 0.03494212 0.090725 -0.15930355 0.0022565965 -0.022250274 -0.026320538 -0.021374447 0.11155605 -0.047209416 -0.014803672 -0.14760001 0.10359522 0.10251172 0.14938127 0.016355576 -0.051986337 0.46535727 0.17749001 0.24756058 0.037992187 -0.13162725 -0.008494153 -0.21565919 -0.066787265 -0.21506728 0.18896624 -0.24811842 0.02955231 0.2513901 -0.1992686 -0.11692315 0.35953477 -0.08839487 -0.049841713 0.02285702 -0.12013587 -0.004523102 0.07843077 0.23755905 0.059414115 0.14968716 0.0804114
CTT 0.03230709 0.23730437 -0.016457621 -0.1504583 -0.120500214 -0.07158984 0.07057773 0.18628892 -0.20544398 0.050735664 0.094927944 -0.20029704 0.17807375 -0.01425347 -0.07217148 -0.14697364 0.23112376 -0.16806869 -0.1566568 -0.49955574 0.21787584 -0.13092974 0.25895703 -0.15516943 0.1413709 -0.094877206 0.047723744 -0.1540669 0.10453574 0.008021786 0.1792361 -0.049846996 0.3393131 -0.26116422 -0.047259036 0.07780247 -0.013590411 0.12782046 -0.12996404 -0.16329755 -0.04733388 0.00331113 -0.03969921 0.14326142 -0.17390305 -0.1360872 -0.045308616 -0.13056251 -0.29830664 0.12658256 0.14701323 0.044532336 -0.31667608 0.021990102 -0.087457694 -0.24694212 0.21083951 -0.049920633 -0.12420771 0.0019905444 -0.016184298 -0.12107894 0.038776834 -0.064736634 -0.09551335 0.14119218 0.060948465 0.094408646 -0.10788003 -0.016475929 -0.07228498 0.20316942 0.07124824 0.1819726 0.12099754 -0.20601562 0.09557767 -0.005105547 -0.093377575 0.22024408 -0.074316435 -0.038884897 0.04974983 -0.015111072 -0.09503641 -0.059511174 0.17293039 -0.03685156 -0.0057188077 0.07137801 0.19717659 0.10329399 0.15140988 0.025510363 0.09853977 0.099930495 -0.031288024 0.0631426 -0.076206096 0.0103127565
TTC 0.035011623 0.20521271 -0.006974644 0.030894415 0.028868387 -0.23439527 0.06853508 0.37179387 -0.0056276117 -0.2956591 -0.01333006 -0.21730208 0.06364349 -0.06316698 0.23495646 0.06419567 -0.10307331 0.056347013 0.20834756 -0.12674081 -0.051090915 0.12470737 0.18885742 -0.0312768 0.1019507 0.06102298 -0.22777362 -0.050011948 -0.09849775 0.123951815 0.18832222 -0.22055086 0.2669058 -0.34159672 -0.0030069093 0.36154094 0.22571555 0.10572194 -0.27792105 0.08915018 -0.06275089 -0.15736224 -0.22595762 0.08919177 0.03927389 -0.09465666 0.020290373 -0.090504944 -0.061328866 -0.012048308 0.13510402 -0.23632798 -0.2162585 -0.019840116 -0.13223848 0.06575701 0.0885857 -0.22744289 -0.041013114 -0.06652153 0.00518 -0.035711665 0.1889925 0.13796838 -0.14482816 0.25564733 -0.025058374 0.14057742 -0.119799875 0.048800625 0.012541541 0.1333862 0.16231698 0.16318633 0.08008312 0.12929827 -0.12518778 -0.07829677 0.053366642 0.28851286 -0.048123933 -0.114979774 0.034872353 -0.062439427 -0.088802755 -0.06783924 0.06191319 -0.043526553 0.13797562 -0.034152683 0.18555857 0.1338524 -0.14556059 0.009528919 0.030049544 0.053200006 0.07337867 -0.017384201 -0.19832717 -0.14079094
TGC 0.15894847 -0.0068123317 -0.13535231 0.122348525 -0.10258065 -0.05327006 0.24028385 0.16655749 -0.11910694 -0.034862295 -0.11779019 -0.17482916 0.16064224 0.16420224 0.12665957 0.16339332 0.17019594 -0.018400395 0.1647231 -0.2907023 0.4139438 0.0429398 0.13150077 -0.13359334 -0.17103602 0.2632995 -0.065583624 -0.019014796 -0.057359498 0.006068677 0.31297576 -0.0739652 -0.029700363 0.06819699 0.0017761921 0.14840436 0.07197416 0.104067475 -0.2925071 -0.026170876 -0.024452535 0.010519706 -0.021853643 -0.06732793 0.17258152 -0.11717079 -0.2900122 -0.14209875 0.19349982 0.05331851 0.043935735 -0.02928299 -0.09464675 0.01092184 0.07418907 0.05910446 0.0883883 -0.2684779 -0.09222771 -0.141845 -0.104135536 -0.09584496 0.012223165 0.092927806 -0.12784651 0.203196 -0.11724762 -0.02532504 -0.020901935 0.009696498 -0.04989698 0.07691586 -0.08975414 0.034615554 0.2678584 -0.044621065 0.365373 0.06253268 -0.10918879 0.07033013 -0.09611496 -0.07890698 -0.030697081 0.09323158 -0.114355594 -0.19786564 -0.11911788 -0.050802927 -0.17579363 0.040480364 0.024606025 0.0813166 -0.047984414 -0.10857343 0.13484342 0.05346063 0.08709872 0.005228519 0.087068066 0.16034442
AAA -0.061320838 0.33165765 -0.08085604 0.017407103 -0.12513936 -0.12460013 0.19490084 0.30603093 -0.11144038 -0.058367938 -0.06644778 0.018665623 0.1427647 0.10183003 -0.06627578 -0.029929789 0.12333982 0.12052949 -0.13421042 -0.15233605 -0.14792682 0.084305614 -0.109619915 -0.08635972 -0.22520442 -0.28007302 -0.059162065 -0.20808941 -0.23073514 -0.14382474 0.37216592 -0.09512171 0.20813403 -0.08153632 -0.0035409203 0.20487148 0.09500121 -0.042513825 0.037996337 -0.121344864 -0.17602795 0.08363998 -0.039107688 -0.02616963 0.15943192 -0.111472294 0.18815787 -0.3638868 0.19961582 0.012679871 0.11797706 0.04120093 -0.38508397 -0.16713604 0.3156262 0.10641373 0.16765393 0.085733235 0.024963172 -0.04222719 -0.0040365565 -0.07121152 -0.024086656 0.016900783 0.0069905655 0.23006667 -0.23952721 -0.20975606 -0.36158437 0.22636119 -0.13662305 -0.062181894 0.31046584 0.06367642 0.1886017 -0.026083263 0.07792143 -0.06233575 -0.16713113 -0.015632858 -0.15146917 -0.054573774 -0.24557763 0.33305907 -0.103153296 -0.19940266 0.060897388 -0.06470217 0.26654264 0.15249948 -0.08430701 -0.14839672 0.10787931 0.08403469 0.0024033762 -0.05754665 0.08246032 0.3692666 -0.014300986 -0.20813139
GAA 0.021107059 0.11195893 -0.087045364 0.08042167 -0.13821891 -0.06731717 -0.057458967 0.35905096 -0.026408583 0.004806863 -0.050152477 -0.09706883 0.082805365 0.24784444 -0.17691869 0.0019062599 0.10886352 0.19464728 -0.013126181 -0.2868273 -0.053767618 0.07060457 -0.21598476 -0.11983742 -0.06481706 -0.23526335 -0.21494852 0.19385816 -0.20829014 -0.12560868 0.1729311 0.01707922 0.16643171 -0.08887496 -0.07194207 0.08984335 0.14799784 0.057270866 -0.06345243 -0.09479364 -0.12829739 0.047367215 -0.15552598 -0.15567307 0.09734804 -0.23595826 0.13279988 -0.116076596 0.18535468 0.034953646 0.023177117 0.0486397 -0.18968917 -0.105792634 0.2261357 -0.17892711 -0.1285821 -0.18430616 -0.00013120171 -0.062547654 -0.0042555123 0.035804905 0.13561814 0.0769986 -0.12644713 0.062467873 0.10391558 -0.054729182 -0.28765145 0.06584612 0.070687406 -0.09476645 0.13328491 -0.029552978 0.18954177 0.03000976 0.031941168 -0.19062003 -0.22512226 -0.021318557 -0.0035206021 -0.13078864 -0.17521112 0.4154385 -0.17150962 -0.17292237 0.023600299 0.030152803 0.14856221 0.3659973 -0.19966078 0.015402517 0.28488892 -0.013873763 0.1021595 0.0023556193 -0.049949653 0.43677795 0.13957283 -0.03742697
AGC -0.24327415 0.018222295 -0.10362072 0.20325924 0.15087564 -0.010296547 0.054924652 0.15772122 -0.19013856 0.1398405 -0.09931571 -0.0969806 0.03356947 0.02848491 -0.08620542 0.11179893 -0.0013843625 -0.059093524 0.18868269 -0.22049992 0.22499895 0.020280853 0.16380897 -0.08187807 -0.2528649 0.014081606 -0.0961085 0.13025953 -0.17932515 0.036216147 0.20805703 -0.122761786 -0.026055751 -0.004736738 0.011854384 0.15714435 0.105366215 0.034983143 -0.14571412 0.0049090073 0.034121808 -0.11798586 -0.27401492 0.1941436 0.07943036 -0.0881364 -0.0008469259 -0.15480551 0.35109535 -0.02400581 0.035629604 0.015608076 0.08792111 0.024749955 0.20791127 0.027911978 0.08203692 -0.17936903 -0.103387974 -0.12563427 -0.059614852 -0.07904941 0.03282796 -0.06396288 -0.21199664 0.1790026 0.064862356 0.10161428 -0.089039214 0.11956775 0.0054442296 0.076558284 0.07779294 -0.060119785 0.09856219 -0.12636301 0.25025517 0.037854176 0.16430944 -0.13754782 -0.32029986 0.04100335 -0.016339377 0.06410387 -0.122051455 -0.29849583 -0.28430852 0.11526185 0.13976176 0.067033894 0.19563435 0.012161465 0.07633693 -0.11205078 0.2322635 -0.046247676 0.04135397 0.23873177 0.05714779 0.082427636
TCA 0.051716287 0.14388956 -0.06800107 0.1350717 0.080921926 -0.08606482 -0.007822182 -0.027132783 0.110880956 0.14803177 -0.039020214 -0.15458594 0.0811518 0.09798044 -0.042345803 -0.050248783 0.099058315 -0.054886807 -0.12507175 -0.06075008 0.08178909 0.285158 0.12754053 0.094361596 0.024670336 0.043574795 -0.2737083 -0.08405006 -0.07150039 0.009967915 0.2830701 0.0074655707 0.18724342 -0.18763687 -0.06554194 0.04509828 0.08182757 0.1901113 -0.1402636 -0.09889895 -0.311775 -0.038447794 -0.0028605377 -0.059957337 -0.06995963 -0.051142875 -0.20048138 -0.16425163 0.040961344 0.009148796 0.06986781 -0.2124102 -0.20999314 -0.21899563 0.053990483 -0.22728933 0.11050053 -0.05896256 -0.06640678 0.002667788 -0.11515264 -0.19566983 0.22161931 0.09890617 -0.18673961 0.038900983 -0.06658681 0.04966446 -0.33678818 0.028320795 -0.09278437 0.16871451 -0.011821812 0.028870171 0.1319591 -0.11079507 -0.10067128 -0.03579818 -0.12558112 0.13818221 -0.21506916 -0.09515343 0.042539924 0.12937637 -0.02911019 -0.21257682 0.17432128 0.049068388 0.17601192 0.059221014 0.057816833 0.14646026 0.2622126 -0.08872244 0.18963066 0.071509786 0.1841033 0.19026625 -0.38166615 0.1148799
TGT 0.3484274 0.03228709 -0.34308386 0.020547384 -0.2167493 -0.09458079 0.17218761 0.1427255 -0.19038361 -0.18995747 0.07869891 -0.2472209 0.0038289202 0.30414236 0.13623731 -0.109073654 0.24999154 -0.1376464 0.21060315 -0.1669515 0.22409905 0.021140546 0.29435667 0.014190081 -0.03336368 0.07393654 -0.17676997 -0.025094073 -0.01086631 -0.0031583575 0.18386967 -0.07558661 0.45395955 -0.16404508 -0.03546186 0.012435128 -0.17633294 0.24554598 -0.21121608 -0.07292651 -0.15061048 -0.007889256 0.068059884 -0.01883968 0.09059043 0.006080277 -0.12326446 -0.20598815 -0.013742105 0.17228802 -0.09950269 0.010898161 -0.13671836 0.0777389 0.15258439 -0.17524594 -0.04376954 -0.17564909 -0.063433364 -0.005224157 -0.07047924 -0.11899453 -0.13127634 0.22982742 -0.0762095 0.0811237 -0.124565035 -0.074783914 -0.24269146 0.25757033 -0.056644987 -0.05224575 0.16015051 0.10642426 0.26554516 0.044818427 0.019633457 0.1628368 -0.31293857 -0.019333784 -0.03836505 -0.17724013 -0.14960535 0.14828393 -0.07381921 -0.036034416 0.25884163 -0.09688231 -0.10136549 -0.022363743 -0.09612154 -0.029202085 -0.12901607 0.010057015 -0.101154044 0.03713092 0.041646846 -0.048359327 0.07408967 0.12724757
GCA 0.13074522 -0.048978407 -0.05684721 -0.08741549 0.21374789 0.12769337 -0.0041964324 0.107865445 -0.02645545 0.09785701 -0.09155178 -0.27770087 0.013398289 0.08996157 -0.07637413 -0.032653123 0.017977817 -0.011432338 0.06832735 -0.25538796 0.1060335 0.15016676 -0.07699679 0.03559499 -0.0059523727 0.063400425 -0.079318136 0.014517261 -0.14244942 -0.014918297 -0.062485043 -0.028740132 0.06949203 -0.056500636 0.02334835 -0.022358142 0.11364812 0.069934696 0.09604167 0.18946977 -0.1371667 -0.0929613 -0.090768196 0.19231388 0.0956881 -0.0065687853 -0.18126105 -0.010183894 0.10310769 -0.01941436 -0.009894149 -0.07861146 -0.007153374 -0.10685061 0.1650461 -0.17232253 0.106841795 -0.013204712 0.122498296 -0.06388926 -0.23583293 -0.27395123 0.033501573 0.16418627 -0.13141352 0.3307413 -0.10233431 -0.05651321 -0.28638768 0.083203964 -0.1084009 0.2047926 0.14494245 -0.18778728 0.039980423 -0.1495029 0.21758239 -0.07064692 0.040817346 0.14107956 -0.45036632 -0.21746051 -0.19103079 0.16763262 -0.034002867 -0.0491278 0.05164851 0.10640707 0.16731985 0.09018843 -0.050511662 0.114764355 0.2603956 0.04202941 0.21566375 0.18236294 0.2192951 0.20193684 -0.13109085 0.16044188
ACC -0.119884424 0.063005514 -0.05176634 0.054293096 -0.06370762 -0.05256675 -0.004797724 0.17875193 0.054720253 0.10569816 0.02576466 -0.29762137 0.12925866 0.014500931 0.025299564 -0.059741486 0.08629897 0.05752151 -0.02823049 -0.2982515 0.23645154 -0.028686356 -0.10046564 0.017468134 -0.028687695 0.10796281 0.20738725 -0.059556007 -0.29608497 0.1016527 0.14426495 -0.113035135 0.20625494 -0.3094831 -0.13298298 0.05548081 0.11914023 0.069932155 -0.10160657 0.1052379 0.022828644 -0.26047373 0.17939788 0.17499143 0.0980663 -0.011263283 0.18691187 0.048398435 0.10060424 -0.051815826 0.06897432 0.066033915 -0.043859918 -0.029972494 -0.1987275 0.065373234 0.29250363 -0.17771208 -0.12693533 0.071159266 0.26612416 -0.09784717 0.10296511 0.073551804 -0.14441292 0.19781625 -0.015883394 0.2487641 -0.07371653 0.10894608 0.005724978 -0.11722238 0.17812836 0.05789059 0.38299897 0.1802457 0.10040975 0.24263366 0.11234445 -0.0021483502 0.017867796 -0.138696 -0.30471525 -0.02884648 -0.06202401 -0.12779634 -0.11592685 0.0047631403 0.17515709 -0.03145677 0.15512939 0.11725093 0.27801687 -0.10038235 0.16783214 0.023926789 -0.032635354 0.15853564 -0.12087429 -0.015051016
CAC 0.06300309 0.027026081 0.019729331 0.25234687 0.014949375 0.070107155 -0.06491544 -0.0028996733 -0.120523736 0.16518116 -0.03610307 -0.40542525 0.25134417 0.09160728 0.076056994 -0.08808547 -0.014900493 0.09081993 0.03155813 -0.29137757 0.27585033 0.022528473 0.12739752 -0.16635503 0.069757424 0.17033467 -0.080332555 0.018741606 -0.3104101 0.22974129 0.21206062 -0.10986479 0.16945773 -0.37480778 0.053271815 0.20790179 0.13882609 0.18041258 -0.027512977 -0.113855645 -0.16929385 -0.15414944 0.1414284 0.1748373 0.20851815 0.02545473 -0.04185221 0.014479266 0.18036832 -0.10753337 0.16621527 0.09110789 0.12419849 -0.15307036 -0.09644321 -0.10672232 -0.025219163 0.19390841 -0.11085971 0.010500088 0.025300976 0.083260976 -0.1770326 0.042491052 0.09701955 0.014137853 -0.0473771 0.04533629 0.0045964834 0.025276603 -0.10652114 0.06384599 0.0018565917 0.09293385 0.11659922 0.029799554 0.07334774 0.03852353 0.2686159 0.20456254 -0.15562865 -0.14067465 -0.25092652 -0.25130904 -0.1911329 -0.1775271 -0.20074256 -0.093521364 0.23781359 0.23059823 -0.027028734 0.12255847 0.04113527 -0.10128236 0.3598591 0.06519422 0.078727774 0.09613731 -0.16550381 -0.11724414
GGT 0.18846466 -0.03714854 -0.18017383 0.0149082 0.008293543 0.13310447 0.034830146 0.07107633 -0.17116876 -0.16023149 0.10287765 -0.17013328 -0.13739294 0.05782729 -0.09487675 -0.04066591 0.18955068 -0.15856135 0.037569363 -0.41986805 0.13587359 0.14144555 0.20475703 0.11106926 -0.08374535 0.09679313 -0.13333224 0.0724965 -0.06491053 0.16610266 0.0058319885 -0.30341902 0.34220925 -0.31097123 -0.03267653 -0.007590423 -0.20686756 0.112603486 -0.052365806 -0.17174102 -0.0043909336 -0.17709626 -0.11199264 0.21174067 0.13085157 -0.074756406 -0.011854815 -0.31234214 0.1290652 0.22280857 -0.19241455 -0.13847272 0.0019571013 0.053469997 0.17212561 -0.10828124 -0.048896424 -0.06334879 -0.08673599 0.1423127 0.052175973 -0.04751558 0.009774162 0.19377838 -0.061275184 -0.0040581077 0.042002752 0.1847853 -0.20969985 0.19765455 0.13385129 -0.06403004 0.2480924 -0.03778519 -0.060167514 -0.07716892 -0.029997583 0.07542925 -0.17450303 -0.22524013 -0.11334915 -0.17258547 -0.24751687 0.116756216 -0.04563532 0.0039704954 0.011719756 -0.08410624 -0.007848523 -0.07264426 0.015828207 0.018297158 0.04530178 0.126908 -0.020059787 -0.013897903 0.021100344 0.08256726 0.04334787 0.12389494
ATG 0.06411401 0.057496704 -0.16565283 0.058018014 0.13799006 -0.21848729 0.21815887 0.3944541 -0.06453795 -0.16469401 -0.15754218 -0.030198148 -0.24834758 0.34903285 0.00428201 -0.09033367 0.010075641 -0.056532815 0.025534471 -0.120219216 0.0001425886 -0.028304087 0.18779604 -0.11525687 0.07648035 -0.14745435 -0.0027484416 0.04326011 -0.33025888 0.024173079 0.20787945 -0.1060331 0.08047437 -0.17074473 -0.165954 0.056519967 -0.2184745 0.12120148 0.030838648 -0.06328632 -0.21650845 0.016493956 -0.109576926 0.086376995 0.2694038 -0.013624238 -0.1168862 -0.11790075 0.109336555 0.24532549 0.044499762 0.09505112 -0.11267551 -0.22973989 0.23109369 -0.025231859 -0.07669055 -0.03823015 -0.12796205 -0.014434845 -0.20519623 -0.0416378 -0.101161554 0.071254626 0.070109114 0.15313758 -0.11418245 0.06154523 -0.06068236 0.119379945 0.106027834 0.16174778 0.14728117 -0.1214278 0.37423262 -0.2547048 0.07947322 -0.07335278 0.124824554 -0.2850209 -0.10307884 -0.13111505 -0.19111668 0.19467007 0.2721658 -0.0669794 0.19431667 -0.06333838 0.13901117 0.0421598 -0.03065144 -0.14116289 0.32641086 -0.21876144 0.011432303 0.20423536 -0.0368034 -0.00059859484 0.13694721 -0.104558274
ACA -0.11654028 -0.04373372 -0.096144035 0.09448187 -0.037496086 -0.0076119103 -0.03715268 0.13741165 0.13672766 0.25321478 -0.019484693 -0.2801871 0.29613838 0.19981639 -0.054626245 -0.22700562 0.014958034 -0.026582617 -0.14919166 -0.070260525 0.14446312 0.22980045 -0.109977275 0.037370894 0.05499458 -0.010873232 0.14235365 -0.18229133 -0.28759918 0.07324716 0.17814322 -0.058029495 0.20224702 -0.21524061 -0.11563896 0.23138538 -0.009903973 -0.016795712 -0.024291992 -0.052265253 -0.13233896 -0.18952876 0.1793417 -0.012014832 0.024795856 -0.01683457 -0.04140281 -0.09698779 0.119237445 -0.09774766 0.01983464 -0.13447607 -0.10564007 -0.115258835 0.05760918 -0.07437541 0.25852817 -0.11636214 0.030406859 -0.023855757 0.11530185 -0.26410982 0.08254691 0.021633947 -0.30345243 0.20886362 -0.2287251 0.09884814 -0.39054915 0.24480484 0.0060286014 0.09515208 0.12304802 -0.037269633 0.26420957 -0.028620703 0.04560119 0.07685714 -0.029911 0.11683434 -0.14228962 -0.068036176 -0.30298993 0.12690438 -0.0103332605 -0.1945519 -0.10020199 0.09636984 0.19677663 0.12944682 0.013408245 0.035234258 0.2603516 -0.13340417 0.023399655 0.14329357 0.0012531905 0.12146876 -0.19916715 -0.0053078225
CAA -0.11156857 0.1566508 0.100523956 0.105219625 -0.038036224 -0.03484664 -0.07488164 0.09344485 -0.1480438 -0.010544795 -0.04686583 -0.15350331 0.24971199 0.20223533 -0.014844319 -0.058732934 0.15978003 0.21951799 -0.04974461 -0.118836455 0.16998492 0.041040525 0.07025528 -0.176087 0.017511178 -0.11064282 -0.006782032 0.10913355 -0.20260073 0.026151743 0.3144985 -0.013970574 0.13370278 -0.17547548 0.03715684 0.17528227 0.10921423 0.09042136 0.0078145 -0.048918035 -0.074387975 -0.074860774 0.019736271 -0.037671432 0.1439284 0.040308576 0.2172932 -0.29425213 0.16620299 -0.11864036 0.24259007 0.10372109 -0.30649602 -0.16402061 0.056013107 0.04362705 0.045101553 0.16049396 -0.12486292 -0.05579597 -0.0073769432 0.093157515 -0.031361647 0.045181017 0.035258498 0.120041706 -0.013993749 -0.1328997 -0.14949016 0.29721048 -0.11268056 -0.16017096 0.23784728 0.18933898 0.15219623 0.046878736 0.044693843 -0.04530711 -0.15332308 0.0994001 -0.18304354 -0.20064405 -0.24744974 0.23031944 -0.20265242 -0.19237415 -0.0069849263 -0.16954255 0.30798465 0.19090137 -0.10060126 -0.024591537 0.20949928 -0.091058575 0.07811409 0.060271837 0.11118902 0.31000906 -0.114090845 -0.106797755
GAC 0.2433114 0.089640915 -0.2539805 0.23611508 -0.086121425 0.08350671 0.026000137 0.2253484 -0.023622394 0.19126761 0.016905833 -0.27037272 0.10422727 0.027273629 -0.022517487 0.03383759 -0.033376824 0.034951303 0.055077244 -0.34459627 0.03173724 0.036411017 -0.066611685 -0.03975789 -0.08196865 0.102676496 -0.23225342 0.06936405 -0.3351444 0.07487944 0.081690416 -0.1567895 0.2418783 -0.27980638 -0.007763146 0.1624598 0.17280969 0.11607906 -0.16365325 -0.12650716 -0.26177502 0.020092838 -0.03596649 0.09482725 0.23034182 -0.19196106 -0.00043725397 0.14850266 0.13720962 -0.0022708315 -0.084756054 0.027253576 0.12903313 -0.11305383 0.10820359 -0.30650845 -0.24776588 -0.11843082 -0.023624657 -0.06702378 0.04853331 -0.00764982 -0.063734524 0.12677643 -0.007244654 -0.028678501 -0.009158915 0.14187424 -0.12975422 -0.12340159 0.01941331 0.09942557 -0.0065817847 -0.05222159 0.0951967 0.037348747 0.02057603 -0.074974276 0.1949081 0.052824914 0.046317704 -0.11132176 -0.21990357 -0.123840846 -0.18764813 -0.191298 -0.14059792 0.04905233 0.06631766 0.2584133 -0.17438363 0.13016637 0.08500529 -0.010863547 0.36036325 -0.07063305 -0.040383447 0.27545148 0.098514244 -0.15059851
TTG -0.037273172 -0.05964787 0.085895635 0.09715282 0.025935238 -0.40564713 0.15871796 0.332122 -0.07161347 -0.24869141 -0.02591888 -0.23904203 -0.07424503 0.11496807 0.22830074 0.040091638 0.010443209 0.020390354 0.0039980076 -0.23313195 -0.058140565 0.080186136 0.31917268 -0.22672758 0.13238472 0.14068528 -0.27111363 -0.044915613 -0.1907719 -0.0086581325 0.057734255 0.06007855 0.32441208 -0.24962313 -0.09820354 0.101733506 -0.09334961 -0.08895864 -0.23383738 -0.04091572 -0.18927833 -0.08469406 -0.123159565 0.05342959 0.21088815 -0.15754205 -0.018140035 -0.104133904 -0.015545788 0.15508914 0.08062655 -0.023673814 -0.11022244 0.030717578 0.08393453 -0.120912164 -0.00026953715 -0.07173922 0.06750935 0.15313734 -0.18538187 -0.071248695 0.12419913 0.1498838 -0.0918974 0.20154779 -0.17662029 0.11204749 -0.29072753 0.10896424 -0.041047502 0.23791201 0.11939022 -0.0389277 0.27705863 0.03548769 -0.07866435 -0.022091392 -0.07156485 -0.039574176 -0.0080378875 0.1321094 0.09115193 0.13730183 0.030538306 0.0932637 0.30284798 -0.031486604 0.14349274 -0.02710515 0.011323302 -0.0027275325 0.12403819 -0.12236302 0.22373156 0.2054799 0.06794388 -0.12702197 0.029691106 -0.08666741
CAT -0.06219981 -0.085294075 -0.11346815 0.1121355 -0.070996754 -0.03161242 -0.047415692 0.12504247 0.14386483 -0.035587795 0.0946106 -0.30635238 -0.0740505 0.20258129 -0.16167684 -0.13841514 -0.08631488 0.18795839 -0.006778959 -0.068721905 0.19211122 -0.026158795 0.26002455 -0.25960416 0.17946838 -0.139261 0.062197946 -0.13077386 0.025625292 0.0046192496 0.17551051 -0.011490545 0.38730007 -0.32982242 0.06198474 0.23166828 0.0017418999 0.041210767 -0.11170784 -0.08902968 0.0001130554 -0.1640194 0.03430949 0.032177825 0.21451484 0.08934877 -0.02194033 -0.2740437 0.09439427 0.09552499 0.32862437 0.04762694 -0.09609891 -0.04931739 -0.03584079 0.052972432 0.1431274 -0.032108713 -0.06791285 0.04413773 -0.048050217 -0.02961531 0.06791575 -0.11404924 0.003454448 0.113714926 -0.09904722 0.1424207 -0.16935876 0.19143566 -0.015136933 -0.19693056 0.21784887 0.24010293 -0.058190957 -0.04566833 0.16999245 -0.07426757 0.04874383 0.119802244 -0.37495425 -0.10018034 -0.19594774 -0.10632565 0.033529047 -0.21920173 0.2697279 -0.22040299 0.18315156 0.2627142 -0.15065743 -0.04490156 -0.16550054 -0.036896896 0.14562441 0.26938218 -0.068438455 0.025634404 -0.32359755 -0.01598816
AGT -0.05309073 0.07573612 -0.31141633 0.062131315 0.054685485 -0.03899423 -0.045519873 0.15717202 -0.2547952 0.0018825934 0.0619771 -0.19302106 -0.11231714 0.16760652 -0.05534445 -0.07576187 0.10660578 -0.20664176 0.25801224 -0.1444241 0.08057309 0.0024094526 0.3004451 0.018036304 -0.08276343 -0.14312261 -0.13706341 0.11547373 -0.15145835 -0.017157856 0.0627501 -0.072913736 0.38842914 -0.14469925 -0.09198616 0.030949717 -0.1610166 0.19119115 -0.113396645 0.055175193 -0.026209498 -0.10405671 -0.20876265 0.25223652 0.0030905544 0.068303056 0.20283118 -0.21281974 0.04035116 0.106563784 -0.1309544 0.09562552 -0.028969152 0.11766069 0.2868618 -0.23096289 -0.11481782 -0.18919131 -0.10259694 -0.0601978 -0.058881372 -0.111969 -0.08741859 0.11109431 -0.16397482 0.113556296 0.07772461 0.045826185 -0.18865041 0.36786783 0.0048613916 -0.033506095 0.29443485 0.0152366785 0.12954062 -0.06605491 -0.07521379 0.08410607 0.03203005 -0.2414471 -0.18303461 -0.111722365 -0.1295265 0.14385007 -0.021678409 -0.11805754 0.083846994 0.08640151 0.20739841 -0.04313915 -0.0062707616 -0.089151636 0.11109679 -0.058484837 -0.03325852 -0.018380051 -0.020451808 0.25028446 0.068539485 0.053191863
ATT 0.1463889 0.22613809 -0.2112317 -0.19544652 0.014467245 -0.12191138 0.015688729 0.33813068 -0.0002007868 -0.015767751 -0.1133068 -0.1106245 0.03129259 0.11456693 0.0053746714 -0.14397906 0.011257942 -0.17901856 0.07420335 -0.12872703 0.07675344 -0.12754852 0.24314861 -0.24797805 0.18835445 -0.17723165 0.08725492 -0.16599068 -0.13878225 -0.113938466 0.30953482 -0.08149035 0.276178 -0.099313654 -0.13091351 0.22514269 -0.16485515 0.13555107 -0.26360488 -0.08342116 -0.21387723 0.11377211 -0.056386143 0.12289542 -0.061030984 -0.078965664 -0.01733259 -0.26619074 -0.2791646 0.15903276 0.10028492 0.027914088 -0.40552536 -0.04548078 0.057024945 -0.12040737 -0.12669338 -0.15284403 -0.17172715 -0.118361525 -0.08891897 -0.052461777 -0.045743406 0.05431614 -0.043074008 0.21848251 -0.17684416 0.0037119437 -0.036718104 0.16785589 0.017477069 0.32339483 0.14444476 0.1126884 0.36561224 -0.35649073 0.0954226 -0.16724479 0.10244815 -0.013268458 -0.070138596 -0.09910179 -0.31427667 0.15454185 0.025513971 -0.14309052 0.09929195 -0.02838361 0.054996297 0.025439538 0.014785022 -0.08150291 0.3128703 -0.11921488 -0.09428009 0.12550364 -0.06995999 0.12357697 0.00947862 -0.27167326
ACT -0.08516881 0.08289587 -0.19822381 0.05027087 0.11722903 -0.16300409 -0.03684267 0.34351328 -0.063561134 -0.06290987 0.034388136 -0.31574258 0.24922027 0.17576933 0.14222166 -0.22181445 0.036926784 0.007789257 0.008542739 -0.16051494 0.20822364 -0.05132736 -0.03562449 -0.066077955 0.09598323 -0.084919736 0.10480939 0.037003167 -0.14386314 -0.03959666 0.19605726 -0.06110948 0.07426262 -0.17290464 -0.08676155 0.14261727 -0.014178213 0.00676785 -0.08825216 -0.08391093 -0.022425497 -0.14322254 0.3054183 -0.027767899 -0.16465509 -0.0046283677 0.118912145 -0.0844521 0.06739563 -0.040490326 0.0781409 -0.0061223493 -0.16449974 0.035237372 -0.079109356 -0.036566306 0.18826222 -0.041980367 -0.00011643704 0.016067706 0.24773675 0.08728946 0.20134605 -0.002406111 -0.36456308 0.15925345 -0.023304567 0.13104112 -0.3250113 0.2794905 0.12232755 0.010413158 0.13614784 0.12094973 0.35753775 -0.1192264 0.0058753723 0.24808428 -0.035644274 -0.047485754 -0.13148102 0.111934364 -0.3917069 0.12926382 -0.031693663 -0.17455626 -0.20247553 0.17445098 0.14056577 0.0067907143 0.13502675 -0.035506554 0.16258132 -0.012614687 0.092890576 0.011655918 -0.055066403 -0.051809944 -0.10067139 -0.119916655
AAT -0.07356465 0.119283915 -0.30025956 -0.07421681 -0.18641701 -0.12012664 0.28095374 0.34125152 0.09425094 -0.064229354 -0.00052086933 -0.15978298 -0.044304147 0.03115746 -0.110596925 -0.15762475 0.039243817 0.023725951 -0.02950379 -0.06827376 -0.06308985 -0.050230008 0.093483284 -0.20494813 -0.13074395 -0.19541098 0.037612993 -0.41634986 -0.04232945 -0.23811981 0.2525867 -0.12174164 0.37219146 -0.12730701 -0.017199628 0.14907669 -0.031418867 -0.11858243 -0.18278985 -0.09338041 -0.18622711 0.12210092 0.011368336 0.029502042 0.1601237 -0.07834465 0.044560824 -0.3289295 0.12094569 0.18261372 0.17754541 0.051312756 -0.23955938 0.0786379 0.15636 0.08205784 0.29366758 -0.12540719 0.06825455 0.015316812 0.0014927394 -0.19599093 0.07170515 -0.046934344 -0.015710682 0.24326155 -0.36462706 -0.089890786 -0.36819872 0.23135927 -0.07056307 -0.015001719 0.3063952 0.05076109 0.13690244 -0.08957669 0.23737311 0.0185388 -0.08093508 -0.060988396 -0.32023516 0.12579072 -0.2516228 0.105309986 -0.04505736 -0.25459555 0.1310634 -0.10794611 0.08162544 0.110839196 -0.06291693 -0.14745706 -0.14918399 0.052935842 0.09288042 0.011605093 -0.0752183 0.16062194 -0.09133771 -0.16509378
GAT 0.07114645 0.009436262 -0.37130582 0.07491515 -0.12886325 -0.0033070566 -0.0059735035 0.35730073 0.19032992 -0.014884412 0.07752821 -0.22819477 -0.16193706 0.13084893 -0.23329069 -0.009228125 -0.14074568 0.120090626 0.07706526 -0.2124019 0.033055533 -0.07315384 0.016270947 -0.14771265 0.024069931 -0.20372272 -0.12651548 -0.0791275 0.0026154243 -0.201638 0.06014688 -0.013014776 0.37975702 -0.18363534 -0.012886877 0.11261462 0.057933442 0.017392905 -0.23901574 -0.0846729 -0.06588282 0.06998038 -0.10173535 -0.0853412 0.096640214 -0.14720497 0.0026910238 -0.08965509 0.08726387 0.21953923 0.05418596 0.013315557 -0.0876491 0.014559694 0.21860301 -0.22091381 -0.060698446 -0.352935 0.04362543 0.009044022 -0.0062380326 -0.03067602 0.27762768 -0.045094237 -0.16413614 0.05600504 0.01713052 0.14683512 -0.27592123 -0.0078709135 0.13900772 -0.13495332 0.13116318 0.017967053 -0.021095745 -0.13514489 0.15161324 -0.18215418 0.045782756 -0.08210859 -0.20521617 0.01585834 -0.21786755 0.08274497 -0.026232218 -0.26815295 0.14934961 0.04874816 0.023244558 0.3324046 -0.27223283 -0.013185672 -0.07714028 0.07482705 0.23495129 0.07731929 -0.21208413 0.21657802 -0.034922287 -0.032952785
GTC 0.04158633 0.14286268 -0.07572073 0.077382274 0.043611612 0.11331456 0.25660098 0.0958276 -0.04701592 -0.22859152 -0.118763015 -0.11542817 0.31013548 -0.17110561 0.13916017 -0.105124354 0.04647837 -0.03221499 0.4071149 -0.030493202 0.071766324 0.05466601 -0.04433341 0.07303487 0.045372482 -0.05821075 -0.17750359 0.043894857 -0.13238329 -0.01666399 0.0039556413 -0.14060192 0.017505452 -0.29711646 0.0018962431 0.29745987 -0.08408674 0.2421078 -0.029086063 -0.11102461 0.13405508 -0.14012085 -0.07173697 -0.0752857 0.21737161 -0.12167419 -0.114840984 -0.24884392 0.19035213 0.06020697 0.08690202 -0.14615998 -0.10683096 -0.10156547 0.031359952 -0.18555611 0.09609965 -0.2180884 -0.0639623 -0.11098672 0.045523573 -0.013986294 0.14700419 0.14388771 -0.09852421 0.22943974 0.050598167 0.1707714 0.024394294 -0.04824191 0.23608275 0.016026553 0.2268768 0.16603741 0.22115567 0.14461125 0.098444566 -0.011126256 -0.103090346 0.15962341 -0.19374941 -0.28096676 -0.073814124 -0.034736022 -0.023169663 -0.2722355 0.10186756 0.01987517 -0.008052773 -0.05113285 0.037229013 0.21477991 -0.26629403 0.12935355 0.3220209 0.08594852 -0.035506237 -0.08632241 0.0132506415 -0.07344025
ATC 0.13694184 0.32631406 -0.26857913 0.021459606 0.113051645 -0.0136778345 0.07406362 0.5124406 -0.0016541075 -0.18363734 -0.07797367 -0.10676219 0.040298287 0.24019453 0.10361306 -0.14399129 -0.0620254 0.00047195042 0.1247721 0.07220033 0.030942066 -0.01192387 0.027002111 0.10150175 0.082618155 -0.21491562 0.043152343 0.054307867 -0.17509745 0.07877767 0.22148286 -0.3598344 0.011338421 -0.26603612 -0.10685107 0.35164073 0.21462667 0.24194966 -0.07881483 0.1387877 -0.07832301 0.051294293 -0.09465203 0.099022426 -0.010743667 0.109575115 -0.07264292 0.0030100723 -0.042485036 -0.016704105 0.06792039 -0.25725174 -0.2579979 -0.3309693 0.0053234966 0.07733323 -0.029523479 -0.14791277 -0.1640733 -0.32032818 -0.015138074 -0.085792005 0.08665539 0.097932026 -0.08805445 0.24529897 -0.030505585 0.082181096 0.008161074 0.09779214 0.15260796 0.084351785 0.20550095 0.0702756 0.13220142 -0.15579946 -0.02245844 -0.13026147 0.20558117 0.08154139 -0.17133145 -0.37413803 -0.2587698 -0.0752447 0.06357349 -0.20638302 -0.0047593806 -0.06311848 0.080406666 0.060623173 0.116214976 0.011006979 0.04807483 -0.052926663 -0.092993565 0.034545287 -0.091681674 0.13985074 -0.09121043 -0.20782474
AAC 0.08218546 0.2653203 -0.2512133 0.19152932 -0.080118954 0.047027487 0.18947397 0.1845598 -0.04280243 0.13684075 -0.08606647 -0.19901305 0.15820135 -0.03564754 -0.05215428 -0.18716258 0.024371084 -0.069690704 0.0046571945 -0.16484879 -0.12226937 0.09726349 -0.06779591 0.04752396 -0.18655111 -0.07291859 -0.20702444 -0.28265378 -0.3026527 -0.024022605 0.30578676 -0.17375214 0.23778799 -0.2758341 -0.045123257 0.14207536 0.08972438 0.04163731 -0.018749952 -0.22874935 -0.31711894 0.13072251 0.10831715 0.14304674 0.085237995 -0.120783925 0.00087555964 -0.16069356 0.247654 0.013009768 0.00054219307 -0.05240857 0.009672471 -0.12470703 0.13273829 -0.08258684 0.06067247 0.15673909 -0.0045056148 0.044707287 0.06950928 -0.0550072 -0.071722314 0.037695892 0.06848203 0.056282595 -0.32242143 -0.11563193 -0.27769378 0.0030736944 -0.05165844 0.1785486 0.15306045 -0.04956608 0.18765801 -0.04659023 -0.008954293 0.049335387 0.2015429 -0.033585414 -0.19732578 0.025503019 -0.2814168 -0.14093384 -0.16475771 -0.2676684 -0.063214526 0.05731541 0.1930967 0.1638696 0.017917309 0.0011444433 -0.021922398 0.1074978 0.24946144 -0.20451637 0.061531287 0.2594988 -0.09095749 -0.22852026
GTT 0.10276641 0.18589637 -0.032188598 -0.10857364 -0.042351194 0.110559456 0.085753635 0.01599807 -0.01133842 0.021260094 -0.16317157 -0.12836981 0.30408752 -0.24622516 -0.06946693 -0.12284639 0.12935545 -0.17293784 0.2938484 -0.25951925 0.06688613 -0.017149758 0.029815335 -0.20268336 0.13696994 -0.16580135 -0.15303674 -0.13931279 -0.037762932 -0.16679484 0.110127196 0.115786485 0.23672968 -0.094998606 -0.092632934 0.2532146 -0.31572324 0.18307623 -0.17984314 -0.20834215 0.09287689 -0.113652386 -0.080178596 0.13428727 0.045268413 -0.30061823 -0.008705708 -0.55790675 -0.14299631 0.18221232 0.1309155 0.036769513 -0.26068676 0.067616306 0.014075797 -0.29598132 -0.078215264 -0.20115997 -0.10520985 -0.0033275653 -0.02501669 -0.009932325 0.0038279714 0.05547045 -0.09648723 0.21022187 -0.030440286 0.11306214 0.059506204 -0.009948799 0.09326159 0.22861128 0.16848563 0.26907226 0.33926907 -0.056267302 0.13171338 -0.09993789 -0.05721704 0.14684136 -0.13142633 -0.13948557 -0.09639848 0.10791996 0.013457295 -0.19121054 0.28341094 0.053988717 0.01837154 -0.052371796 -0.022273937 0.11208249 0.0879177 0.08124154 0.16902839 0.107374184 -0.022772921 0.07827007 0.043181203 -0.08638763
TAA -0.10214185 0.17028843 0.17436638 -0.15833832 -0.07663797 -0.18102807 -0.03731341 0.10706994 -0.16195193 -0.09857573 -0.23637292 -0.08194594 0.17788532 0.18135267 0.22663167 -0.086568296 -0.07179519 0.067529276 -0.14540511 -0.11412556 0.14678009 0.037819732 0.092933916 -0.16090353 -0.15221584 -0.09783923 -0.21628235 -0.17499565 -0.25899836 -0.20152664 0.08377651 0.15137382 0.24602588 -0.05383508 -0.11031525 0.14663705 -0.10863271 0.13993815 -0.2634965 -0.06082436 0.029433371 0.13572066 -0.07431476 -0.037262056 0.104302704 -0.050570615 0.13532716 -0.33618903 0.011975897 0.12887563 0.059051506 -0.098081775 -0.38730347 -0.26921082 0.36334673 -0.17774494 -0.022308359 -0.0068744835 -0.11863242 -0.08149832 0.05685097 -0.01347407 0.13209322 0.108489834 0.09869703 0.19847238 -0.07216248 -0.14041828 -0.33898866 0.3304401 -0.18227443 0.026317406 0.2462357 -0.021100186 0.27092072 0.11644601 0.084326215 -0.1921919 -0.25579962 -0.031351797 -0.042303834 -0.039021004 -0.38694397 0.37506843 -0.29554904 -0.09054982 0.23427035 -0.01272527 0.16741914 0.07803248 0.09635069 -0.058575142 0.06592732 0.0104332585 0.09296852 0.147517 -0.0631094 0.32098827 -0.03816962 -0.2489491
TAT -0.033513267 0.03858606 -0.08102696 -0.21265054 -0.07185266 -0.118998975 0.02442356 0.15515243 0.0353799 -0.10879569 -0.08330795 -0.10782158 -0.06487353 0.09675947 0.11893002 -0.13852768 -0.19578746 -0.013410731 -0.11088619 -0.06419808 0.14038676 -0.14015432 0.2762189 -0.25012287 -0.05050098 -0.13654919 -0.068566695 -0.36234668 -0.0694383 -0.29880944 -0.024973454 0.05640989 0.3989531 -0.16195838 -0.08338762 0.14982653 -0.19855915 0.07683912 -0.40548348 -0.07521614 0.031000225 0.13022514 -0.044673625 0.029902987 0.14044218 -0.038900618 -0.021800552 -0.26964632 -0.106027 0.2686418 0.10739275 -0.11829807 -0.288987 -0.12737176 0.2509503 -0.17378607 0.013074965 -0.22018427 -0.09070826 -0.09638761 0.042273648 -0.14368676 0.23171137 0.034399204 0.023520082 0.24985719 -0.17593536 0.117902905 -0.312687 0.2492969 -0.07081298 0.05607459 0.25490865 0.05000765 0.12711261 -0.08889738 0.2113109 -0.17334782 -0.07126409 -0.09222933 -0.20369418 0.0159757 -0.3826349 0.11636618 -0.11806821 -0.14814325 0.36974177 -0.04523644 0.004236803 0.077729255 0.047850903 -0.1071808 -0.13397755 0.04676732 0.18777467 0.25838327 -0.24265563 0.12564266 -0.1365055 -0.2389507
CTA -0.05968273 -0.019765193 -0.18697438 -0.026399262 -0.10456467 -0.14047182 0.181776 0.26201683 -0.31382146 0.057087936 0.04980113 0.032877624 0.022241207 0.15340221 0.0820437 -0.11893451 0.11884704 -0.05708886 -0.41319045 -0.066791795 0.17454319 -0.11224057 0.21024176 -0.13974638 0.043756004 -0.2692724 0.031631652 -0.18595368 0.087600954 0.041576497 0.086675726 -0.043641325 0.34723768 -0.17840493 0.07076997 0.24268217 0.0004611173 0.2881027 -0.018648814 -0.08838279 0.10726104 0.07169669 -0.10268694 0.10042189 0.11414686 0.018347014 -0.11971969 0.035460673 0.07008729 -0.10208608 0.2002574 -0.094511524 -0.01189214 -0.10591974 -0.14990099 -0.12688775 0.042358976 -0.07715214 0.11794355 -0.020407906 0.10996833 -0.05428001 -0.056359556 -0.13128015 -0.018048935 -0.053836863 0.01653914 0.22742063 -0.3863806 0.06383032 -0.18033692 0.16467467 0.116420224 0.14332147 0.19437446 -0.25799978 0.093644805 -0.009071054 -0.24669541 0.1379545 -0.15443277 -0.109911814 -0.08278244 -0.01199611 -0.32070312 -0.12933147 0.031561613 -0.25297347 0.060352284 0.16352826 0.22538836 0.084546365 0.2464533 0.06952102 0.29064414 0.019174566 -0.082254045 0.24952248 -0.03898456 0.053710997
CGG 0.24129574 0.19864444 0.002331052 0.00927084 0.11012454 0.086285844 0.072915435 0.14169113 -0.30324447 -0.09254513 0.009139703 -0.026979212 -0.03528965 0.0669665 0.09005235 0.07655803 -0.20396109 0.29920095 -0.22992149 -0.5031152 0.12492329 -0.10137708 -0.06670886 0.057519957 -0.11564583 -0.02203192 -0.048589826 -0.028398111 -0.14404133 0.14217567 0.0014096543 -0.19307496 -0.04893537 -0.06978698 0.13618143 0.029530669 -0.13636251 0.1768137 0.17348683 0.12745498 0.11376921 -0.32186723 -0.13270952 0.25110054 0.3162904 -0.17556633 -0.060833998 -0.1244067 0.048377536 0.1073735 -0.04007736 0.10946905 0.029989896 -0.20258413 0.07145813 -0.1679561 0.025032971 -0.240688 0.12648927 -0.1470447 0.07460052 0.019856311 -0.023434808 -0.044333246 -0.3437121 0.24153209 0.2757391 0.29358172 -0.10515727 -0.121535994 -0.26439786 -0.0074601485 -0.09689695 -0.030993454 -0.07143033 -0.03096637 0.010326495 0.256299 0.13152309 0.08345744 -0.20920537 -0.14121848 -0.168803 0.34783095 0.09787453 -0.13718972 -0.11522012 -0.10840403 0.11890525 0.043559764 -0.2851864 -0.11172405 0.13214561 -0.22962707 0.4763479 0.14461666 0.105700046 -0.065294184 -0.16782194 0.13036494
CCG 0.015124512 0.25010997 -0.014735069 0.2739791 -0.051664036 0.0868049 0.18915124 0.1111055 -0.2751129 -0.009899056 0.065053396 -0.34721226 0.15011142 -0.11190284 0.047589615 0.11968636 0.11049222 0.07509833 -0.106504545 -0.38733393 0.1872075 0.1426921 0.11457017 0.1903616 -0.07743004 0.19823945 0.16623792 0.28858086 0.023656912 0.101812504 0.09836169 -0.34986818 0.046412908 0.017563883 0.010771563 0.060691684 0.20969455 -0.0015917402 0.06907016 0.07565439 0.042184737 -0.1849191 -0.0051945443 0.505912 0.22841418 0.09631644 -0.11349911 -0.10784791 -0.09691443 0.03882754 0.054370046 -0.009236081 -0.085320115 -0.32774538 0.13197227 -0.014328159 0.07316984 -0.14583203 -0.0396298 -0.090845995 -0.11498304 -0.04095491 -0.095550336 -0.025138317 -0.2657836 0.0949289 0.17777115 0.45016557 0.14340885 -0.02215269 -0.22953321 -0.12838785 0.14834708 0.088839404 -0.031193096 0.17842886 0.19888145 0.048425183 -0.00094026927 -0.08004636 -0.059071653 -0.06358604 -0.047983903 -0.018743897 0.09066011 -0.19091351 -0.17146146 -0.34487304 -0.07209268 -0.1208753 -0.23285693 0.031747535 0.07231648 -0.051940154 0.5545685 -0.016587831 0.2385239 0.16971521 0.051616687 0.03914476
TTA 0.008389993 -0.05800934 -0.113204725 -0.024048466 -0.059791118 -0.33187458 0.07762344 0.3172995 -0.03466389 -0.110459186 -0.031712614 -0.06328235 -0.106454976 0.005541415 0.21509203 0.0230941 -0.06512857 -0.015933594 -0.09694384 0.07308905 -0.09651552 0.08696922 0.28068998 -0.23536149 0.08814117 -0.13295154 -0.1916455 -0.20796703 -0.07360192 -0.059002787 0.14133483 0.050154123 0.62357986 -0.09518293 0.041886356 0.32667172 -0.021062735 0.11880928 -0.2952875 0.009268945 -0.08349223 0.0014905082 -0.20091783 0.13183999 0.14069514 -0.063509606 0.076389946 -0.17687713 -0.0084805265 -0.084606595 0.2016256 -0.17669986 -0.1551298 0.053250756 -0.11191236 -0.013598638 -0.17319505 -0.15651117 0.159354 0.13051312 -0.012427589 0.015225541 -0.011167971 0.080186725 -0.048240807 0.078323215 -0.20438899 0.1456373 -0.50679034 0.25329623 -0.18315302 0.2797903 0.2813536 0.14040208 0.3856409 -0.07861709 -0.017533172 -0.16187456 -0.22146095 0.09793876 -0.053414706 -0.00030688348 -0.19532923 0.16757779 -0.354538 0.0012755261 0.16814831 -0.19721726 0.21590763 0.018781278 0.09447111 0.026982564 0.27338573 0.11713604 0.080360375 0.017330691 0.11036644 0.27375683 -0.056769025 -0.14885333
GTA 0.07440477 -0.113707066 -0.21897621 0.03817898 -0.015901754 0.025134793 0.27952915 0.10829895 -0.049185697 -0.08324213 -0.1390364 0.08975306 0.0276255 -0.120995894 -0.04020248 -0.04485741 0.12034714 -0.037531324 0.07364912 0.0927054 -0.05154221 0.03392211 -0.05092068 -0.13513964 0.07869728 -0.3191062 -0.1426628 -0.09164752 -0.027126744 -0.07993787 0.040733382 0.059384182 0.32572356 -0.13474856 0.063665666 0.27120894 -0.27418843 0.30313832 0.03508205 -0.18752074 0.12352782 -0.07724528 -0.10398641 -0.028333196 0.331611 -0.17077233 -0.08179138 -0.3653403 0.31930083 -0.009415173 0.16544978 -0.08647847 -0.0042394986 0.023187906 -0.09061418 -0.17145346 -0.18489675 -0.19125392 0.123074815 0.12310337 0.062827565 0.08066813 -0.05773303 0.077056415 -0.0073621254 0.005570145 -0.07092559 0.20668428 -0.30917522 0.020262763 0.05932859 0.1471968 0.29558137 0.15240933 0.43177623 -0.1559067 0.102117725 -0.08636509 -0.3205594 0.035263717 -0.18526837 -0.23084083 -0.19481763 0.18417652 -0.17706946 -0.23343344 0.110647075 -0.14061944 0.12815459 -0.0043241065 -0.054037727 0.1434054 0.23674284 0.22049938 0.32545245 -0.009167185 -0.012023156 0.18980229 0.06685665 0.050244566
TAC 0.027903989 0.15689254 0.04842832 -0.05066691 0.018751208 -0.039343003 0.07380166 -0.0063527776 -0.17736013 0.0023134807 -0.18855031 -0.1802388 0.13037685 0.024731142 0.33654743 -0.09732415 -0.18697914 -0.048400145 -0.17554459 -0.10757482 0.23960085 -0.033279296 0.20701978 -0.036423005 -0.15764149 0.12810893 -0.13495953 -0.2298064 -0.3075725 -0.019525554 0.02099754 -0.065784685 0.20587617 -0.23849845 -0.04134769 0.14882068 -0.021541359 0.21955197 -0.24328968 -0.09829693 -0.08880228 0.14876522 0.07955823 0.1572326 0.17227 0.052277464 -0.03772232 -0.043923788 0.042866368 0.083181 -0.028893968 -0.16334249 -0.12900326 -0.39556858 0.24452257 -0.23402238 -0.051823907 0.10963729 -0.15973037 -0.09096815 0.1306832 -0.034000326 0.05524922 0.10617134 0.19543451 0.10854771 -0.08730337 0.03128403 -0.21283114 0.12250668 -0.21849848 0.13368142 0.13525733 -0.108881965 0.14032322 0.05390311 0.10729734 -0.08126017 0.07057675 -0.040824365 -0.043109756 -0.037307665 -0.45628327 -0.060664333 -0.29223716 -0.16495372 0.026860878 -0.034847584 0.09628003 -0.015196481 0.15661286 0.037521195 -0.07290641 0.02902898 0.35751534 0.04743256 -0.08068279 0.18193452 -0.10928549 -0.32332358
CGC 0.1586978 0.16437101 -0.16715653 0.026419375 0.1687903 0.03666237 0.13940467 0.17163785 -0.22569303 -0.047290165 -0.068234585 -0.17430621 -0.0018218247 -0.053969268 0.19253266 0.21788462 -0.104598336 0.13032387 -0.07918096 -0.40444258 0.41840753 -0.005924429 -0.06780055 -0.072583534 -0.22063838 0.16957532 0.01105285 0.044674195 -0.038041048 0.26660472 0.17293693 -0.4136338 -0.16187495 0.0019988932 0.17948167 0.23899063 0.1092184 0.22930704 -0.0062857736 0.17498843 0.0006858902 -0.31609502 -0.13684541 0.27324677 0.29681483 -0.07977372 -0.1798204 -0.08487078 0.2286998 0.041196052 0.09809504 0.06243818 0.07613834 -0.15609351 0.11972506 0.06848219 0.22144276 -0.24425997 0.030106096 -0.14178996 0.015910221 -0.049603432 -0.028577145 -0.066773824 -0.24611259 0.12551287 0.2869863 0.22322562 -0.042348348 -0.07164889 -0.24291945 -0.11170027 -0.1231434 -0.029682348 -0.13873997 -0.09079675 0.22137722 0.22948971 0.06935644 0.18757233 -0.22870499 -0.052143723 -0.023898736 0.14959049 0.06763059 -0.19241332 -0.49876285 -0.13216344 0.07287341 -0.026327834 0.014213115 0.084571205 0.10267305 -0.26829794 0.39505932 0.067909166 0.021802021 0.058753572 -0.07187668 0.195224
GCG 0.16048826 0.0072787264 0.02746846 0.047587793 0.089452535 0.032483544 0.13149655 0.22724544 -0.3044369 -0.13724929 -0.020990819 -0.4124746 -0.013687632 -0.01604877 -0.06441928 0.1377078 -0.004334454 0.083229676 0.06270454 -0.49947578 0.11655183 0.1058338 -0.14004874 0.05206557 -0.095887825 0.016464215 0.07169635 0.39050514 0.038915742 0.014463708 -0.04141644 -0.17375433 0.004259261 0.040358998 0.06611617 -0.06829298 0.2275401 0.03877261 0.23912585 0.039796192 0.14944805 -0.2717981 -0.052633908 0.5365231 0.19588707 -0.021703938 -0.2657738 -0.04616785 0.111305244 0.12124472 -0.017781906 -0.059476465 0.104502924 -0.28345606 0.25441414 -0.052737188 0.014067976 -0.0755308 0.041398913 -0.08067616 -0.15666826 0.008849817 -0.15386833 0.03265489 -0.25242004 0.27375793 0.2190085 0.28718 0.008990774 -0.0975375 -0.2124902 -0.004545198 0.19554858 -0.1274262 -0.050043613 0.05859253 0.406871 -0.12791538 0.004527804 -0.009447431 -0.17289378 -0.034000468 -0.25595742 0.13748573 0.10673743 -0.13431399 -0.21394545 -0.07424431 -0.023354724 -0.020844532 -0.13554882 0.057170004 0.04572915 0.2131456 0.4971666 0.07215653 0.2505202 0.17788358 0.11474369 0.09641827
ATA 0.09431485 0.092547454 -0.3040719 -0.070814356 -0.057802197 -0.19946231 0.17123717 0.42507133 -0.051600263 -0.10058654 -0.18377559 0.038646273 -0.10870147 0.19407976 0.12503192 -0.17382436 -0.029838338 -0.06609016 -0.1731946 0.14550634 -0.04260919 -0.025343211 0.07553494 -0.16689686 0.029827101 -0.34690398 -0.017372195 -0.21101022 -0.109987035 -0.045365 0.21108085 -0.14091426 0.37699804 -0.08033064 -0.082614355 0.34700152 -0.10656316 0.2621604 -0.13827603 -0.0548869 -0.10597385 0.1402096 -0.068998426 0.15241776 0.15476757 -0.0139989965 -0.04429509 -0.20873077 0.055317763 0.033643115 0.17901604 -0.14210518 -0.16354243 -0.18776745 -0.010395905 0.08433911 -0.19156122 -0.13206281 0.027661636 -0.007712014 0.051846836 0.024674391 -0.13159567 0.037619058 0.06800426 0.014104586 -0.21442193 0.11037981 -0.36408684 0.25244552 -0.06599678 0.21114181 0.28155133 0.06359128 0.46323448 -0.25534022 0.037326094 -0.15597114 -0.14146341 -0.07263639 -0.071142174 -0.12521787 -0.39318496 0.15633404 -0.1582317 -0.09933168 0.031494893 -0.24642013 0.14018767 0.09088511 0.15211673 -0.08876709 0.33995494 0.017080149 -0.034750238 -0.016648188 -0.12632574 0.32045713 0.0600653 -0.21819767
TAG -0.119498976 0.16305502 0.18930355 0.10035907 -0.07514031 -0.07387768 0.12726614 0.17199159 -0.07386537 -0.20825253 -0.18626407 -0.22774197 0.034567196 0.101331204 0.23951128 -0.06277518 -0.06910475 -0.097263634 -0.25817674 -0.18272883 0.13892154 0.045189023 0.11531339 -0.018675212 -0.036665093 -0.050585143 -0.19328916 -0.283097 -0.13466896 -0.17546791 0.020650348 0.10208581 0.23747604 -0.114609115 -0.31969023 0.13129583 -0.06604778 0.21429953 -0.25718108 0.0388705 0.26087886 0.17535156 0.0012296824 0.1263044 -0.12683809 0.05023923 -0.0049131946 -0.26426 -0.116831556 0.31900683 -0.1044812 -0.34009707 -0.38524944 -0.30385464 0.229963 -0.1717114 0.0119992895 0.01156218 -0.10341489 0.07688534 -0.014840538 -0.004748561 0.4043111 -0.060683507 -0.054591976 0.19056822 -0.0046272334 0.030690465 -0.15940805 0.104413874 -0.0064733736 0.105141476 0.14787619 -0.13814804 0.20694768 -0.08403894 0.04583779 -0.116109736 0.04990038 -0.26209354 -0.12391117 0.0048870584 -0.29804426 0.13575399 -0.07160396 -0.13500044 0.28634667 -0.00909386 0.08665392 -0.103017874 -0.001135492 -0.0321712 0.05831692 0.16031528 0.12898478 0.04535838 -0.12880878 0.11008348 -0.07113316 -0.06257012
ACG 0.012682106 -0.0293687 -0.052501623 0.24276228 -0.12745075 -0.08244788 0.08560322 0.22687644 -0.13707396 0.07495234 0.043156736 -0.45328838 0.18877299 0.11020039 -0.04862229 -0.064550266 -0.09842582 -0.02304023 0.092088066 -0.35194394 0.1825451 0.19502191 -0.121653 0.18149783 -0.07584434 0.03860169 0.357411 0.2446163 -0.19679865 0.12100319 0.12889065 -0.13216105 0.18798299 -0.03791172 -0.0714477 0.04300338 0.08932766 -0.06241012 0.1614023 -0.1357352 0.10838673 -0.28757077 0.24359797 0.32418993 0.10814424 0.094607525 -0.14111362 0.00156063 0.06977226 0.010081592 -0.028356906 0.007879113 0.053679533 -0.2932777 0.2237392 -0.04473217 0.15309684 -0.18159035 -0.1265433 -0.025100635 0.099112466 -0.009413332 -0.21194603 -0.055594213 -0.34292674 0.22059451 0.04467345 0.3737177 -0.08724041 0.030736884 -0.117761515 -0.10355022 0.21266432 -0.07805215 0.32435504 0.24774198 0.31017685 0.019730968 0.06471523 -0.10701185 0.16015905 0.011401054 -0.42196837 0.03509063 0.12567548 -0.19568804 -0.24403927 0.022514243 0.014876314 0.021058593 -0.08303919 -0.0006747276 -0.02416728 0.120693475 0.30366468 0.067576915 0.10386354 0.12469899 0.055355594 -0.048324678
CGA 0.2356076 0.29375985 -0.045434516 0.038855683 -0.0004931923 0.06161487 0.05086408 0.19417946 -0.0013748226 0.035960067 -0.23122284 -0.32465085 -0.015290101 -0.0021619925 0.20279963 -0.33414105 -0.31276435 0.105512194 -0.07139714 -0.33458206 0.20743243 0.097299024 -0.27434576 0.025937289 -0.08233441 -0.057704408 -0.22602156 -0.0179646 -0.18387869 0.17223452 -0.03639203 -0.22470579 0.06460769 0.06701946 0.0028037026 0.1931586 -0.06370426 0.35599297 0.02880124 0.19606103 -0.050702352 -0.21908996 -0.14689302 0.35255516 0.11869854 -0.15655829 -0.10173096 -0.14610699 0.008871344 0.24098036 0.15939179 0.081039585 0.18311419 -0.22555754 0.02706226 -0.046188593 0.15600449 -0.13499072 0.15501685 0.06769976 -0.027355053 0.07726274 -0.09918275 -0.20840456 -0.10527496 -0.00093834224 0.3755948 0.17277642 -0.11435775 -0.020434668 -0.18424441 -0.0043902136 -0.122112684 -0.1001014 0.115228906 0.20711873 0.10098083 0.16717319 0.06492787 0.24864262 -0.29927543 0.072775595 -0.19127226 0.22074209 0.024141405 -0.05080889 -0.11905537 -0.17712043 0.15168063 0.31154335 -0.085571684 -0.010899232 0.0849853 -0.36776683 0.29890174 0.12374715 0.14706774 0.09567196 -0.07382927 0.08805344
TCG 0.15473102 0.15864718 -0.063120574 0.18655704 -0.053015377 -0.26599535 0.1289821 0.05957612 -0.059969075 -0.04525947 -0.07244912 -0.20739786 -0.14760864 0.06195666 -0.14205852 0.1332666 -0.10755242 0.046637326 0.024925198 -0.16411185 0.08044318 0.26063445 0.20570368 0.20791152 -0.061140683 0.006500447 -0.010970776 0.2524011 0.17610282 0.018911738 0.35508478 -0.043291766 0.1435271 0.063993715 -0.013987716 -0.07168186 0.15585954 0.1215707 -0.038458068 -0.19026005 -0.031579442 -0.16548376 -0.02328494 0.32587692 0.08733789 0.055186268 -0.41509798 -0.23222847 -0.06282214 0.14548753 0.0982322 -0.15601386 -0.11512046 -0.47512174 0.10998343 -0.002739788 0.004026792 -0.3184206 -0.2834093 -0.11465233 -0.0738799 0.026955485 -0.08274232 -0.051585834 -0.23288763 0.08411971 0.16040392 0.44889793 -0.008849414 -0.16976877 -0.3131898 -0.020617247 0.08547936 0.08256436 0.13853161 0.14136219 0.22202483 -0.18719153 -0.06787259 0.0032253577 0.026344001 -0.01800592 -0.11784297 0.07753942 0.21597835 -0.3372009 0.11731886 -0.16464838 -0.07415822 -0.07996387 0.03075558 0.032484278 -0.06271745 0.043143503 0.39786088 0.06655092 0.2639246 0.16134416 -0.31304044 0.060191743
CGT 0.40914956 0.27962685 -0.36594108 -0.08444598 0.06442858 -0.016372932 0.07223054 0.080830246 -0.23588535 -0.1944395 0.07875089 -0.25568813 -0.089584045 0.016825438 0.21947816 -0.04849775 -0.08994104 -0.0034366038 0.10097897 -0.43202922 0.1915271 0.05830131 0.048388764 0.08489274 -0.028206395 0.0033295508 -0.088324316 -0.05262798 -0.13468242 0.26095843 0.110568844 -0.36294472 0.26804063 -0.21977825 0.122809276 0.07210115 -0.2768593 0.4012259 0.12539823 0.053787842 -0.15230855 -0.40154323 -0.055266026 0.16987629 0.27111 -0.015378056 -0.022191424 -0.16828105 -0.007433775 0.21021564 -0.06110523 0.20268211 0.026051149 -0.038831618 0.1761401 -0.21370038 0.12284796 -0.272428 0.04367334 0.009027865 0.091774605 -0.002225314 -0.21086018 0.06551958 -0.1937943 0.013323314 0.32429442 0.16795924 -0.14477627 0.08006053 -0.19348131 -0.236068 0.011108583 0.081965625 -0.074621834 0.089768566 -0.1653653 0.3212549 -0.053966824 0.2007445 -0.010810648 -0.15813324 -0.123085365 0.22447887 0.22259633 -0.042145427 -0.16880426 -0.1115739 0.16526154 -0.06678856 -0.23684378 -0.0066332463 -0.043540843 -0.22740214 0.1251988 0.13602199 0.06728844 -0.12535301 -0.18163878 0.13425305
NNN 0.09240808 0.24244122 -0.2366522 0.23110208 0.04453227 -0.12877369 0.26685658 0.5654305 -0.35111758 -0.14877379 -0.05284138 -0.54688007 0.13545127 0.24854757 0.10002361 -0.08647367 0.16376472 0.040977996 -0.016478878 -0.7006115 0.4231697 0.019165793 0.27312225 -0.13436168 -0.053603467 -0.018322919 -0.24604979 0.013311735 -0.28901106 0.05703211 0.3671976 -0.27171937 0.40589553 -0.49468258 -0.09009055 0.29937682 0.099123284 0.34402978 -0.25509074 -0.08942672 -0.069521256 -0.18162006 -0.13204157 0.31360152 0.2365734 -0.15248641 -0.16304052 -0.33319268 0.21480624 0.21428831 0.1818416 -0.13838758 -0.24186915 -0.2794201 0.1182391 -0.24859823 0.19129097 -0.24630867 -0.11604781 -0.07559855 -0.05515592 -0.124404185 0.1909387 0.07128664 -0.31783473 0.42915735 0.04812241 0.32427514 -0.3841584 0.13500558 -0.078802355 0.14210922 0.28046033 0.08866188 0.39250678 -0.1804903 0.29254583 0.08276143 -0.024181753 0.023013 -0.524405 -0.2308939 -0.34914798 0.17608449 -0.17482549 -0.42639133 0.07488945 -0.12300136 0.21583484 0.1576042 0.086850084 0.10264302 0.21220475 -0.018205732 0.5954162 0.16309084 0.12000643 0.2555376 -0.14798303 0.04515242
TNG 0.039706115 0.0790833 -0.07185446 0.09059492 -0.029314738 -0.046434958 0.10360808 0.21111897 -0.11547201 -0.05492871 -0.013973859 -0.19301434 0.039875858 0.093649715 0.00077483343 -0.06168763 0.062013473 0.0013426582 -0.0137277115 -0.2678387 0.107992835 0.015299074 0.06255065 -0.035403043 -0.022015678 -0.022993306 -0.08211999 0.029136598 -0.10535893 0.006734735 0.11269217 -0.08576784 0.16618574 -0.12890328 -0.033309788 0.089503385 0.004439404 0.094135866 -0.05209005 -0.0529883 -0.027836096 -0.06972814 -0.045037303 0.12175978 0.096771315 -0.09077432 -0.055671055 -0.13875368 0.084457874 0.10109181 0.052218422 -0.006097952 -0.06987343 -0.07747701 0.050290823 -0.08779637 0.06266577 -0.093512766 -0.016541397 0.0031677466 -0.019290932 -0.02190698 0.03206394 0.017069077 -0.12364179 0.12106244 0.030486718 0.121536694 -0.1460903 0.059920777 -0.014115261 0.04745827 0.10702184 0.029151365 0.17807564 -0.02548139 0.100892946 0.032495923 -0.03693473 -0.0072248387 -0.16170865 -0.046175048 -0.12861778 0.102962814 -0.050217614 -0.13829614 0.04420933 -0.05605761 0.06395598 0.08886512 -0.00785068 0.023926433 0.103367 -0.012329396 0.2075213 0.056816112 0.060019873 0.09671529 -0.012555956 0.030523019
CTN 0.05208719 0.06670271 -0.07371041 0.091870576 -0.005412156 -0.047889993 0.10450474 0.18549804 -0.13722412 -0.064134136 -0.009842568 -0.20760088 0.06234969 0.076481074 0.046875052 -0.031014165 0.06780513 0.0034764064 0.011193198 -0.2791149 0.15479456 0.018525112 0.08252488 -0.056830056 -0.023019556 0.021040179 -0.0821134 0.033515397 -0.09379587 0.045819588 0.119838744 -0.090421885 0.13344154 -0.1747723 -0.010895935 0.1086646 0.014735865 0.11740774 -0.057966206 -0.05569209 -0.011422682 -0.08433734 -0.033449158 0.11042428 0.13363606 -0.061828755 -0.089967705 -0.10643287 0.086318046 0.0719499 0.058873214 -0.021382183 -0.042863894 -0.08150576 0.044093456 -0.08342727 0.053986162 -0.07120562 -0.03679701 0.0020808035 -0.02116382 -0.022735074 0.028541861 0.02174488 -0.10231989 0.12257811 0.040459078 0.13196458 -0.114517435 0.029799486 -0.034311697 0.049824968 0.076347865 0.030585777 0.1405777 -0.0143065145 0.114756785 0.04110619 -0.01857175 0.018852174 -0.15080689 -0.07035175 -0.12311497 0.061538946 -0.04476953 -0.13784206 0.015377697 -0.054370396 0.05779503 0.07120445 -0.00069352606 0.04817329 0.06879409 -0.010109206 0.23614001 0.059868384 0.05647993 0.06202346 -0.012678399 0.03393413
CCN 0.0532946 0.10488082 -0.09178827 0.044986226 0.026945945 -0.04260886 0.0791506 0.1659252 -0.11320124 -0.04797076 -0.015381396 -0.18600118 0.062069602 0.04094967 0.05194964 -0.03182997 0.0471735 -0.011956417 0.030840104 -0.20979758 0.121252835 0.016812038 0.11320744 -0.063935205 0.0001037392 -0.002716333 -0.08247219 0.001726904 -0.07243107 0.0018421888 0.13942151 -0.10213344 0.16478477 -0.15674831 -0.008432748 0.13806172 0.021641348 0.12536192 -0.11243297 -0.037874114 -0.032921087 -0.071803115 -0.063152745 0.11991887 0.065153524 -0.04745635 -0.052688528 -0.13836218 0.030244693 0.060499866 0.080175236 -0.04913773 -0.1100773 -0.06614267 0.03175593 -0.088744044 0.044946663 -0.083399154 -0.04870781 -0.04150869 -0.041414943 -0.029268946 0.055721473 0.044763513 -0.1044452 0.14529029 0.016035173 0.10261448 -0.12089095 0.07297406 -0.032934126 0.063991226 0.10898162 0.07439789 0.13023628 -0.06588329 0.07641038 0.015495465 -0.014927388 0.04160417 -0.17327943 -0.07808991 -0.11325989 0.05439296 -0.067156464 -0.13869137 0.037844192 -0.04128064 0.07638698 0.046448354 0.016133117 0.05064715 0.06254652 -0.013755171 0.18408164 0.052341424 0.042235088 0.07646929 -0.044797383 -0.011200245
NGG 0.046404343 0.07849316 -0.06801731 0.083523765 0.0036011436 -0.032693353 0.094881125 0.1868372 -0.1214789 -0.031266093 -0.016364617 -0.20043088 0.040345456 0.0688451 0.030654231 -0.03947149 0.045393813 0.017011631 -0.00948674 -0.24515216 0.13195895 0.02840678 0.055421796 -0.022812061 -0.030466625 -0.004820339 -0.04653762 0.037882157 -0.102138534 0.03407525 0.121732585 -0.108459145 0.1385117 -0.1334469 -0.034572966 0.09188931 0.040816993 0.10764315 -0.046369795 -0.019494906 -0.013831601 -0.0890032 -0.03357182 0.15155347 0.10124332 -0.046205427 -0.04965837 -0.10340057 0.061411157 0.06930379 0.061984513 -0.038090177 -0.048350506 -0.102854505 0.031844415 -0.05903155 0.04156847 -0.09162882 -0.029492022 -0.022134297 -0.0260628 -0.013983614 0.025079105 0.010633116 -0.10690478 0.13218583 0.032142434 0.14117624 -0.1290673 0.040854987 -0.03737149 0.04523923 0.10523933 0.018726602 0.15259379 -0.01684876 0.09455084 0.04318216 -0.0042041577 -0.0032246534 -0.15163444 -0.08089443 -0.14749773 0.07455027 -0.04747902 -0.12113495 -0.004447654 -0.06988772 0.0720315 0.061571296 -0.0026662888 0.036297042 0.098186694 -0.016949289 0.21897186 0.03402614 0.06332431 0.09006882 -0.022473704 0.017783254
CNN 0.049177505 0.08766798 -0.08103365 0.053575076 -0.008200336 -0.0432156 0.091579236 0.19559187 -0.115821265 -0.054271642 -0.026070286 -0.1684451 0.046129353 0.06860863 0.035183504 -0.029376274 0.04778636 0.0015118907 -0.0059701395 -0.24848363 0.1192049 0.025136659 0.08363108 -0.03472323 -0.026539467 -0.008285732 -0.09187428 0.002694908 -0.11172134 0.017607773 0.10499908 -0.093609095 0.16489501 -0.17068045 -0.03504488 0.10261091 0.013829047 0.120563395 -0.08575141 -0.033118702 -0.02089314 -0.072574064 -0.04716485 0.12279502 0.10632076 -0.057577115 -0.04926496 -0.12295096 0.05654121 0.080977425 0.040504113 -0.05194687 -0.09054774 -0.09089444 0.05017937 -0.09319275 0.045989472 -0.09664441 -0.0426312 -0.020938946 -0.013398048 -0.05168249 0.04981196 0.046785604 -0.09961561 0.15527996 0.017485747 0.12331186 -0.15099792 0.06201305 -0.016400628 0.061729733 0.12797444 0.041196167 0.15144011 -0.03352114 0.08263992 0.02767188 -0.015404771 -0.00057345507 -0.15493263 -0.080281705 -0.14243832 0.08658483 -0.061509285 -0.13864328 0.048811983 -0.040917043 0.06791284 0.049300123 0.028483147 0.03938841 0.066799775 -0.0036837398 0.18918283 0.05514883 0.03936248 0.09288919 -0.037290238 0.0120168915
DGA 0.08654136 0.08638646 -0.08889265 0.061170258 0.016285418 -0.009758149 0.0785741 0.15377559 -0.11064615 -0.026382303 -0.0037273087 -0.19078021 0.055232506 0.04552293 0.06773034 -0.036580786 0.029766383 0.034177676 -0.00062101346 -0.25412008 0.16451666 0.02075982 0.07282576 -0.029451001 -0.022150666 0.031628847 -0.06416881 0.0003590306 -0.074898034 0.04181156 0.092510715 -0.13224256 0.15103027 -0.16078833 0.017325314 0.09988273 0.037935082 0.11952422 -0.076730795 -0.025902633 -0.0254314 -0.09743912 -0.012695747 0.12768452 0.1145581 -0.048608094 -0.090264656 -0.07928589 0.060373772 0.050178368 0.07072457 -0.029261898 -0.060310677 -0.09053306 0.020358104 -0.08773088 0.07075852 -0.09555801 -0.013690329 -0.04238696 0.0033956682 -0.028679898 0.042241372 0.03268265 -0.11996194 0.11611778 0.03746755 0.15059903 -0.14090297 0.03271729 -0.045312144 0.037513252 0.082922384 0.054522812 0.11190555 -0.02368481 0.12266577 0.049996402 -0.039084442 0.055441644 -0.16433848 -0.070692085 -0.1433195 0.036139987 -0.07388615 -0.14010745 -0.025020838 -0.05976014 0.045496274 0.056814138 0.011134478 0.057484303 0.030436322 -0.012677664 0.25467154 0.064072445 0.058315434 0.06735174 -0.06901086 0.011055859
GTN 0.046363063 0.066676795 -0.06632318 0.07728788 -0.0030024415 -0.021189727 0.08400931 0.18880439 -0.10433163 -0.040042195 -0.03113469 -0.18230082 0.033997864 0.06924532 0.015899155 -0.019069819 0.048537094 0.0055477275 0.020540422 -0.2557027 0.12850216 0.03423375 0.072027236 -0.045330536 -0.041220743 -0.008697802 -0.07546681 0.027771842 -0.10718657 0.02346733 0.12509853 -0.09082424 0.1606005 -0.13502611 -0.03196346 0.10099852 0.024220342 0.10400419 -0.06343193 -0.04319173 -0.005665534 -0.068978265 -0.062375713 0.12211868 0.10195632 -0.06372639 -0.04096202 -0.14795664 0.096659414 0.06725493 0.040795557 -0.024580462 -0.069636285 -0.066189475 0.051941622 -0.085089445 0.04401979 -0.08650588 -0.021079777 -0.0040924056 -0.015478198 -0.01515116 0.03385075 0.03273644 -0.110888645 0.13476497 0.017858746 0.10306467 -0.12722246 0.048165888 -0.024728298 0.040360697 0.0941301 0.030590596 0.14223957 -0.038382344 0.10384225 0.011848673 -0.02277266 -0.0006674691 -0.15416528 -0.0697844 -0.13688664 0.09364939 -0.060516074 -0.12999254 0.014551403 -0.036346745 0.061389204 0.0661579 0.0068811886 0.024215147 0.08197675 -0.002723268 0.19940194 0.039235413 0.049452648 0.10512975 -0.0100406315 0.016978886
CNT 0.016223706 0.11473676 -0.07597467 0.061958026 0.015019135 -0.02931605 0.06964187 0.17373917 -0.08596094 -0.04774027 -0.015956819 -0.17353019 0.053243805 0.057077732 0.031768065 -0.040599156 0.051401988 -0.0052017877 0.012411022 -0.21941814 0.14100064 0.012812031 0.10626214 -0.04671139 0.004870468 -0.019202929 -0.08227917 -0.011612961 -0.09752119 0.006425794 0.123871975 -0.085763745 0.16728409 -0.17400107 -0.032269865 0.12538761 0.037912115 0.11977605 -0.10912836 -0.02709645 -0.031860095 -0.05899678 -0.04421189 0.107137166 0.07179466 -0.046951268 -0.032508377 -0.12870967 0.0496253 0.07099463 0.064307295 -0.04269911 -0.11747925 -0.08063583 0.045856293 -0.09926817 0.056094036 -0.08790065 -0.05106524 -0.030775938 -0.015667481 -0.031286273 0.08163323 0.022148905 -0.104979865 0.13282663 0.02308549 0.102915965 -0.12993933 0.06389442 -0.030125275 0.050166626 0.10375996 0.054226484 0.12811382 -0.045859963 0.063972816 0.008328517 -0.010189917 0.01714486 -0.15961425 -0.07213646 -0.12513997 0.054477178 -0.053924695 -0.13478892 0.043754697 -0.04758535 0.08901252 0.057391156 0.027886149 0.046773102 0.07154939 -0.010015844 0.18755133 0.05728213 0.024392974 0.09671841 -0.059018597 -0.0112156775
NTT 0.030177569 0.11071328 -0.07238303 0.049907003 0.009613338 -0.04393244 0.08777987 0.16695848 -0.10530161 -0.048985463 -0.025696753 -0.17664653 0.061242055 0.041097283 0.045331422 -0.04909712 0.052858815 -0.010504175 0.021464257 -0.22216888 0.13357328 0.013993532 0.11634746 -0.04055102 -0.0043769646 -0.01584729 -0.085684896 -0.017956667 -0.07208605 0.0025182487 0.12896386 -0.08471136 0.15214972 -0.15741296 -0.04282431 0.11960144 0.01561603 0.12580606 -0.1066947 -0.04735737 -0.016229931 -0.047158778 -0.05637023 0.0975157 0.05602185 -0.05808477 -0.058189142 -0.14302854 0.04012661 0.07924547 0.058283817 -0.050716978 -0.11627309 -0.0785887 0.043207206 -0.10298779 0.049679287 -0.08917163 -0.04761632 -0.019849999 -0.019513335 -0.029268203 0.06753378 0.020097725 -0.08767057 0.13709566 0.025425581 0.092405856 -0.117089346 0.04820284 -0.016795898 0.066598386 0.100185275 0.056869224 0.12208757 -0.04190504 0.07966869 0.019170534 -0.019573115 0.00769225 -0.15538664 -0.07871527 -0.11426887 0.060657248 -0.057501774 -0.13365157 0.05621166 -0.040431555 0.0647447 0.042281523 0.035083182 0.04581695 0.051678866 -0.00892039 0.19043624 0.04535244 0.038081065 0.07784291 -0.047177907 -0.00531424
NGA 0.05013428 0.08370277 -0.077756315 0.053088002 0.0036587939 -0.047375895 0.08122756 0.19390027 -0.09266065 -0.055502094 -0.031229617 -0.16594404 0.02855044 0.08214873 0.023819543 -0.038831312 0.047370415 -0.0037258763 -0.007846622 -0.21081291 0.11220713 0.020620119 0.058980405 -0.039618902 -0.021247005 -0.029453034 -0.08952076 -0.001802742 -0.09246933 0.0021650735 0.113300994 -0.07540899 0.15098467 -0.13431568 -0.04535636 0.095124826 0.016621582 0.113503814 -0.06907917 -0.018005548 -0.024600018 -0.037876632 -0.033621397 0.09684674 0.07639208 -0.06292036 -0.032054346 -0.13051559 0.07645143 0.08841414 0.034300983 -0.028856473 -0.10125418 -0.072884746 0.081716664 -0.07522399 0.052601855 -0.06486672 -0.019038375 -0.01369738 -0.033040985 -0.027582152 0.047162306 0.02129936 -0.090388544 0.12117881 0.010462747 0.052791625 -0.13111793 0.06182905 -0.032621484 0.034947243 0.09621161 0.02396153 0.13673118 -0.04124312 0.08765762 0.014012087 -0.033633832 -0.0131515935 -0.13912249 -0.06289649 -0.13783331 0.09382304 -0.055257052 -0.11974491 0.024116198 -0.023832927 0.06786683 0.065792024 -0.007418271 0.0153819835 0.077528015 0.003842358 0.16193889 0.03476738 0.030776164 0.10781625 -0.024793075 -0.0018204794
NCG 0.042218726 0.07119819 -0.06824511 0.04731506 0.02408831 -0.03896951 0.0784654 0.14274538 -0.076281205 -0.052649684 -0.0050064167 -0.12853304 0.03463114 0.041556083 0.029066004 -0.0092124455 0.031905215 0.013505767 0.018207192 -0.17986678 0.112761036 0.0034911497 0.0685886 -0.03473766 -0.0018082848 0.01149171 -0.044170853 0.043271635 -0.043434083 0.00835876 0.08462974 -0.09059709 0.07814252 -0.093362905 -8.976073e-05 0.06974262 0.02261955 0.08094631 -0.044376347 -0.02453899 -0.013845526 -0.07497335 -0.03292328 0.08524586 0.08326358 -0.042518035 -0.061156537 -0.09097595 0.03917238 0.055644087 0.039850272 -0.019713977 -0.05858356 -0.071238674 0.034801587 -0.048626114 0.038533155 -0.07495533 -0.03015931 -0.023721222 -0.016683536 -0.026868992 0.033527832 0.014984522 -0.09532186 0.10686847 0.03034029 0.107873306 -0.067485645 0.026461415 -0.016337747 0.02012668 0.07330018 0.04757189 0.082698576 -0.034165926 0.08415007 0.012488566 -0.016234184 0.02538599 -0.119394004 -0.066743545 -0.085115075 0.035476077 -0.011085883 -0.101318575 0.005923163 -0.049389552 0.038621817 0.011303719 -0.0010174004 0.022038832 0.053664517 -0.013024429 0.16479605 0.0377793 0.0496816 0.04317546 -0.038988624 0.024038985
TNC 0.034848418 0.06598603 -0.049909398 0.06439917 0.0017613289 -0.015633168 0.06342916 0.15019128 -0.086678155 -0.030101862 -0.024102408 -0.15374392 0.024459483 0.061963085 0.023731027 -0.012974335 0.024857042 0.012537722 0.007496153 -0.20662226 0.104363546 0.023264797 0.051259328 -0.01795668 -0.031586446 0.00014916841 -0.054118253 0.02314167 -0.0704167 0.028412081 0.08686999 -0.0922731 0.0968596 -0.110086635 -0.018797094 0.067575574 0.032530062 0.09604626 -0.037809324 -0.025241032 -0.002892769 -0.06178643 -0.047712162 0.10111335 0.07335586 -0.042262405 -0.063590154 -0.089807354 0.07482931 0.0641737 0.020241309 -0.021399735 -0.037761606 -0.083264545 0.057082172 -0.05223419 0.042807005 -0.07588333 -0.019047726 -0.018787581 -0.029096454 -0.02007869 0.024697382 0.01636093 -0.097353846 0.09652967 0.027251998 0.09912361 -0.08729689 0.033231895 -0.015328048 0.020461623 0.065361746 0.009660687 0.0910091 -0.03625703 0.09963431 0.01886672 -0.0071446886 0.0071486807 -0.12286716 -0.067841955 -0.10371753 0.060948983 -0.034512933 -0.11335572 -0.00442736 -0.031816468 0.052404333 0.03806913 -0.014668626 0.029297028 0.05923908 -0.0014418691 0.16770647 0.038431145 0.037916716 0.07594984 -0.01648655 0.030118907
AAS 0.036012325 0.07747682 -0.06161501 0.065825425 0.0096614035 -0.023933098 0.078746 0.15429316 -0.07944796 -0.041430805 -0.011894389 -0.14667813 0.039978728 0.060644336 0.021389855 -0.024739537 0.038014036 0.00806456 0.00575387 -0.20703979 0.08705363 0.028250558 0.045503423 -0.016320463 -0.020673215 -0.0068618706 -0.061431356 0.010339693 -0.086870834 0.02756515 0.09752568 -0.08448789 0.11641603 -0.13168696 -0.035399307 0.07687127 0.018899875 0.092223436 -0.04276716 -0.03653308 -0.00916694 -0.06860342 -0.031720385 0.09449474 0.07551623 -0.05096676 -0.044151895 -0.10746559 0.06662416 0.07138211 0.021704957 -0.03442523 -0.062311 -0.07069792 0.05693843 -0.06761933 0.03805569 -0.06971374 -0.0341977 -0.014250808 -0.004161945 -0.035917144 0.04759036 0.034769718 -0.080914095 0.104626246 0.02356437 0.08518468 -0.10756011 0.046940356 -0.0023571353 0.030681567 0.088885546 0.0070334235 0.10955932 -0.01964561 0.06638615 0.020075057 -0.013778357 0.005774168 -0.12099802 -0.067878924 -0.11845751 0.052466538 -0.043065097 -0.112648584 0.0033479757 -0.020070555 0.06386509 0.046776216 0.013667959 0.029398961 0.06359537 0.0011515641 0.16985813 0.041566417 0.031701997 0.07683147 -0.03361583 0.01375025
NGC 0.037497886 0.064205736 -0.046567608 0.045123603 0.018180205 -0.024020722 0.07335565 0.12368814 -0.07863779 -0.044745777 -0.0008882799 -0.12490584 0.038709354 0.055739626 0.022266436 -0.0123573365 0.028763471 0.0073586907 -0.01128299 -0.16989048 0.0837827 0.013834971 0.06625565 -0.016418157 -0.023620587 0.015247105 -0.03891149 0.0025397013 -0.07078659 0.02499685 0.07678727 -0.08538945 0.09561372 -0.109754406 -0.013476381 0.07761629 0.006679986 0.074748166 -0.038756475 -0.024126068 -0.0033133454 -0.044578407 -0.036410633 0.07834643 0.07775597 -0.030828217 -0.033171203 -0.07645602 0.05096119 0.038019348 0.03209677 -0.03707886 -0.05049891 -0.051748373 0.030334674 -0.053295217 0.025766304 -0.057435844 -0.013379707 -0.02688027 -0.0072388076 -0.03561037 0.03117361 0.03137177 -0.072578155 0.095603056 0.019054277 0.07617538 -0.086249806 0.03594535 -0.016296413 0.043873075 0.07510023 0.019335516 0.08589615 -0.02347728 0.057964798 0.02073681 -0.007108042 -0.008479622 -0.108412705 -0.053765744 -0.09315121 0.04060438 -0.03666368 -0.094640285 0.015475408 -0.03174047 0.033507552 0.03337112 -0.0014679955 0.027850509 0.047883764 -0.0015509931 0.15560079 0.029968094 0.031709496 0.04074663 -0.014432858 0.0029972815
GDG 0.03698947 0.08617066 -0.070139654 0.046497658 0.0072068684 -0.021767681 0.066153266 0.1265375 -0.060669765 -0.015373387 -0.03466281 -0.14774466 0.0371461 0.056420017 0.02927763 -0.020649955 0.01968417 0.004966166 -0.0050063333 -0.19143924 0.11295722 0.01931805 0.06115258 -0.03382974 -0.026767148 0.002959765 -0.049064673 -0.012680917 -0.083241686 0.018534476 0.09777284 -0.084806375 0.114676945 -0.1194132 -0.03149394 0.08451135 0.013080122 0.09881793 -0.06055838 -0.01596025 -0.028100537 -0.060700215 -0.021863276 0.072291434 0.072357684 -0.045017127 -0.053647015 -0.07277628 0.049302373 0.054550204 0.048158415 -0.026292503 -0.054701358 -0.085492045 0.037960596 -0.067420594 0.0602248 -0.07842012 -0.04292478 -0.022595104 0.0024094102 -0.02993699 0.041182443 0.029568639 -0.061871596 0.08669549 0.024363877 0.08987638 -0.10534913 0.023734469 -0.016447883 0.027128778 0.058018163 0.019872833 0.11264945 -0.024656774 0.070260406 0.019957539 0.0048185242 0.021133717 -0.121065624 -0.07519188 -0.107573226 0.05458525 -0.03512038 -0.11407988 0.0147392275 -0.03526812 0.05165098 0.04429752 0.017746676 0.039344624 0.06868377 -0.03318143 0.15723294 0.047017593 0.015285752 0.07163371 -0.031747516 0.012395719
SAG 0.036369644 0.057404395 -0.051776364 0.05648535 0.023331588 -0.0155349355 0.0560183 0.13924468 -0.08371071 -0.04718991 -0.02466466 -0.14004493 0.027388355 0.053368267 0.020552997 -0.031271506 0.028002352 0.009785402 0.026451292 -0.17113653 0.08991071 0.009728319 0.07004393 -0.028161312 -0.011797104 -0.0010775246 -0.05539454 0.021964105 -0.083736874 0.013422703 0.07993224 -0.07408154 0.10533031 -0.11204779 -0.01691527 0.067303315 0.00870332 0.074577056 -0.0539027 -0.031612042 -0.013679175 -0.057088338 -0.04285196 0.075620614 0.06743466 -0.049032073 -0.030141735 -0.09695751 0.069121026 0.06671184 0.031344753 -0.03870339 -0.03859474 -0.066109255 0.04958025 -0.06348261 0.027952865 -0.06393415 -0.017223025 -0.012095209 -0.0077070906 -0.01365639 0.044344947 0.023856388 -0.08833699 0.08582436 0.015478965 0.095387295 -0.10346503 0.05030743 0.0054877163 0.025174176 0.07994632 0.017556451 0.09246703 -0.025910456 0.065182835 0.02640508 -0.012095694 -0.009697056 -0.11073506 -0.06142266 -0.113861434 0.058423202 -0.04089687 -0.10276039 0.021713218 -0.036132652 0.048314963 0.04108386 0.007562619 0.023817362 0.048631553 0.008728623 0.15496182 0.03669826 0.02671598 0.052116584 -0.021114124 0.0024090346
ASA 0.02395773 0.057854943 -0.071196474 0.05571261 0.00034448243 -0.018442674 0.07882203 0.15240741 -0.06607038 -0.03075352 -0.013766661 -0.13084328 0.03344967 0.05744719 0.014305507 -0.03455646 0.044913754 0.0082708355 0.026180435 -0.18656762 0.08962596 0.025036518 0.038396414 -0.015178216 -0.028131055 -0.008965115 -0.07675044 0.008172553 -0.07827897 0.006988497 0.07829297 -0.071535885 0.10430238 -0.10699458 -0.017293703 0.070435695 0.019725433 0.07684282 -0.042267073 -0.022337452 -0.023117453 -0.047676332 -0.04820378 0.09040495 0.06690525 -0.04504587 -0.03305304 -0.091497175 0.07629982 0.06930987 0.026936803 -0.026196718 -0.050726507 -0.057436477 0.04756539 -0.058016036 0.039755553 -0.05810497 -0.014007509 -0.004606201 -0.020249858 -0.024597198 0.03480513 0.021494508 -0.08794537 0.106061526 0.0012221963 0.081494816 -0.111400776 0.03871322 -0.00882061 0.04265076 0.09202285 0.014491894 0.10647288 -0.03710014 0.06534864 0.0256441 -0.019742206 -0.003937431 -0.123455845 -0.051009253 -0.10039148 0.06705294 -0.034540918 -0.09964186 0.01075499 -0.028323313 0.055092808 0.049106956 0.00027740674 0.020934448 0.059176233 0.0061665433 0.14579888 0.03666794 0.04229546 0.080742076 -0.0101215765 0.004412465
NCT 0.042119972 0.066208065 -0.055617947 0.047080725 0.010749318 -0.02438586 0.07222654 0.14103413 -0.08134553 -0.04401462 -0.024905197 -0.13992247 0.043328863 0.06160961 0.023740906 -0.026977297 0.027519371 0.010002045 0.008368067 -0.18268865 0.11397579 0.005310594 0.06591801 -0.030615725 -0.009168021 -0.015818324 -0.05865806 -0.0075155376 -0.06757753 0.008700417 0.088322386 -0.06349556 0.12187384 -0.12090235 -0.014214111 0.08881677 0.021855146 0.09583812 -0.07364491 -0.03514941 -0.021116186 -0.048904207 -0.034008563 0.09352877 0.06995555 -0.04811701 -0.046051975 -0.09907157 0.052424457 0.057501312 0.047315855 -0.026673852 -0.077071674 -0.059979785 0.034976333 -0.07701947 0.030252462 -0.07707468 -0.03717185 -0.009678695 -0.022819737 -0.018572515 0.048956055 0.022280686 -0.09054906 0.09693638 0.0145532675 0.08996297 -0.11097677 0.05326861 -0.024018701 0.050629 0.07929925 0.024402043 0.10815624 -0.036571633 0.08139412 0.0021096803 -0.0155575145 0.014228464 -0.11651541 -0.055298466 -0.1082073 0.052044988 -0.042763975 -0.11340211 0.033324093 -0.026534297 0.058412842 0.050133016 0.0034939358 0.035084613 0.04787311 0.0031866652 0.14255802 0.04129238 0.029533453 0.07576481 -0.02931761 0.0059946887
RTC 0.021896405 0.065695375 -0.06485665 0.048728153 0.012458515 -0.027712235 0.07712359 0.13240017 -0.075545505 -0.025160098 -0.02618596 -0.15055786 0.033383746 0.05210199 0.017077722 -0.038437452 0.033194717 -0.0033835592 0.0048925993 -0.17752412 0.11115581 0.027951082 0.047209747 -0.03374622 -0.019765282 -0.016714346 -0.06081478 -0.001386989 -0.08388889 0.004760779 0.09035423 -0.062387962 0.11107298 -0.11938642 -0.02968444 0.08097464 -0.0032310742 0.098511726 -0.044873096 -0.03501342 -0.01201429 -0.048330527 -0.022599127 0.09428367 0.06867557 -0.050907746 -0.04641587 -0.09879479 0.07135244 0.0570336 0.04578028 -0.035940118 -0.045814313 -0.06190051 0.04124817 -0.062200557 0.03088657 -0.066736035 -0.03191436 -0.008997185 -0.010611535 -0.016642638 0.03852641 0.01236153 -0.08567924 0.0899943 0.009915429 0.09353507 -0.09989822 0.03604177 -0.010203545 0.037839666 0.07779658 0.020227477 0.120932266 -0.023433685 0.07689531 0.030533303 -0.019092046 -0.009751025 -0.13105014 -0.050089106 -0.11580647 0.048414383 -0.0442706 -0.1100585 0.022973923 -0.031623896 0.060535993 0.034830257 0.018593878 0.03456952 0.05382445 -0.011178438 0.1573452 0.037453823 0.03435592 0.08442842 -0.02045794 0.020736368
